svm_type c_svc
kernel_type rbf
gamma 8
nr_class 2
total_sv 5337
rho 0.5642882175988494
label 1 0
nr_sv 2110 3227
SV
2 1:-1 2:-1 3:-1 4:-1 5:-1 6:-1 7:-1 8:-1 9:-1 10:-1 11:-1 12:-1 13:-1 14:-1 15:-1 16:-1 17:-1 18:-1 19:-1 20:-1 21:-1 
2 1:-1 2:-1 3:-1 4:-1 5:-1 6:-1 7:-1 8:-1 9:-1 10:-1 11:-1 12:-1 13:-1 14:-1 15:-1 16:-1 17:-1 18:-1 19:-1 20:-1 21:-1 
2 1:-0.5 2:-0.59322 3:-1 4:-0.881657 5:-1 6:-1 7:-1 8:-1 9:-1 10:-1 11:-1 12:-1 13:-1 14:-1 15:-1 16:-1 17:-1 18:-1 19:-1 20:-1 21:-1 
2 1:-1 2:-1 3:-0.939394 4:-1 5:-1 6:-1 7:-1 8:-1 9:-1 10:-0.836735 11:-1 12:-0.918367 13:-0.736842 14:-1 15:-1 16:-1 17:-1 18:-1 19:-1 20:-1 21:-1 
2 1:-1 2:-0.932203 3:-1 4:-0.881657 5:-1 6:-1 7:-1 8:-1 9:-1 10:-0.918367 11:-1 12:-1 13:-1 14:-1 15:-1 16:-1 17:-1 18:-1 19:-1 20:-1 21:-1 
2 1:-1 2:-0.864407 3:-1 4:-1 5:-1 6:-1 7:-1 8:-1 9:-1 10:-1 11:-1 12:-1 13:-1 14:-1 15:-1 16:-1 17:-1 18:-1 19:-1 20:-1 21:-1 
2 1:-0.822917 2:-1 3:-0.914141 4:-1 5:-1 6:-1 7:-1 8:-1 9:-1 10:-0.877551 11:-1 12:-1 13:-0.736842 14:-1 15:-0.885057 16:-0.789474 17:-1 18:-1 19:-1 20:-1 21:-1 
2 1:-1 2:-1 3:-1 4:-1 5:-1 6:-1 7:-1 8:-1 9:-1 10:-1 11:-1 12:-1 13:-1 14:-1 15:-1 16:-1 17:-1 18:-1 19:-1 20:-1 21:-1 
2 1:-1 2:-1 3:-1 4:-1 5:-1 6:-1 7:-1 8:-1 9:-1 10:-1 11:-1 12:-1 13:-1 14:-1 15:-1 16:-1 17:-1 18:-1 19:-1 20:-1 21:-1 
2 1:-1 2:-0.288136 3:-1 4:0.0650888 5:-0.676768 6:0.220339 7:-1 8:-0.779006 9:-0.75 10:-1 11:-1 12:-1 13:-1 14:-1 15:-1 16:-1 17:-1 18:-1 19:-1 20:-1 21:-1 
2 1:-0.833333 2:-0.59322 3:-0.741414 4:-0.881657 5:-1 6:-1 7:-1 8:-1 9:-1 10:-1 11:-1 12:-1 13:-1 14:-1 15:-1 16:-1 17:-1 18:-1 19:-1 20:-1 21:-1 
1.1669732913399558 1:-0.5 2:-0.674576 3:-0.878788 4:0.0650888 5:-0.676768 6:0.220339 7:-0.25 8:-1 9:-1 10:-1 11:-1 12:-1 13:-1 14:-1 15:-1 16:-1 17:-1 18:-1 19:-1 20:-1 21:-1 
2 1:-1 2:-1 3:-1 4:-1 5:-1 6:-1 7:-1 8:-1 9:-1 10:-1 11:-1 12:-1 13:-1 14:-1 15:-1 16:-1 17:-1 18:-1 19:-1 20:-1 21:-1 
2 1:-1 2:-0.864407 3:-1 4:-1 5:-1 6:-0.59322 7:-1 8:-1 9:-1 10:-1 11:-1 12:-1 13:-1 14:-1 15:-1 16:-1 17:-1 18:-1 19:-1 20:-1 21:-1 
2 1:-1 2:-1 3:-1 4:-1 5:-1 6:-1 7:-1 8:-1 9:-1 10:-1 11:-1 12:-1 13:-1 14:-1 15:-1 16:-1 17:-1 18:-1 19:-1 20:-1 21:-1 
0.60328874241067088 1:-1 2:-0.674576 3:-1 4:-0.64497 5:-1 6:-1 7:-1 8:-1 9:-1 10:-1 11:-1 12:-1 13:-1 14:-1 15:-1 16:-1 17:-1 18:-1 19:-1 20:-1 21:-1 
2 1:-1 2:-1 3:-1 4:-1 5:-1 6:-1 7:-1 8:-1 9:-1 10:-1 11:-1 12:-1 13:-1 14:-1 15:-1 16:-1 17:-1 18:-1 19:-1 20:-1 21:-1 
2 1:-1 2:-0.830508 3:-0.89899 4:-0.289941 5:-0.676768 6:-0.864407 7:-1 8:-1 9:-1 10:-1 11:-1 12:-1 13:-1 14:-1 15:-1 16:-1 17:-1 18:-1 19:-1 20:-1 21:-1 
1.4053661897251721 1:-0.291667 2:-0.864407 3:-0.757576 4:-0.497041 5:-1 6:-0.59322 7:-1 8:-0.779006 9:-1 10:-0.918367 11:-1 12:-1 13:-1 14:-1 15:-1 16:-1 17:-1 18:-1 19:-1 20:-1 21:-1 
2 1:-1 2:-1 3:-1 4:-1 5:-1 6:-1 7:-1 8:-1 9:-1 10:-1 11:-1 12:-1 13:-1 14:-1 15:-1 16:-1 17:-1 18:-1 19:-1 20:-1 21:-1 
2 1:-1 2:-1 3:-1 4:-1 5:-1 6:-1 7:-1 8:-1 9:-1 10:-1 11:-1 12:-1 13:-1 14:-1 15:-1 16:-1 17:-1 18:-1 19:-1 20:-1 21:-1 
0.58418968052804998 1:-0.833333 2:-0.59322 3:-1 4:-0.881657 5:-0.676768 6:-1 7:-1 8:-1 9:-1 10:-1 11:-1 12:-1 13:-1 14:-1 15:-1 16:-1 17:-1 18:-1 19:-1 20:-1 21:-1 
2 1:-1 2:-0.79661 3:-1 4:-0.112426 5:-0.676768 6:-1 7:-0.75 8:-0.447514 9:-1 10:-0.387755 11:-1 12:-1 13:-1 14:-1 15:-1 16:-1 17:-1 18:-1 19:-1 20:-1 21:-1 
2 1:-1 2:-0.864407 3:-0.757576 4:-0.64497 5:-1 6:-1 7:-1 8:-1 9:-1 10:-1 11:-1 12:-1 13:-1 14:-1 15:-1 16:-1 17:-1 18:-1 19:-1 20:-1 21:-1 
2 1:-1 2:-1 3:-1 4:-1 5:-0.63367 6:-1 7:-0.75 8:-0.779006 9:-1 10:-1 11:-1 12:-1 13:-1 14:-1 15:-1 16:-1 17:-1 18:-1 19:-1 20:-1 21:-1 
2 1:-1 2:-1 3:-1 4:-1 5:-1 6:-1 7:-1 8:-1 9:-1 10:-1 11:-1 12:-1 13:-1 14:-1 15:-1 16:-1 17:-1 18:-1 19:-1 20:-1 21:-1 
2 1:-0.833333 2:-1 3:-0.858586 4:-1 5:-0.811448 6:-1 7:-0.875 8:-1 9:-0.916667 10:-1 11:-1 12:-1 13:-1 14:-1 15:-1 16:-1 17:-1 18:-1 19:-1 20:-1 21:-1 
2 1:-1 2:-1 3:-1 4:-1 5:-1 6:-1 7:-1 8:-1 9:-1 10:-1 11:-1 12:-1 13:-1 14:-1 15:-1 16:-1 17:-1 18:-1 19:-1 20:-1 21:-1 
1.4662613467976091 1:0.25 2:-0.59322 3:-0.757576 4:-0.64497 5:-1 6:-0.59322 7:-0.375 8:-1 9:-1 10:-1 11:-1 12:-1 13:-1 14:-1 15:-1 16:-1 17:-1 18:-1 19:-1 20:-1 21:-1 
2 1:-1 2:-1 3:-1 4:-1 5:-1 6:-1 7:-1 8:-1 9:-1 10:-1 11:-1 12:-1 13:-1 14:-1 15:-1 16:-1 17:-1 18:-1 19:-1 20:-1 21:-1 
1.5694193828021605 1:-0.677083 2:-1 3:-0.717172 4:-1 5:-1 6:-1 7:-1 8:-1 9:-1 10:-1 11:-0.494253 12:-1 13:-0.210526 14:-1 15:-1 16:-1 17:-0.689119 18:-0.310345 19:-1 20:-1 21:-1 
1.2701046864465459 1:0.5 2:-0.59322 3:-0.272727 4:-1 5:-0.224242 6:-1 7:-1 8:-1 9:-1 10:-1 11:-1 12:-1 13:-1 14:-1 15:-1 16:-1 17:-1 18:-1 19:-1 20:-1 21:-1 
2 1:-1 2:-1 3:-1 4:-1 5:-1 6:-1 7:-1 8:-1 9:-1 10:-1 11:-1 12:-1 13:-1 14:-1 15:-1 16:-1 17:-1 18:-1 19:-1 20:-1 21:-1 
2 1:-1 2:-1 3:-1 4:-0.64497 5:-1 6:-1 7:-1 8:-1 9:-1 10:-1 11:-1 12:-1 13:-1 14:-1 15:-1 16:-1 17:-1 18:-1 19:-1 20:-1 21:-1 
2 1:-1 2:-1 3:-1 4:-1 5:-1 6:-1 7:-1 8:-1 9:-1 10:-1 11:-1 12:-1 13:-1 14:-1 15:-1 16:-1 17:-1 18:-1 19:-1 20:-1 21:-1 
2 1:-1 2:-1 3:-1 4:-1 5:-1 6:-1 7:-1 8:-1 9:-1 10:-1 11:-1 12:-1 13:-1 14:-1 15:-1 16:-1 17:-1 18:-1 19:-1 20:-1 21:-1 
2 1:-1 2:-0.674576 3:-1 4:-0.64497 5:-1 6:-1 7:-1 8:-1 9:-1 10:-1 11:-1 12:-1 13:-1 14:-1 15:-1 16:-1 17:-1 18:-1 19:-1 20:-1 21:-1 
1.4005477401426289 1:-0.5 2:-0.728814 3:-0.757576 4:-1 5:-1 6:-1 7:-1 8:-1 9:-1 10:-1 11:-1 12:-1 13:-1 14:-1 15:-1 16:-1 17:-1 18:-1 19:-1 20:-1 21:-1 
2 1:-1 2:-1 3:-0.838384 4:-1 5:-1 6:-1 7:-1 8:-1 9:-1 10:-1 11:-1 12:-1 13:-1 14:-1 15:-1 16:-1 17:-1 18:-1 19:-1 20:-1 21:-1 
2 1:-1 2:-1 3:-0.878788 4:-0.64497 5:-0.892256 6:-0.79661 7:-1 8:-1 9:-1 10:-1 11:-1 12:-1 13:-1 14:-1 15:-1 16:-1 17:-1 18:-1 19:-1 20:-1 21:-1 
2 1:-0.833333 2:-1 3:-0.757576 4:-1 5:-1 6:-0.59322 7:-1 8:-0.779006 9:-1 10:-1 11:-1 12:-1 13:-1 14:-1 15:-1 16:-1 17:-1 18:-1 19:-1 20:-1 21:-1 
1.8261225516379156 1:-1 2:-1 3:-0.636364 4:0.0650888 5:-0.676768 6:0.220339 7:-0.25 8:-0.668508 9:-1 10:-1 11:-1 12:-1 13:-1 14:-1 15:-1 16:-1 17:-1 18:-1 19:-1 20:-1 21:-1 
2 1:-0.5 2:-1 3:-0.69697 4:-1 5:-0.59596 6:-1 7:-0.75 8:-1 9:-0.75 10:-1 11:-1 12:-1 13:-1 14:-1 15:-1 16:-1 17:-1 18:-1 19:-1 20:-1 21:-1 
2 1:-1 2:-1 3:-0.725253 4:-0.64497 5:-1 6:-1 7:-1 8:-1 9:-1 10:-1 11:-1 12:-1 13:-1 14:-1 15:-1 16:-1 17:-1 18:-1 19:-1 20:-1 21:-1 
1.0911215196933841 1:-1 2:-1 3:-0.757576 4:-1 5:-0.676768 6:-1 7:-1 8:-1 9:-1 10:-1 11:-1 12:-1 13:-1 14:-1 15:-1 16:-1 17:-1 18:-1 19:-1 20:-1 21:-1 
2 1:-1 2:-1 3:-1 4:-1 5:-1 6:-1 7:-1 8:-1 9:-1 10:-1 11:-1 12:-1 13:-1 14:-1 15:-1 16:-1 17:-1 18:-1 19:-1 20:-1 21:-1 
2 1:-1 2:0.0169492 3:-0.757576 4:-1 5:-0.191919 6:-1 7:-1 8:-1 9:-1 10:-1 11:-1 12:-1 13:-1 14:-1 15:-1 16:-1 17:-1 18:-1 19:-1 20:-1 21:-1 
2 1:-1 2:-0.864407 3:-1 4:-0.64497 5:-1 6:-1 7:-1 8:-1 9:-1 10:-1 11:-1 12:-1 13:-1 14:-1 15:-1 16:-1 17:-1 18:-1 19:-1 20:-1 21:-1 
0.92974893425572591 1:-0.5 2:-0.864407 3:-0.628283 4:-0.289941 5:-0.676768 6:-0.186441 7:-1 8:-1 9:-1 10:-1 11:-1 12:-1 13:-1 14:-1 15:-1 16:-1 17:-1 18:-1 19:-1 20:-1 21:-1 
1.5434208561367038 1:-1 2:-0.59322 3:-0.757576 4:-0.881657 5:-0.741414 6:-1 7:-1 8:-1 9:-1 10:-1 11:-1 12:-1 13:-1 14:-1 15:-1 16:-1 17:-1 18:-1 19:-1 20:-1 21:-1 
2 1:-1 2:-1 3:-1 4:-1 5:-1 6:-1 7:-1 8:-1 9:-1 10:-1 11:-1 12:-1 13:-1 14:-1 15:-1 16:-1 17:-1 18:-1 19:-1 20:-1 21:-1 
2 1:-1 2:-1 3:-1 4:-1 5:-0.676768 6:-1 7:-1 8:-1 9:-1 10:-1 11:-1 12:-1 13:-1 14:-1 15:-1 16:-1 17:-1 18:-1 19:-1 20:-1 21:-1 
2 1:-1 2:-1 3:-1 4:-1 5:-1 6:-1 7:-1 8:-1 9:-1 10:-1 11:-1 12:-1 13:-1 14:-1 15:-1 16:-1 17:-1 18:-1 19:-1 20:-1 21:-1 
2 1:-0.833333 2:-0.864407 3:-1 4:-0.64497 5:-0.676768 6:-1 7:-1 8:-1 9:-1 10:-1 11:-1 12:-1 13:-1 14:-1 15:-1 16:-1 17:-1 18:-1 19:-1 20:-1 21:-1 
2 1:-1 2:-1 3:-0.757576 4:-1 5:-1 6:-1 7:-1 8:-1 9:-0.75 10:-1 11:-1 12:-1 13:-1 14:-1 15:-1 16:-1 17:-1 18:-1 19:-1 20:-1 21:-1 
2 1:-1 2:-1 3:-1 4:-1 5:-1 6:-1 7:-1 8:-1 9:-1 10:-1 11:-1 12:-1 13:-1 14:-1 15:-1 16:-1 17:-1 18:-1 19:-1 20:-1 21:-1 
1.5169036546767776 1:-0.5625 2:0.186441 3:-1 4:-1 5:-0.892256 6:0.620339 7:-0.75 8:-1 9:-0.375 10:-1 11:-0.724138 12:-0.755102 13:-1 14:-1 15:-1 16:-1 17:-1 18:-1 19:-1 20:-1 21:-1 
0.35875065897033775 1:-0.5 2:-0.59322 3:-0.563636 4:-1 5:-1 6:-1 7:-1 8:-1 9:-1 10:-1 11:-1 12:-1 13:-1 14:-1 15:-1 16:-1 17:-1 18:-1 19:-1 20:-1 21:-1 
2 1:-1 2:-0.59322 3:-1 4:-1 5:-0.676768 6:-1 7:-0.75 8:-1 9:-1 10:-1 11:-1 12:-1 13:-1 14:-1 15:-1 16:-1 17:-1 18:-1 19:-1 20:-1 21:-1 
2 1:-1 2:-0.389831 3:-0.919192 4:-0.467456 5:-1 6:-1 7:-0.75 8:-0.779006 9:-1 10:-1 11:-1 12:-1 13:-1 14:-1 15:-1 16:-1 17:-1 18:-1 19:-1 20:-1 21:-1 
2 1:-0.666667 2:-0.864407 3:-0.838384 4:-1 5:-1 6:-1 7:-0.866667 8:-1 9:-1 10:-1 11:-1 12:-1 13:-1 14:-1 15:-1 16:-1 17:-1 18:-1 19:-1 20:-1 21:-1 
2 1:-1 2:-1 3:-1 4:-1 5:-1 6:-1 7:-1 8:-1 9:-1 10:-1 11:-1 12:-1 13:-1 14:-1 15:-1 16:-1 17:-1 18:-1 19:-1 20:-1 21:-1 
2 1:-0.833333 2:-1 3:-0.919192 4:-1 5:-1 6:-1 7:-1 8:-1 9:-0.916667 10:-1 11:-0.908046 12:-0.918367 13:-1 14:-1 15:-1 16:-1 17:-1 18:-1 19:-1 20:-1 21:-1 
0.50621749609057798 1:-0.833333 2:-0.59322 3:-0.757576 4:-1 5:-1 6:-1 7:-1 8:-1 9:-1 10:-1 11:-1 12:-1 13:-1 14:-1 15:-1 16:-1 17:-1 18:-1 19:-1 20:-1 21:-1 
2 1:-0.833333 2:-1 3:-1 4:-1 5:-1 6:-1 7:-1 8:-1 9:-1 10:-1 11:-1 12:-1 13:-1 14:-1 15:-1 16:-1 17:-1 18:-1 19:-1 20:-1 21:-1 
2 1:-1 2:-1 3:-1 4:-1 5:-1 6:-1 7:-1 8:-1 9:-1 10:-1 11:-1 12:-1 13:-1 14:-1 15:-1 16:-1 17:-1 18:-1 19:-1 20:-1 21:-1 
1.0993170804300496 1:-0.5 2:-0.349153 3:-0.515152 4:-0.64497 5:-0.892256 6:-0.59322 7:-0.5 8:-1 9:-1 10:-1 11:-1 12:-1 13:-1 14:-1 15:-1 16:-1 17:-1 18:-1 19:-1 20:-1 21:-1 
1.6692778627524003 1:0.25 2:-0.59322 3:-0.393939 4:-1 5:-0.030303 6:-0.59322 7:-0.25 8:-1 9:-1 10:-1 11:-1 12:-1 13:-1 14:-1 15:-1 16:-1 17:-1 18:-1 19:-1 20:-1 21:-1 
0.90174352676433878 1:-0.291667 2:0.152542 3:-0.757576 4:0.00591716 5:-0.283502 6:-1 7:-0.5 8:-0.779006 9:-0.5 10:-1 11:-1 12:-1 13:-1 14:-1 15:-1 16:-1 17:-1 18:-1 19:-1 20:-1 21:-1 
1.9884183079859272 1:-0.5 2:-0.59322 3:-1 4:-1 5:-0.838384 6:-0.79661 7:-0.75 8:-1 9:-1 10:-1 11:-1 12:-1 13:-1 14:-1 15:-1 16:-1 17:-1 18:-1 19:-1 20:-1 21:-1 
2 1:-1 2:-1 3:-1 4:-1 5:-1 6:-1 7:-1 8:-1 9:-1 10:-1 11:-1 12:-1 13:-1 14:-1 15:-1 16:-1 17:-1 18:-1 19:-1 20:-1 21:-1 
2 1:-1 2:-1 3:-1 4:-1 5:-1 6:-1 7:-1 8:-1 9:-1 10:-1 11:-1 12:-1 13:-1 14:-1 15:-1 16:-1 17:-1 18:-1 19:-1 20:-1 21:-1 
2 1:-1 2:-1 3:-1 4:-1 5:-1 6:-1 7:-1 8:-1 9:-1 10:-1 11:-1 12:-1 13:-1 14:-1 15:-1 16:-1 17:-1 18:-1 19:-1 20:-1 21:-1 
2 1:-0.5 2:-1 3:-0.555556 4:-0.64497 5:-0.407407 6:-1 7:-1 8:-1 9:-1 10:-1 11:-1 12:-1 13:-1 14:-1 15:-1 16:-1 17:-1 18:-1 19:-1 20:-1 21:-1 
2 1:-0.833333 2:-0.538983 3:-0.515152 4:-0.64497 5:-0.353535 6:-1 7:-1 8:-1 9:-1 10:-1 11:-1 12:-1 13:-1 14:-1 15:-1 16:-1 17:-1 18:-1 19:-1 20:-1 21:-1 
2 1:-1 2:-1 3:-1 4:-1 5:-1 6:-1 7:-1 8:-1 9:-1 10:-1 11:-1 12:-1 13:-1 14:-1 15:-1 16:-1 17:-1 18:-1 19:-1 20:-1 21:-1 
0.49398722135993534 1:-1 2:-0.59322 3:-0.466667 4:-0.467456 5:-0.676768 6:-0.59322 7:-1 8:-1 9:-1 10:-1 11:-1 12:-1 13:-1 14:-1 15:-1 16:-1 17:-1 18:-1 19:-1 20:-1 21:-1 
1.7220399925232666 1:-0.833333 2:-0.59322 3:-0.757576 4:-1 5:-0.569024 6:-1 7:-0.416667 8:-0.779006 9:-0.75 10:-1 11:-1 12:-1 13:-1 14:-1 15:-1 16:-1 17:-1 18:-1 19:-1 20:-1 21:-1 
2 1:-1 2:-1 3:-1 4:-1 5:-1 6:-1 7:-1 8:-1 9:-1 10:-1 11:-1 12:-1 13:-1 14:-1 15:-1 16:-1 17:-1 18:-1 19:-1 20:-1 21:-1 
2 1:-0.5 2:-1 3:-1 4:-1 5:-0.741414 6:-1 7:-1 8:-1 9:-1 10:-1 11:-1 12:-1 13:-1 14:-1 15:-1 16:-1 17:-1 18:-1 19:-1 20:-1 21:-1 
2 1:-0.5 2:-0.59322 3:-1 4:-1 5:-0.676768 6:-1 7:-1 8:-0.779006 9:-1 10:-1 11:-1 12:-1 13:-1 14:-1 15:-1 16:-1 17:-1 18:-1 19:-1 20:-1 21:-1 
2 1:-1 2:-1 3:-1 4:-1 5:-1 6:-1 7:-1 8:-1 9:-1 10:-1 11:-1 12:-1 13:-1 14:-1 15:-1 16:-1 17:-1 18:-1 19:-1 20:-1 21:-1 
2 1:-1 2:-1 3:-1 4:-1 5:-1 6:-1 7:-1 8:-1 9:-1 10:-1 11:-1 12:-1 13:-1 14:-1 15:-1 16:-1 17:-1 18:-1 19:-1 20:-1 21:-1 
2 1:-0.416667 2:-1 3:-0.717172 4:-1 5:-0.806061 6:-0.864407 7:-1 8:-1 9:-1 10:-1 11:-1 12:-1 13:-1 14:-1 15:-1 16:-1 17:-1 18:-1 19:-1 20:-1 21:-1 
1.4075550317287353 1:-0.5 2:-0.59322 3:-1 4:-1 5:-1 6:-0.267797 7:-0.916667 8:-0.779006 9:-0.75 10:-1 11:-1 12:-1 13:-1 14:-1 15:-1 16:-1 17:-1 18:-1 19:-1 20:-1 21:-1 
0.56377958879261703 1:-0.833333 2:-1 3:-1 4:-1 5:-0.676768 6:-0.59322 7:-1 8:-0.572744 9:-1 10:-0.755102 11:-0.724138 12:-1 13:-1 14:-1 15:-1 16:-1 17:-1 18:-1 19:-1 20:-1 21:-1 
2 1:-1 2:-0.891525 3:-1 4:-0.881657 5:-1 6:-1 7:-1 8:-1 9:-1 10:-1 11:-1 12:-1 13:-1 14:-1 15:-1 16:-1 17:-1 18:-1 19:-1 20:-1 21:-1 
2 1:-1 2:-1 3:-1 4:-1 5:-1 6:-1 7:-1 8:-1 9:-1 10:-1 11:-1 12:-1 13:-1 14:-1 15:-1 16:-1 17:-1 18:-1 19:-1 20:-1 21:-1 
2 1:-1 2:-1 3:-1 4:-1 5:-1 6:-1 7:-1 8:-1 9:-1 10:-1 11:-1 12:-1 13:-1 14:-1 15:-1 16:-1 17:-1 18:-1 19:-1 20:-1 21:-1 
2 1:-1 2:-1 3:-1 4:-1 5:-1 6:-1 7:-1 8:-1 9:-1 10:-1 11:-1 12:-1 13:-1 14:-1 15:-1 16:-1 17:-1 18:-1 19:-1 20:-1 21:-1 
2 1:-1 2:-1 3:-1 4:-1 5:-1 6:-1 7:-1 8:-1 9:-1 10:-1 11:-1 12:-1 13:-1 14:-1 15:-1 16:-1 17:-1 18:-1 19:-1 20:-1 21:-1 
2 1:-1 2:-1 3:-1 4:-1 5:-1 6:-1 7:-1 8:-1 9:-1 10:-1 11:-1 12:-1 13:-1 14:-1 15:-1 16:-1 17:-1 18:-1 19:-1 20:-1 21:-1 
1.5734721503165816 1:-0.25 2:-1 3:-0.757576 4:-1 5:-0.515152 6:-0.864407 7:-0.5 8:-0.779006 9:-0.75 10:-1 11:-0.448276 12:-0.755102 13:-0.868421 14:-0.439252 15:-1 16:-1 17:-1 18:-1 19:-1 20:-1 21:-1 
1.674722891631627 1:-0.5 2:-0.186441 3:-1 4:-0.289941 5:-1 6:-0.59322 7:-1 8:-0.779006 9:-1 10:-1 11:-1 12:-1 13:-1 14:-1 15:-1 16:-1 17:-1 18:-1 19:-1 20:-1 21:-1 
2 1:-1 2:-1 3:-1 4:-1 5:-1 6:-1 7:-1 8:-1 9:-1 10:-1 11:-1 12:-1 13:-1 14:-1 15:-1 16:-1 17:-1 18:-1 19:-1 20:-1 21:-1 
2 1:-1 2:-0.674576 3:-1 4:-0.64497 5:-0.676768 6:-1 7:-0.75 8:-0.779006 9:-1 10:-1 11:-1 12:-1 13:-1 14:-1 15:-1 16:-1 17:-1 18:-1 19:-1 20:-1 21:-1 
2 1:-1 2:-1 3:-1 4:-1 5:-1 6:-1 7:-1 8:-1 9:-1 10:-1 11:-1 12:-1 13:-1 14:-1 15:-1 16:-1 17:-1 18:-1 19:-1 20:-1 21:-1 
2 1:-1 2:-1 3:-1 4:-1 5:-0.676768 6:-1 7:-1 8:-1 9:-1 10:-1 11:-1 12:-1 13:-1 14:-1 15:-1 16:-1 17:-1 18:-1 19:-1 20:-1 21:-1 
2 1:-1 2:-1 3:-1 4:-1 5:-1 6:-1 7:-1 8:-1 9:-1 10:-1 11:-1 12:-1 13:-1 14:-1 15:-1 16:-1 17:-1 18:-1 19:-1 20:-1 21:-1 
2 1:-1 2:-1 3:-1 4:-1 5:-1 6:-1 7:-1 8:-1 9:-1 10:-1 11:-1 12:-1 13:-1 14:-1 15:-1 16:-1 17:-1 18:-1 19:-1 20:-1 21:-1 
2 1:-1 2:-1 3:-1 4:-1 5:-1 6:-1 7:-1 8:-1 9:-1 10:-1 11:-1 12:-1 13:-1 14:-1 15:-1 16:-1 17:-1 18:-1 19:-1 20:-1 21:-1 
2 1:-1 2:-0.864407 3:-1 4:-0.881657 5:-1 6:-1 7:-1 8:-1 9:-1 10:-1 11:-1 12:-1 13:-1 14:-1 15:-1 16:-1 17:-1 18:-1 19:-1 20:-1 21:-1 
2 1:-1 2:-1 3:-1 4:-1 5:-1 6:-1 7:-1 8:-1 9:-1 10:-1 11:-1 12:-1 13:-1 14:-1 15:-1 16:-1 17:-1 18:-1 19:-1 20:-1 21:-1 
2 1:-0.5 2:-1 3:-1 4:-0.360947 5:-1 6:-1 7:-1 8:-1 9:-1 10:-1 11:-1 12:-1 13:-1 14:-1 15:-1 16:-1 17:-1 18:-1 19:-1 20:-1 21:-1 
2 1:-1 2:-0.728814 3:-0.838384 4:-1 5:-1 6:-1 7:-1 8:-1 9:-1 10:-1 11:-1 12:-1 13:-1 14:-1 15:-1 16:-1 17:-1 18:-1 19:-1 20:-1 21:-1 
2 1:-1 2:-0.59322 3:-1 4:-1 5:-0.676768 6:-1 7:-1 8:-1 9:-1 10:-1 11:-1 12:-1 13:-1 14:-1 15:-1 16:-1 17:-1 18:-1 19:-1 20:-1 21:-1 
0.99727255135263115 1:-0.5 2:-0.59322 3:-0.393939 4:-1 5:-0.676768 6:0.0169492 7:-1 8:-1 9:-1 10:-1 11:-1 12:-1 13:-1 14:-1 15:-1 16:-1 17:-1 18:-1 19:-1 20:-1 21:-1 
2 1:-1 2:-1 3:-0.919192 4:-0.881657 5:-0.806061 6:-1 7:-1 8:-1 9:-1 10:-1 11:-1 12:-1 13:-1 14:-1 15:-1 16:-1 17:-1 18:-1 19:-1 20:-1 21:-1 
2 1:-1 2:-1 3:-1 4:-1 5:-1 6:-1 7:-1 8:-1 9:-1 10:-1 11:-1 12:-1 13:-1 14:-1 15:-1 16:-1 17:-1 18:-1 19:-1 20:-1 21:-1 
2 1:-1 2:-0.864407 3:-1 4:-0.64497 5:-1 6:-1 7:-1 8:-1 9:-1 10:-1 11:-1 12:-1 13:-1 14:-1 15:-1 16:-1 17:-1 18:-1 19:-1 20:-1 21:-1 
2 1:-1 2:-1 3:-1 4:-1 5:-1 6:-1 7:-1 8:-1 9:-1 10:-1 11:-1 12:-1 13:-1 14:-1 15:-1 16:-1 17:-1 18:-1 19:-1 20:-1 21:-1 
2 1:-1 2:-1 3:-1 4:-1 5:-1 6:-1 7:-1 8:-1 9:-1 10:-1 11:-1 12:-1 13:-1 14:-1 15:-1 16:-1 17:-1 18:-1 19:-1 20:-1 21:-1 
2 1:-0.6 2:0.0169492 3:-0.757576 4:-0.112426 5:-0.191919 6:-1 7:-1 8:-1 9:-1 10:-1 11:-1 12:-1 13:-1 14:-1 15:-1 16:-1 17:-1 18:-1 19:-1 20:-1 21:-1 
2 1:-1 2:-1 3:-0.919192 4:-0.881657 5:-0.806061 6:-1 7:-1 8:-1 9:-1 10:-1 11:-1 12:-1 13:-1 14:-1 15:-1 16:-1 17:-1 18:-1 19:-1 20:-1 21:-1 
2 1:-1 2:-1 3:-0.919192 4:-0.881657 5:-0.806061 6:-1 7:-1 8:-1 9:-1 10:-1 11:-1 12:-1 13:-1 14:-1 15:-1 16:-1 17:-1 18:-1 19:-1 20:-1 21:-1 
2 1:-0.833333 2:-0.864407 3:-0.919192 4:-1 5:-1 6:-1 7:-1 8:-1 9:-1 10:-1 11:-1 12:-1 13:-1 14:-1 15:-1 16:-1 17:-1 18:-1 19:-1 20:-1 21:-1 
0.9425615785616448 1:-0.25 2:-1 3:-0.757576 4:-0.881657 5:-0.353535 6:-0.59322 7:-0.75 8:-1 9:-1 10:-1 11:-1 12:-1 13:-1 14:-1 15:-1 16:-1 17:-1 18:-1 19:-1 20:-1 21:-1 
2 1:-0.25 2:-0.59322 3:-0.757576 4:-0.467456 5:-1 6:-1 7:-1 8:-1 9:-1 10:-1 11:-1 12:-1 13:-1 14:-1 15:-1 16:-1 17:-1 18:-1 19:-1 20:-1 21:-1 
2 1:-1 2:-0.59322 3:-0.757576 4:-1 5:-0.741414 6:-1 7:-1 8:-1 9:-1 10:-1 11:-1 12:-1 13:-1 14:-1 15:-1 16:-1 17:-1 18:-1 19:-1 20:-1 21:-1 
2 1:-0.833333 2:-0.566102 3:-0.919192 4:-0.64497 5:-1 6:-1 7:-1 8:-1 9:-1 10:-1 11:-1 12:-1 13:-1 14:-1 15:-1 16:-1 17:-1 18:-1 19:-1 20:-1 21:-1 
2 1:-1 2:-1 3:-0.919192 4:-0.881657 5:-0.806061 6:-1 7:-1 8:-1 9:-1 10:-1 11:-1 12:-1 13:-1 14:-1 15:-1 16:-1 17:-1 18:-1 19:-1 20:-1 21:-1 
2 1:-1 2:-1 3:-1 4:-1 5:-1 6:-1 7:-1 8:-1 9:-1 10:-1 11:-1 12:-1 13:-1 14:-1 15:-1 16:-1 17:-1 18:-1 19:-1 20:-1 21:-1 
2 1:-1 2:-1 3:-1 4:-1 5:-1 6:-1 7:-1 8:-1 9:-1 10:-1 11:-1 12:-1 13:-1 14:-1 15:-1 16:-1 17:-1 18:-1 19:-1 20:-1 21:-1 
2 1:-1 2:-0.267797 3:-0.757576 4:-0.64497 5:-1 6:-0.864407 7:-1 8:-0.926335 9:-1 10:-0.918367 11:-1 12:-1 13:-1 14:-1 15:-1 16:-1 17:-1 18:-1 19:-1 20:-1 21:-1 
2 1:-1 2:-1 3:-0.919192 4:-0.881657 5:-0.806061 6:-1 7:-1 8:-1 9:-1 10:-1 11:-1 12:-1 13:-1 14:-1 15:-1 16:-1 17:-1 18:-1 19:-1 20:-1 21:-1 
2 1:-1 2:-1 3:-0.757576 4:-0.64497 5:-1 6:-1 7:-1 8:-1 9:-1 10:-1 11:-1 12:-1 13:-1 14:-1 15:-1 16:-1 17:-1 18:-1 19:-1 20:-1 21:-1 
2 1:-1 2:-1 3:-1 4:-1 5:-1 6:-1 7:-1 8:-1 9:-1 10:-1 11:-1 12:-1 13:-1 14:-1 15:-1 16:-1 17:-1 18:-1 19:-1 20:-1 21:-1 
0.48851410237141868 1:-0.5 2:-0.267797 3:-0.939394 4:-0.289941 5:-0.676768 6:-0.59322 7:-1 8:-1 9:-1 10:-1 11:-1 12:-1 13:-1 14:-1 15:-1 16:-1 17:-1 18:-1 19:-1 20:-1 21:-1 
0.25591501393883836 1:-0.5 2:-1 3:-0.919192 4:-0.337278 5:-0.676768 6:-1 7:-1 8:-1 9:-1 10:-1 11:-1 12:-1 13:-1 14:-1 15:-1 16:-1 17:-1 18:-1 19:-1 20:-1 21:-1 
2 1:-1 2:-0.674576 3:-1 4:-0.64497 5:-1 6:-1 7:-1 8:-1 9:-1 10:-1 11:-1 12:-1 13:-1 14:-1 15:-1 16:-1 17:-1 18:-1 19:-1 20:-1 21:-1 
2 1:-0.5 2:-0.864407 3:-0.393939 4:-0.64497 5:-0.191919 6:-1 7:-1 8:-1 9:-1 10:-1 11:-1 12:-1 13:-1 14:-1 15:-1 16:-1 17:-1 18:-1 19:-1 20:-1 21:-1 
2 1:-1 2:-1 3:-0.919192 4:-0.881657 5:-0.806061 6:-1 7:-1 8:-1 9:-1 10:-1 11:-1 12:-1 13:-1 14:-1 15:-1 16:-1 17:-1 18:-1 19:-1 20:-1 21:-1 
1.5643184894342679 1:1 2:-0.59322 3:-0.757576 4:0.420118 5:-0.191919 6:-0.59322 8:-1 9:-1 10:-1 11:-1 12:-1 13:-1 14:-1 15:-1 16:-1 17:-1 18:-1 19:-1 20:-1 21:-1 
2 1:-1 2:-1 3:-0.919192 4:-0.881657 5:-0.806061 6:-1 7:-1 8:-1 9:-1 10:-1 11:-1 12:-1 13:-1 14:-1 15:-1 16:-1 17:-1 18:-1 19:-1 20:-1 21:-1 
0.23305606309647883 1:-0.1 2:-1 3:-0.757576 4:-1 5:-1 6:-1 7:-1 8:-1 9:-1 10:-1 11:-1 12:-1 13:-1 14:-1 15:-1 16:-1 17:-1 18:-1 19:-1 20:-1 21:-1 
2 1:-1 2:-1 3:-1 4:-1 5:-1 6:-1 7:-1 8:-1 9:-1 10:-1 11:-1 12:-1 13:-1 14:-1 15:-1 16:-1 17:-1 18:-1 19:-1 20:-1 21:-1 
2 1:-0.0833333 2:-0.59322 3:-0.555556 4:-1 5:-0.676768 6:-1 7:-1 8:-1 9:-1 10:-1 11:-1 12:-1 13:-1 14:-1 15:-1 16:-1 17:-1 18:-1 19:-1 20:-1 21:-1 
2 1:-0.833333 2:-1 3:-0.919192 4:-1 5:-1 6:-1 7:-0.916667 8:-1 9:-1 10:-1 11:-1 12:-1 13:-1 14:-1 15:-1 16:-1 17:-1 18:-1 19:-1 20:-1 21:-1 
2 1:-1 2:-0.864407 3:-0.757576 4:-0.822485 5:-0.191919 6:-0.59322 7:-0.375 8:-1 9:-1 10:-1 11:-1 12:-1 13:-1 14:-1 15:-1 16:-1 17:-1 18:-1 19:-1 20:-1 21:-1 
2 1:-1 2:-1 3:-0.919192 4:-1 5:-1 6:-1 7:-1 8:-1 9:-1 10:-1 11:-1 12:-1 13:-1 14:-1 15:-1 16:-1 17:-1 18:-1 19:-1 20:-1 21:-1 
2 1:-0.833333 2:-1 3:-0.919192 4:-1 5:-1 6:-1 7:-1 8:-1 9:-1 10:-1 11:-1 12:-1 13:-1 14:-1 15:-1 16:-1 17:-1 18:-1 19:-1 20:-1 21:-1 
2 1:-0.833333 2:-1 3:-1 4:-1 5:-0.676768 6:-0.59322 7:-1 8:-1 9:-0.516667 10:-1 11:-0.724138 12:-1 13:-1 14:-1 15:-1 16:-1 17:-1 18:-1 19:-1 20:-1 21:-1 
2 1:-0.770833 2:-1 3:-0.858586 4:-1 5:-1 6:-0.661017 7:-1 8:-0.815838 9:-1 10:-1 11:-0.908046 12:-1 13:-1 14:-1 15:-1 16:-1 17:-1 18:-1 19:-1 20:-1 21:-1 
1.462278763958806 1:-1 2:-0.59322 3:-0.919192 4:-1 5:-0.676768 6:-0.59322 7:-1 8:-0.779006 9:-0.35 10:-0.755102 11:-0.724138 12:-1 13:-1 14:-1 15:-1 16:-1 17:-1 18:-1 19:-1 20:-1 21:-1 
2 1:-1 2:-1 3:-1 4:-1 5:-1 6:-1 7:-1 8:-1 9:-1 10:-1 11:-1 12:-1 13:-1 14:-1 15:-1 16:-1 17:-1 18:-1 19:-1 20:-1 21:-1 
2 1:-0.833333 2:-0.59322 3:-1 4:-1 5:-1 6:-0.864407 7:-1 8:-1 9:-1 10:-1 11:-1 12:-1 13:-1 14:-1 15:-1 16:-1 17:-1 18:-1 19:-1 20:-1 21:-1 
2 1:-1 2:-0.674576 3:-1 4:-0.64497 5:-0.676768 6:-0.59322 7:-1 8:-1 9:-1 10:-1 11:-1 12:-1 13:-1 14:-1 15:-1 16:-1 17:-1 18:-1 19:-1 20:-1 21:-1 
2 1:-1 2:-0.864407 3:-0.935354 4:-1 5:-1 6:-1 7:-1 8:-1 9:-1 10:-1 11:-1 12:-1 13:-1 14:-1 15:-1 16:-1 17:-1 18:-1 19:-1 20:-1 21:-1 
2 1:-0.5 2:-0.864407 3:-0.393939 4:-0.64497 5:-0.191919 6:-1 7:-1 8:-1 9:-1 10:-1 11:-1 12:-1 13:-1 14:-1 15:-1 16:-1 17:-1 18:-1 19:-1 20:-1 21:-1 
2 1:-1 2:-0.864407 3:-0.393939 4:-0.64497 5:-0.191919 6:-1 7:-1 8:-1 9:-1 10:-1 11:-1 12:-1 13:-1 14:-1 15:-1 16:-1 17:-1 18:-1 19:-1 20:-1 21:-1 
1.4498607286099536 1:-0.833333 2:-0.59322 3:-0.434343 4:-1 5:-0.030303 6:-0.59322 7:-0.25 8:-1 9:-1 10:-1 11:-1 12:-1 13:-1 14:-1 15:-1 16:-1 17:-1 18:-1 19:-1 20:-1 21:-1 
2 1:-1 2:-1 3:-1 4:-1 5:-1 6:-1 7:-1 8:-1 9:-1 10:-1 11:-1 12:-1 13:-1 14:-1 15:-1 16:-1 17:-1 18:-1 19:-1 20:-1 21:-1 
2 1:-1 2:-1 3:-1 4:-1 5:-1 6:-1 7:-1 8:-1 9:-1 10:-1 11:-1 12:-1 13:-1 14:-1 15:-1 16:-1 17:-1 18:-1 19:-1 20:-1 21:-1 
2 1:-1 2:-1 3:-1 4:-1 5:-1 6:-1 7:-1 8:-1 9:-1 10:-1 11:-1 12:-1 13:-1 14:-1 15:-1 16:-1 17:-1 18:-1 19:-1 20:-1 21:-1 
2 1:-1 2:-0.864407 3:-1 4:-0.64497 5:-1 6:-1 7:-1 8:-1 9:-1 10:-1 11:-1 12:-1 13:-1 14:-1 15:-1 16:-1 17:-1 18:-1 19:-1 20:-1 21:-1 
1.3183772744887996 1:-0.416667 2:-1 3:-0.717172 4:-1 5:-0.892256 6:-1 7:-1 8:-1 9:-1 10:-1 11:-1 12:-1 13:-1 14:-1 15:-1 16:-1 17:-1 18:-1 19:-1 20:-1 21:-1 
2 1:-1 2:-0.59322 3:-1 4:-1 5:-1 6:-1 7:-1 8:-1 9:-0.683333 10:-0.918367 11:-1 12:-1 13:-1 14:-1 15:-1 16:-1 17:-1 18:-1 19:-1 20:-1 21:-1 
2 1:-0.5 2:-0.59322 3:-1 4:-0.881657 5:-0.892256 6:-1 7:-0.916667 8:-0.779006 9:-1 10:-1 11:-1 12:-1 13:-1 14:-1 15:-1 16:-1 17:-1 18:-1 19:-1 20:-1 21:-1 
2 1:-1 2:-1 3:-1 4:-1 5:-1 6:-1 7:-1 8:-1 9:-1 10:-1 11:-1 12:-1 13:-1 14:-1 15:-1 16:-1 17:-1 18:-1 19:-1 20:-1 21:-1 
2 1:-0.6 2:-1 3:-0.515152 4:-0.64497 5:-0.353535 6:-1 7:-1 8:-1 9:-1 10:-1 11:-1 12:-1 13:-1 14:-1 15:-1 16:-1 17:-1 18:-1 19:-1 20:-1 21:-1 
2 1:-1 2:-1 3:-1 4:-1 5:-1 6:-1 7:-1 8:-1 9:-1 10:-1 11:-1 12:-1 13:-1 14:-1 15:-1 16:-1 17:-1 18:-1 19:-1 20:-1 21:-1 
2 1:-0.833333 2:-1 3:-1 4:-1 5:-1 6:-1 7:-1 8:-1 9:-1 10:-1 11:-1 12:-1 13:-1 14:-1 15:-1 16:-1 17:-1 18:-1 19:-1 20:-1 21:-1 
2 1:-0.833333 2:-0.59322 3:-0.741414 4:-0.881657 5:-1 6:-0.864407 7:-0.916667 8:-1 9:-1 10:-1 11:-1 12:-1 13:-1 14:-1 15:-1 16:-1 17:-1 18:-1 19:-1 20:-1 21:-1 
2 1:-0.833333 2:-0.186441 3:-1 4:-0.64497 5:-0.353535 6:-1 7:-1 8:-1 9:-1 10:-1 11:-1 12:-1 13:-1 14:-1 15:-1 16:-1 17:-1 18:-1 19:-1 20:-1 21:-1 
2 1:-1 2:-0.674576 3:-0.757576 4:-1 5:-1 6:-1 7:-1 8:-1 9:-1 10:-1 11:-1 12:-1 13:-1 14:-1 15:-1 16:-1 17:-1 18:-1 19:-1 20:-1 21:-1 
2 1:-0.833333 2:-0.79661 3:-1 4:-0.881657 5:-0.892256 6:-0.688136 7:-1 8:-1 9:-1 10:-1 11:-1 12:-1 13:-1 14:-1 15:-1 16:-1 17:-1 18:-1 19:-1 20:-1 21:-1 
2 1:-1 2:-0.59322 3:-0.757576 4:-1 5:-1 6:-0.59322 7:-1 8:-1 9:-1 10:-1 11:-1 12:-1 13:-1 14:-1 15:-1 16:-1 17:-1 18:-1 19:-1 20:-1 21:-1 
2 1:-0.875 2:-1 3:-0.757576 4:-1 5:-0.676768 6:-0.59322 7:-1 8:-1 9:-1 10:-1 11:-1 12:-1 13:-1 14:-1 15:-1 16:-1 17:-1 18:-1 19:-1 20:-1 21:-1 
2 1:-1 2:-1 3:-0.757576 4:-0.64497 5:-1 6:-1 7:-1 8:-1 9:-1 10:-1 11:-1 12:-1 13:-1 14:-1 15:-1 16:-1 17:-1 18:-1 19:-1 20:-1 21:-1 
2 1:-1 2:-1 3:-1 4:-1 5:-1 6:-1 7:-1 8:-1 9:-1 10:-1 11:-1 12:-1 13:-1 14:-1 15:-1 16:-1 17:-1 18:-1 19:-1 20:-1 21:-1 
0.45688111468406251 1:-1 2:-0.59322 3:-1 4:-0.64497 5:-0.676768 6:-1 7:-0.625 8:-1 9:-1 10:-1 11:-1 12:-1 13:-1 14:-1 15:-1 16:-1 17:-1 18:-1 19:-1 20:-1 21:-1 
2 1:-1 2:-1 3:-1 4:-1 5:-1 6:-1 7:-1 8:-1 9:-1 10:-1 11:-1 12:-1 13:-1 14:-1 15:-1 16:-1 17:-1 18:-1 19:-1 20:-1 21:-1 
2 1:-1 2:-1 3:-0.757576 4:-0.64497 5:-1 6:-1 7:-1 8:-1 9:-1 10:-1 11:-1 12:-1 13:-1 14:-1 15:-1 16:-1 17:-1 18:-1 19:-1 20:-1 21:-1 
1.8058749427703633 1:0.166667 2:-0.728814 3:-0.919192 4:-0.64497 5:-0.892256 6:-0.0508475 7:-1 8:-1 9:-1 10:-1 11:-1 12:-1 13:-1 14:-1 15:-1 16:-1 17:-1 18:-1 19:-1 20:-1 21:-1 
2 1:-1 2:-1 3:-1 4:-1 5:-0.676768 6:-0.59322 7:-1 8:-1 9:-1 10:-1 11:-1 12:-1 13:-1 14:-1 15:-1 16:-1 17:-1 18:-1 19:-1 20:-1 21:-1 
2 1:-1 2:-1 3:-1 4:-1 5:-1 6:-1 7:-1 8:-1 9:-1 10:-1 11:-1 12:-1 13:-1 14:-1 15:-1 16:-1 17:-1 18:-1 19:-1 20:-1 21:-1 
1.5641980625199892 1:0.625 2:-0.661017 3:-0.919192 4:-0.64497 5:-0.892256 6:0.322034 7:-1 8:-1 9:-0.25 10:-1 11:-0.448276 12:-0.755102 13:-0.210526 14:-1 15:-1 16:-1 17:-1 18:-1 19:-1 20:-1 21:-1 
2 1:-1 2:-1 3:-1 4:-1 5:-1 6:-1 7:-1 8:-1 9:-1 10:-1 11:-1 12:-1 13:-1 14:-1 15:-1 16:-1 17:-1 18:-1 19:-1 20:-1 21:-1 
2 1:-1 2:-1 3:-0.919192 4:-0.881657 5:-0.806061 6:-1 7:-1 8:-1 9:-1 10:-1 11:-1 12:-1 13:-1 14:-1 15:-1 16:-1 17:-1 18:-1 19:-1 20:-1 21:-1 
2 1:-1 2:-1 3:-1 4:-1 5:-1 6:-1 7:-1 8:-1 9:-1 10:-1 11:-1 12:-1 13:-1 14:-1 15:-1 16:-1 17:-1 18:-1 19:-1 20:-1 21:-1 
1.407526969684614 1:-1 2:-0.674576 3:-1 4:-0.64497 5:-1 6:-0.864407 7:-0.55 8:-1 9:-1 10:-1 11:-1 12:-1 13:-1 14:-1 15:-1 16:-1 17:-1 18:-1 19:-1 20:-1 21:-1 
2 1:-1 2:-1 3:-1 4:-1 5:-1 6:-1 7:-1 8:-1 9:-1 10:-1 11:-1 12:-1 13:-1 14:-1 15:-1 16:-1 17:-1 18:-1 19:-1 20:-1 21:-1 
2 1:-1 2:-0.59322 3:-0.757576 4:-0.763314 5:-1 6:-1 7:-1 8:-1 9:-1 10:-1 11:-1 12:-1 13:-1 14:-1 15:-1 16:-1 17:-1 18:-1 19:-1 20:-1 21:-1 
2 1:-1 2:-1 3:-0.919192 4:-0.881657 5:-0.806061 6:-1 7:-1 8:-1 9:-1 10:-1 11:-1 12:-1 13:-1 14:-1 15:-1 16:-1 17:-1 18:-1 19:-1 20:-1 21:-1 
2 1:-1 2:-1 3:-0.919192 4:-0.881657 5:-0.806061 6:-1 7:-1 8:-1 9:-1 10:-1 11:-1 12:-1 13:-1 14:-1 15:-1 16:-1 17:-1 18:-1 19:-1 20:-1 21:-1 
2 1:-1 2:-1 3:-1 4:-1 5:-1 6:-1 7:-1 8:-1 9:-1 10:-1 11:-1 12:-1 13:-1 14:-1 15:-1 16:-1 17:-1 18:-1 19:-1 20:-1 21:-1 
0.77554562192009957 1:0.25 2:-0.59322 3:-0.393939 4:-1 5:-1 6:-0.59322 7:-1 8:-1 9:-1 10:-1 11:-1 12:-1 13:-1 14:-1 15:-1 16:-1 17:-1 18:-1 19:-1 20:-1 21:-1 
2 1:-1 2:-1 3:-1 4:-1 5:-1 6:-1 7:-1 8:-1 9:-1 10:-1 11:-1 12:-1 13:-1 14:-1 15:-1 16:-1 17:-1 18:-1 19:-1 20:-1 21:-1 
2 1:-1 2:-1 3:-0.757576 4:-0.360947 5:-0.676768 6:-1 7:-1 8:-1 9:-1 10:-1 11:-1 12:-1 13:-1 14:-1 15:-1 16:-1 17:-1 18:-1 19:-1 20:-1 21:-1 
2 1:-1 2:-1 3:-1 4:-1 5:-1 6:-1 7:-1 8:-1 9:-1 10:-1 11:-1 12:-1 13:-1 14:-1 15:-1 16:-1 17:-1 18:-1 19:-1 20:-1 21:-1 
2 1:-0.25 2:-0.59322 3:-0.636364 4:-1 5:-0.676768 6:-1 7:-1 8:-1 9:-1 10:-1 11:-1 12:-1 13:-1 14:-1 15:-1 16:-1 17:-1 18:-1 19:-1 20:-1 21:-1 
2 1:-1 2:0.220339 3:-0.757576 4:0.0650888 5:-0.030303 6:-1 7:-1 8:-1 9:-1 10:-1 11:-1 12:-1 13:-1 14:-1 15:-1 16:-1 17:-1 18:-1 19:-1 20:-1 21:-1 
1.563879434291557 1:-1 2:0.0169492 3:-1 4:-0.112426 5:-0.676768 6:0.0169492 7:-0.275 8:-0.558011 9:-0.75 10:-0.510204 11:-0.448276 12:-0.755102 13:-0.210526 14:-1 15:-1 16:-1 17:-1 18:-1 19:-1 20:-1 21:-1 
2 1:-1 2:-1 3:-1 4:-1 5:-1 6:-1 7:-1 8:-1 9:-1 10:-1 11:-1 12:-1 13:-1 14:-1 15:-1 16:-1 17:-1 18:-1 19:-1 20:-1 21:-1 
2 1:-1 2:-0.864407 3:-0.919192 4:-1 5:-1 6:-1 7:-1 8:-1 9:-1 10:-1 11:-1 12:-1 13:-1 14:-1 15:-1 16:-1 17:-1 18:-1 19:-1 20:-1 21:-1 
1.607844836697629 1:-0.5 2:-1 3:-0.393939 4:-1 5:-1 6:-1 7:-0.75 8:-0.447514 9:-1 10:-1 11:-1 12:-1 13:-1 14:-1 15:-1 16:-1 17:-1 18:-1 19:-1 20:-1 21:-1 
1.5332191194544487 1:0.166667 2:-1 3:-0.757576 4:-0.64497 5:0.0774411 6:-0.59322 7:-0.166667 8:-1 9:-1 10:-1 11:-1 12:-1 13:-1 14:-1 15:-1 16:-1 17:-1 18:-1 19:-1 20:-1 21:-1 
2 1:-1 2:-1 3:-0.919192 4:-0.881657 5:-0.806061 6:-1 7:-1 8:-1 9:-1 10:-1 11:-1 12:-1 13:-1 14:-1 15:-1 16:-1 17:-1 18:-1 19:-1 20:-1 21:-1 
2 1:-1 2:-1 3:-0.757576 4:-0.64497 5:-1 6:-1 7:-1 8:-1 9:-1 10:-1 11:-1 12:-1 13:-1 14:-1 15:-1 16:-1 17:-1 18:-1 19:-1 20:-1 21:-1 
2 1:-1 2:-1 3:-0.919192 4:-0.881657 5:-0.806061 6:-1 7:-1 8:-1 9:-1 10:-1 11:-1 12:-1 13:-1 14:-1 15:-1 16:-1 17:-1 18:-1 19:-1 20:-1 21:-1 
2 1:-1 2:-1 3:-0.919192 4:-1 5:-1 6:-0.59322 7:-1 8:-1 9:-1 10:-1 11:-1 12:-1 13:-1 14:-1 15:-1 16:-1 17:-1 18:-1 19:-1 20:-1 21:-1 
2 1:-1 2:-1 3:-0.919192 4:-0.881657 5:-0.806061 6:-1 7:-1 8:-1 9:-1 10:-1 11:-1 12:-1 13:-1 14:-1 15:-1 16:-1 17:-1 18:-1 19:-1 20:-1 21:-1 
2 1:-1 2:-1 3:-1 4:-1 5:-1 6:-1 7:-1 8:-1 9:-1 10:-1 11:-1 12:-1 13:-1 14:-1 15:-1 16:-1 17:-1 18:-1 19:-1 20:-1 21:-1 
2 1:-1 2:-1 3:-0.919192 4:-0.881657 5:-0.806061 6:-1 7:-1 8:-1 9:-1 10:-1 11:-1 12:-1 13:-1 14:-1 15:-1 16:-1 17:-1 18:-1 19:-1 20:-1 21:-1 
2 1:-1 2:-1 3:-0.919192 4:-0.881657 5:-0.806061 6:-1 7:-1 8:-1 9:-1 10:-1 11:-1 12:-1 13:-1 14:-1 15:-1 16:-1 17:-1 18:-1 19:-1 20:-1 21:-1 
2 1:-1 2:-1 3:-1 4:-1 5:-1 6:-1 7:-1 8:-1 9:-1 10:-1 11:-1 12:-1 13:-1 14:-1 15:-1 16:-1 17:-1 18:-1 19:-1 20:-1 21:-1 
2 1:-0.5 2:-1 3:-0.757576 4:-1 5:-1 6:-1 7:-0.75 8:-1 9:-1 10:-1 11:-1 12:-1 13:-1 14:-1 15:-1 16:-1 17:-1 18:-1 19:-1 20:-1 21:-1 
2 1:-1 2:-1 3:-0.919192 4:-0.881657 5:-0.806061 6:-1 7:-1 8:-1 9:-1 10:-1 11:-1 12:-1 13:-1 14:-1 15:-1 16:-1 17:-1 18:-1 19:-1 20:-1 21:-1 
2 1:-1 2:-0.864407 3:-0.757576 4:-0.64497 5:-0.892256 6:-0.864407 7:-0.75 8:-1 9:-1 10:-1 11:-1 12:-1 13:-1 14:-1 15:-1 16:-1 17:-1 18:-1 19:-1 20:-1 21:-1 
1.5643104898245237 1:-0.15 2:-0.59322 3:1 4:-0.64497 5:-0.030303 6:-0.59322 7:-0.25 8:1 9:-1 10:-1 11:-1 12:-1 13:-1 14:-1 15:-1 16:-1 17:-1 18:-1 19:-1 20:-1 21:-1 
2 1:-1 2:-1 3:-0.919192 4:-0.881657 5:-0.547475 6:-0.59322 7:-1 8:-1 9:-1 10:-1 11:-1 12:-1 13:-1 14:-1 15:-1 16:-1 17:-1 18:-1 19:-1 20:-1 21:-1 
1.2366355162320419 1:-0.5 2:-0.59322 3:-0.636364 4:-1 5:-0.030303 6:-0.59322 7:-0.25 8:-1 9:-1 10:-1 11:-1 12:-1 13:-1 14:-1 15:-1 16:-1 17:-1 18:-1 19:-1 20:-1 21:-1 
2 1:-1 2:-1 3:-1 4:-1 5:-1 6:-1 7:-1 8:-1 9:-1 10:-1 11:-1 12:-1 13:-1 14:-1 15:-1 16:-1 17:-1 18:-1 19:-1 20:-1 21:-1 
2 1:-1 2:-1 3:-0.919192 4:-0.881657 5:-0.806061 6:-1 7:-1 8:-1 9:-1 10:-1 11:-1 12:-1 13:-1 14:-1 15:-1 16:-1 17:-1 18:-1 19:-1 20:-1 21:-1 
2 1:-1 2:-0.59322 3:-0.757576 4:-0.64497 5:-1 6:-1 7:-0.916667 8:-0.764273 9:-1 10:-1 11:-1 12:-1 13:-1 14:-1 15:-1 16:-1 17:-1 18:-1 19:-1 20:-1 21:-1 
2 1:-1 2:-1 3:-0.919192 4:-0.881657 5:-0.806061 6:-1 7:-1 8:-1 9:-1 10:-1 11:-1 12:-1 13:-1 14:-1 15:-1 16:-1 17:-1 18:-1 19:-1 20:-1 21:-1 
1.5627051931003073 1:-1 2:-0.267797 3:-0.757576 4:-1 5:0.0020202 6:-1 7:-0.25 8:-0.779006 9:-0.25 10:-0.265306 11:-1 12:-1 13:-1 14:-1 15:-1 16:-1 17:-1 18:-1 19:-1 20:-1 21:-1 
2 1:-1 2:-1 3:-1 4:-0.715976 5:-1 6:-1 7:-0.75 8:-1 9:-1 10:-1 11:-1 12:-1 13:-1 14:-1 15:-1 16:-1 17:-1 18:-1 19:-1 20:-1 21:-1 
2 1:-1 2:-1 3:-1 4:-1 5:-1 6:-1 7:-1 8:-1 9:-1 10:-1 11:-1 12:-1 13:-1 14:-1 15:-1 16:-1 17:-1 18:-1 19:-1 20:-1 21:-1 
2 1:-1 2:-1 3:-0.919192 4:-0.881657 5:-0.806061 6:-1 7:-1 8:-1 9:-1 10:-1 11:-1 12:-1 13:-1 14:-1 15:-1 16:-1 17:-1 18:-1 19:-1 20:-1 21:-1 
2 1:-1 2:-1 3:-1 4:-1 5:-1 6:-1 7:-1 8:-1 9:-1 10:-1 11:-1 12:-1 13:-1 14:-1 15:-1 16:-1 17:-1 18:-1 19:-1 20:-1 21:-1 
1.4989943121111438 1:-0.5 2:-1 3:-0.321212 4:-0.289941 5:-1 6:-0.59322 7:-0.75 8:-0.337017 9:-0.75 10:-0.755102 11:-1 12:-1 13:-1 14:-1 15:-1 16:-1 17:-1 18:-1 19:-1 20:-1 21:-1 
2 1:-1 2:-1 3:-1 4:-1 5:-1 6:-1 7:-1 8:-1 9:-1 10:-1 11:-1 12:-1 13:-1 14:-1 15:-1 16:-1 17:-1 18:-1 19:-1 20:-1 21:-1 
2 1:-0.833333 2:-1 3:-0.757576 4:-0.64497 5:-1 6:-1 7:-1 8:-1 9:-1 10:-1 11:-1 12:-1 13:-1 14:-1 15:-1 16:-1 17:-1 18:-1 19:-1 20:-1 21:-1 
2 1:-1 2:-1 3:-1 4:-1 5:-1 6:-1 7:-1 8:-1 9:-1 10:-1 11:-1 12:-1 13:-1 14:-1 15:-1 16:-1 17:-1 18:-1 19:-1 20:-1 21:-1 
2 1:-1 2:-0.728814 3:-1 4:-1 5:-1 6:-1 7:-0.75 8:-0.779006 9:-0.916667 10:-1 11:-1 12:-1 13:-1 14:-1 15:-1 16:-1 17:-1 18:-1 19:-1 20:-1 21:-1 
2 1:-1 2:-0.864407 3:-1 4:-0.64497 5:-0.191919 6:-0.59322 7:-0.375 8:-1 9:-1 10:-1 11:-1 12:-1 13:-1 14:-1 15:-1 16:-1 17:-1 18:-1 19:-1 20:-1 21:-1 
2 1:-1 2:-1 3:-1 4:-1 5:-1 6:-1 7:-1 8:-1 9:-1 10:-1 11:-1 12:-1 13:-1 14:-1 15:-1 16:-1 17:-1 18:-1 19:-1 20:-1 21:-1 
2 1:-1 2:-1 3:-0.919192 4:-0.881657 5:-0.806061 6:-1 7:-1 8:-1 9:-1 10:-1 11:-1 12:-1 13:-1 14:-1 15:-1 16:-1 17:-1 18:-1 19:-1 20:-1 21:-1 
2 1:-0.833333 2:-0.59322 3:-1 4:-1 5:-0.676768 6:-0.59322 7:-1 8:-1 9:-1 10:-1 11:-1 12:-1 13:-1 14:-1 15:-1 16:-1 17:-1 18:-1 19:-1 20:-1 21:-1 
0.41474242701355946 1:0.5 2:-0.59322 3:-0.272727 4:-1 5:-1 6:0.247458 7:-1 8:-1 9:-1 10:-1 11:-1 12:-1 13:-1 14:-1 15:-1 16:-1 17:-1 18:-1 19:-1 20:-1 21:-1 
1.3333993386198884 1:-0.5 2:-0.59322 3:-0.563636 4:-1 5:-1 6:-1 7:-1 8:-1 9:-1 10:-1 11:-1 12:-1 13:-1 14:-1 15:-1 16:-1 17:-1 18:-1 19:-1 20:-1 21:-1 
2 1:-0.5 2:-0.864407 3:-0.806061 4:-1 5:-1 6:-1 7:-1 8:-1 9:-1 10:-1 11:-1 12:-1 13:-1 14:-1 15:-1 16:-1 17:-1 18:-1 19:-1 20:-1 21:-1 
2 2:-0.59322 3:-0.515152 4:-0.289941 5:-1 6:-1 7:-1 8:-1 9:-1 10:-1 11:-1 12:-1 13:-1 14:-1 15:-1 16:-1 17:-1 18:-1 19:-1 20:-1 21:-1 
2 1:-1 2:-1 3:-0.919192 4:-0.881657 5:-0.806061 6:-1 7:-1 8:-1 9:-1 10:-1 11:-1 12:-1 13:-1 14:-1 15:-1 16:-1 17:-1 18:-1 19:-1 20:-1 21:-1 
2 1:-1 2:-1 3:-1 4:-1 5:-1 6:-1 7:-1 8:-1 9:-1 10:-1 11:-1 12:-1 13:-1 14:-1 15:-1 16:-1 17:-1 18:-1 19:-1 20:-1 21:-1 
1.3120726027562788 1:-1 2:-0.389831 3:-0.757576 4:-0.64497 5:-0.892256 6:-0.59322 7:-0.225 8:-1 9:-1 10:-1 11:-1 12:-1 13:-1 14:-1 15:-1 16:-1 17:-1 18:-1 19:-1 20:-1 21:-1 
2 2:-0.59322 3:-0.515152 4:-0.289941 5:-1 6:-1 7:-1 8:-1 9:-1 10:-1 11:-1 12:-1 13:-1 14:-1 15:-1 16:-1 17:-1 18:-1 19:-1 20:-1 21:-1 
2 1:-1 2:-1 3:-1 4:-1 5:-1 6:-1 7:-1 8:-1 9:-1 10:-1 11:-1 12:-1 13:-1 14:-1 15:-1 16:-1 17:-1 18:-1 19:-1 20:-1 21:-1 
2 1:-1 2:-1 3:-1 4:-1 5:-1 6:-1 7:-1 8:-1 9:-1 10:-1 11:-1 12:-1 13:-1 14:-1 15:-1 16:-1 17:-1 18:-1 19:-1 20:-1 21:-1 
2 1:-1 2:-1 3:-0.89899 4:-1 5:-0.569024 6:-1 7:-0.916667 8:-0.705341 9:-1 10:-0.755102 11:-1 12:-1 13:-1 14:-1 15:-1 16:-1 17:-1 18:-1 19:-1 20:-1 21:-1 
2 1:-1 2:-1 3:-1 4:-1 5:-1 6:-1 7:-1 8:-1 9:-1 10:-1 11:-1 12:-1 13:-1 14:-1 15:-1 16:-1 17:-1 18:-1 19:-1 20:-1 21:-1 
2 1:-1 2:-1 3:-0.757576 4:-0.64497 5:-1 6:-1 7:-1 8:-1 9:-1 10:-1 11:-1 12:-1 13:-1 14:-1 15:-1 16:-1 17:-1 18:-1 19:-1 20:-1 21:-1 
2 1:-0.833333 2:-0.59322 3:-1 4:-1 5:-1 6:-1 7:-0.916667 8:-0.543278 9:-1 10:-0.755102 11:-0.724138 12:-1 13:-1 14:-1 15:-1 16:-1 17:-1 18:-1 19:-1 20:-1 21:-1 
2 1:-1 2:-0.186441 3:-0.757576 4:-0.289941 5:-0.676768 6:-0.213559 7:-1 8:-1 9:-1 10:-1 11:-1 12:-1 13:-1 14:-1 15:-1 16:-1 17:-1 18:-1 19:-1 20:-1 21:-1 
1.6541499941104643 1:-1 2:-0.59322 3:-1 4:-0.289941 5:-1 6:0.220339 7:-0.75 8:-0.337017 9:-0.25 10:-1 11:-1 12:-1 13:-1 14:-1 15:-1 16:-1 17:-1 18:-1 19:-1 20:-1 21:-1 
2 1:-1 2:-1 3:-1 4:-1 5:-1 6:-1 7:-1 8:-1 9:-1 10:-1 11:-1 12:-1 13:-1 14:-1 15:-1 16:-1 17:-1 18:-1 19:-1 20:-1 21:-1 
1.0585309681225648 1:-0.5 2:-0.389831 3:-0.757576 4:-0.372781 5:-0.892256 6:-1 7:-1 8:-1 9:-1 10:-1 11:-1 12:-1 13:-1 14:-1 15:-1 16:-1 17:-1 18:-1 19:-1 20:-1 21:-1 
2 1:-0.25 2:-0.59322 3:-0.636364 4:-1 5:-1 6:-1 7:-0.75 8:-1 9:-1 10:-1 11:-1 12:-1 13:-1 14:-1 15:-1 16:-1 17:-1 18:-1 19:-1 20:-1 21:-1 
2 1:-1 2:-1 3:-1 4:-1 5:-1 6:-1 7:-1 8:-1 9:-1 10:-1 11:-1 12:-1 13:-1 14:-1 15:-1 16:-1 17:-1 18:-1 19:-1 20:-1 21:-1 
2 1:-0.833333 2:-0.864407 3:-1 4:-1 5:-0.892256 6:-0.823729 7:-1 8:-1 9:-1 10:-1 11:-1 12:-1 13:-1 14:-1 15:-1 16:-1 17:-1 18:-1 19:-1 20:-1 21:-1 
2 1:-1 2:-1 3:-0.757576 4:-1 5:-0.676768 6:-0.59322 7:-1 8:-1 9:-1 10:-1 11:-1 12:-1 13:-1 14:-1 15:-1 16:-1 17:-1 18:-1 19:-1 20:-1 21:-1 
2 1:-1 2:-1 3:-0.919192 4:-0.881657 5:-0.806061 6:-1 7:-1 8:-1 9:-1 10:-1 11:-1 12:-1 13:-1 14:-1 15:-1 16:-1 17:-1 18:-1 19:-1 20:-1 21:-1 
2 1:-1 2:-1 3:-0.919192 4:-0.881657 5:-0.806061 6:-1 7:-1 8:-1 9:-1 10:-1 11:-1 12:-1 13:-1 14:-1 15:-1 16:-1 17:-1 18:-1 19:-1 20:-1 21:-1 
2 1:-1 2:-1 3:-1 4:-1 5:-1 6:-1 7:-1 8:-1 9:-1 10:-1 11:-1 12:-1 13:-1 14:-1 15:-1 16:-1 17:-1 18:-1 19:-1 20:-1 21:-1 
2 1:-1 2:-1 3:-1 4:-1 5:-1 6:-1 7:-1 8:-1 9:-1 10:-1 11:-1 12:-1 13:-1 14:-1 15:-1 16:-1 17:-1 18:-1 19:-1 20:-1 21:-1 
2 1:-1 2:-1 3:-0.919192 4:-0.881657 5:-0.806061 6:-1 7:-1 8:-1 9:-1 10:-1 11:-1 12:-1 13:-1 14:-1 15:-1 16:-1 17:-1 18:-1 19:-1 20:-1 21:-1 
2 1:-1 2:-1 3:-1 4:-1 5:-1 6:-1 7:-1 8:-1 9:-1 10:-1 11:-1 12:-1 13:-1 14:-1 15:-1 16:-1 17:-1 18:-1 19:-1 20:-1 21:-1 
2 1:-1 2:-1 3:-1 4:-1 5:-1 6:-1 7:-1 8:-1 9:-1 10:-1 11:-1 12:-1 13:-1 14:-1 15:-1 16:-1 17:-1 18:-1 19:-1 20:-1 21:-1 
2 1:-1 2:-1 3:-1 4:-1 5:-1 6:-1 7:-1 8:-1 9:-1 10:-1 11:-1 12:-1 13:-1 14:-1 15:-1 16:-1 17:-1 18:-1 19:-1 20:-1 21:-1 
2 1:-1 2:-1 3:-0.919192 4:-0.881657 5:-0.806061 6:-1 7:-1 8:-1 9:-1 10:-1 11:-1 12:-1 13:-1 14:-1 15:-1 16:-1 17:-1 18:-1 19:-1 20:-1 21:-1 
1.8257682302067215 2:-0.59322 3:-0.515152 4:-1 5:-0.892256 6:-1 7:-0.375 8:-0.779006 9:-1 10:-0.387755 11:-1 12:-1 13:-1 14:-1 15:-1 16:-1 17:-1 18:-1 19:-1 20:-1 21:-1 
2 1:-1 2:-1 3:-1 4:-1 5:-1 6:-1 7:-1 8:-1 9:-1 10:-1 11:-1 12:-1 13:-1 14:-1 15:-1 16:-1 17:-1 18:-1 19:-1 20:-1 21:-1 
1.6307624499476205 1:-1 2:-0.389831 3:-0.757576 4:-0.64497 5:-1 6:-1 7:-0.25 8:-0.779006 9:-0.75 10:-0.265306 11:-1 12:-1 13:-1 14:-1 15:-1 16:-1 17:-1 18:-1 19:-1 20:-1 21:-1 
2 1:-1 2:-1 3:-1 4:-1 5:-1 6:-1 7:-1 8:-1 9:-1 10:-1 11:-1 12:-1 13:-1 14:-1 15:-1 16:-1 17:-1 18:-1 19:-1 20:-1 21:-1 
2 1:-1 2:-1 3:-1 4:-1 5:-1 6:-1 7:-1 8:-1 9:-1 10:-1 11:-1 12:-1 13:-1 14:-1 15:-1 16:-1 17:-1 18:-1 19:-1 20:-1 21:-1 
2 1:-1 2:-1 3:-0.919192 4:-0.881657 5:-0.806061 6:-1 7:-1 8:-1 9:-1 10:-1 11:-1 12:-1 13:-1 14:-1 15:-1 16:-1 17:-1 18:-1 19:-1 20:-1 21:-1 
1.1146270003081833 1:-0.5 2:-0.389831 3:-1 4:0.0650888 5:-0.676768 6:0.220339 7:-0.25 8:-0.668508 9:-1 10:-1 11:-1 12:-1 13:-1 14:-1 15:-1 16:-1 17:-1 18:-1 19:-1 20:-1 21:-1 
2 1:-0.5 2:-1 3:-0.878788 4:-1 5:-1 6:-1 7:-0.916667 8:-1 9:-1 10:-1 11:-1 12:-1 13:-1 14:-1 15:-1 16:-1 17:-1 18:-1 19:-1 20:-1 21:-1 
2 1:-0.25 2:-0.59322 3:-0.636364 4:-1 5:-1 6:-1 7:-1 8:-1 9:-1 10:-1 11:-1 12:-1 13:-1 14:-1 15:-1 16:-1 17:-1 18:-1 19:-1 20:-1 21:-1 
2 1:-1 2:-1 3:-1 4:-1 5:-1 6:-1 7:-1 8:-1 9:-1 10:-1 11:-1 12:-1 13:-1 14:-1 15:-1 16:-1 17:-1 18:-1 19:-1 20:-1 21:-1 
2 1:-1 2:-0.254237 3:-0.757576 4:-0.64497 5:-0.407407 6:-1 7:-1 8:-1 9:-1 10:-1 11:-1 12:-1 13:-1 14:-1 15:-1 16:-1 17:-1 18:-1 19:-1 20:-1 21:-1 
2 1:0.25 2:-0.59322 3:-0.393939 4:-1 5:-0.515152 6:-1 7:-1 8:-0.779006 9:-1 10:-1 11:-1 12:-1 13:-1 14:-1 15:-1 16:-1 17:-1 18:-1 19:-1 20:-1 21:-1 
2 1:-1 2:-0.864407 3:-1 4:-0.313609 5:-0.676768 6:-0.59322 7:-0.75 8:-0.572744 9:-1 10:-1 11:-1 12:-1 13:-1 14:-1 15:-1 16:-1 17:-1 18:-1 19:-1 20:-1 21:-1 
2 1:-0.708333 2:-1 3:-1 4:-0.64497 5:-1 6:-1 7:-0.75 8:-0.926335 9:-0.75 10:-0.559184 11:-1 12:-1 13:-1 14:-1 15:-1 16:-1 17:-1 18:-1 19:-1 20:-1 21:-1 
2 1:-0.833333 2:-0.864407 3:-0.919192 4:-1 5:-1 6:-1 7:-1 8:-1 9:-1 10:-1 11:-1 12:-1 13:-1 14:-1 15:-1 16:-1 17:-1 18:-1 19:-1 20:-1 21:-1 
2 1:-1 2:-1 3:-1 4:-1 5:-1 6:-1 7:-1 8:-1 9:-1 10:-1 11:-1 12:-1 13:-1 14:-1 15:-1 16:-1 17:-1 18:-1 19:-1 20:-1 21:-1 
2 1:-1 2:-1 3:-1 4:-1 5:-1 6:-1 7:-1 8:-1 9:-1 10:-1 11:-1 12:-1 13:-1 14:-1 15:-1 16:-1 17:-1 18:-1 19:-1 20:-1 21:-1 
2 1:-1 2:-1 3:-1 4:-1 5:-1 6:-1 7:-1 8:-1 9:-1 10:-1 11:-1 12:-1 13:-1 14:-1 15:-1 16:-1 17:-1 18:-1 19:-1 20:-1 21:-1 
2 1:-0.6 2:-0.186441 3:-0.757576 4:-0.289941 5:-1 6:-1 7:-1 8:-1 9:-1 10:-1 11:-1 12:-1 13:-1 14:-1 15:-1 16:-1 17:-1 18:-1 19:-1 20:-1 21:-1 
0.52977219255764429 1:-0.5 2:-0.864407 3:-1 4:-0.64497 5:-1 6:-1 7:-1 8:-1 9:-1 10:-1 11:-1 12:-1 13:-1 14:-1 15:-1 16:-1 17:-1 18:-1 19:-1 20:-1 21:-1 
1.6143760871540673 1:-0.5 2:-0.59322 3:-1 4:-1 5:-0.36431 6:-1 7:-1 8:-0.779006 9:-0.75 10:-0.755102 11:-0.724138 12:-1 13:-1 14:-1 15:-1 16:-1 17:-1 18:-1 19:-1 20:-1 21:-1 
2 1:-1 2:-1 3:-1 4:-1 5:-1 6:-1 7:-1 8:-1 9:-1 10:-1 11:-1 12:-1 13:-1 14:-1 15:-1 16:-1 17:-1 18:-1 19:-1 20:-1 21:-1 
1.2151195159951074 1:-0.5 2:-0.59322 3:-0.757576 4:-0.64497 5:-1 6:-0.59322 7:-0.75 8:-0.779006 9:-0.75 10:-0.363265 11:-0.724138 12:-1 13:-1 14:-1 15:-1 16:-1 17:-1 18:-1 19:-1 20:-1 21:-1 
1.7587811331535188 1:-0.833333 2:-0.59322 3:-0.806061 4:-0.112426 5:-0.676768 6:0.0169492 7:-0.375 8:-1 9:-1 10:-1 11:-1 12:-1 13:-1 14:-1 15:-1 16:-1 17:-1 18:-1 19:-1 20:-1 21:-1 
2 1:-1 2:-0.566102 3:-0.919192 4:-0.64497 5:-1 6:-1 7:-1 8:-1 9:-1 10:-1 11:-1 12:-1 13:-1 14:-1 15:-1 16:-1 17:-1 18:-1 19:-1 20:-1 21:-1 
2 1:-1 2:-1 3:-1 4:-1 5:-1 6:-1 7:-1 8:-1 9:-1 10:-1 11:-1 12:-1 13:-1 14:-1 15:-1 16:-1 17:-1 18:-1 19:-1 20:-1 21:-1 
2 1:-1 2:-1 3:-1 4:-1 5:-1 6:-1 7:-1 8:-1 9:-1 10:-1 11:-1 12:-1 13:-1 14:-1 15:-1 16:-1 17:-1 18:-1 19:-1 20:-1 21:-1 
0.060415192160388327 1:-1 2:-0.59322 3:-1 4:-0.467456 5:-1 6:-1 7:-1 8:-1 9:-1 10:-1 11:-1 12:-1 13:-1 14:-1 15:-1 16:-1 17:-1 18:-1 19:-1 20:-1 21:-1 
0.81648134875164724 1:-0.3 2:-1 3:-0.515152 4:-0.64497 5:-0.353535 6:-1 7:-1 8:-1 9:-1 10:-1 11:-1 12:-1 13:-1 14:-1 15:-1 16:-1 17:-1 18:-1 19:-1 20:-1 21:-1 
2 1:-1 2:-1 3:-1 4:-1 5:-1 6:-1 7:-1 8:-1 9:-1 10:-1 11:-1 12:-1 13:-1 14:-1 15:-1 16:-1 17:-1 18:-1 19:-1 20:-1 21:-1 
2 1:-1 2:-1 3:-0.919192 4:-1 5:-1 6:-0.59322 7:-1 8:-1 9:-1 10:-1 11:-1 12:-1 13:-1 14:-1 15:-1 16:-1 17:-1 18:-1 19:-1 20:-1 21:-1 
2 1:-1 2:-1 3:-0.757576 4:-0.360947 5:-0.676768 6:-1 7:-1 8:-1 9:-1 10:-1 11:-1 12:-1 13:-1 14:-1 15:-1 16:-1 17:-1 18:-1 19:-1 20:-1 21:-1 
1.5539951908941392 1:-0.53125 2:0.389831 3:-1 4:-1 5:-0.892256 6:0.823729 7:-0.75 8:-1 10:-1 11:-1 12:-0.265306 13:-1 14:-0.719626 15:-1 16:-1 17:-1 18:-1 19:-1 20:-1 21:-1 
2 1:-1 2:-0.864407 3:-0.919192 4:-0.64497 5:-0.676768 6:-0.59322 7:-1 8:-1 9:-1 10:-1 11:-1 12:-1 13:-1 14:-1 15:-1 16:-1 17:-1 18:-1 19:-1 20:-1 21:-1 
1.6376725017947711 1:-1 2:-0.674576 3:-1 4:-0.64497 5:-1 6:-0.864407 7:-0.55 8:-1 9:-1 10:-1 11:-1 12:-1 13:-1 14:-1 15:-1 16:-1 17:-1 18:-1 19:-1 20:-1 21:-1 
1.5443308956097486 1:-0.5 2:-0.59322 3:-0.757576 4:-1 5:-1 6:-1 7:-0.75 8:-0.779006 9:-0.75 10:-0.755102 11:-1 12:-1 13:-1 14:-1 15:-1 16:-1 17:-1 18:-1 19:-1 20:-1 21:-1 
2 1:-1 2:-1 3:-1 4:-1 5:-1 6:-1 7:-1 8:-1 9:-1 10:-1 11:-1 12:-1 13:-1 14:-1 15:-1 16:-1 17:-1 18:-1 19:-1 20:-1 21:-1 
2 1:-1 2:0.0169492 3:-0.757576 4:-0.112426 5:-1 6:-1 7:-1 8:-1 9:-1 10:-1 11:-1 12:-1 13:-1 14:-1 15:-1 16:-1 17:-1 18:-1 19:-1 20:-1 21:-1 
2 1:-1 2:-1 3:-1 4:-1 5:-1 6:-1 7:-1 8:-1 9:-1 10:-1 11:-1 12:-1 13:-1 14:-1 15:-1 16:-1 17:-1 18:-1 19:-1 20:-1 21:-1 
2 1:-1 2:-1 3:-1 4:-1 5:-1 6:-1 7:-1 8:-1 9:-1 10:-1 11:-1 12:-1 13:-1 14:-1 15:-1 16:-1 17:-1 18:-1 19:-1 20:-1 21:-1 
2 1:-1 2:-1 3:-0.919192 4:-0.881657 5:-1 6:-1 7:-1 8:-1 9:-1 10:-1 11:-1 12:-1 13:-1 14:-1 15:-1 16:-1 17:-1 18:-1 19:-1 20:-1 21:-1 
2 1:-0.833333 2:-1 3:-0.919192 4:-1 5:-1 6:-1 7:-1 8:-1 9:-1 10:-1 11:-1 12:-1 13:-1 14:-1 15:-1 16:-1 17:-1 18:-1 19:-1 20:-1 21:-1 
2 1:-1 2:-0.864407 3:-1 4:-1 5:-1 6:-1 7:-1 8:-1 9:-1 10:-1 11:-1 12:-1 13:-1 14:-1 15:-1 16:-1 17:-1 18:-1 19:-1 20:-1 21:-1 
2 1:-1 2:-1 3:-1 4:-1 5:-1 6:-1 7:-1 8:-1 9:-1 10:-1 11:-1 12:-1 13:-1 14:-1 15:-1 16:-1 17:-1 18:-1 19:-1 20:-1 21:-1 
1.5055140989219944 1:-1 2:-1 3:-0.757576 4:-0.64497 5:-0.159596 6:-1 7:-0.75 8:-0.779006 9:-0.75 10:-0.755102 11:-0.724138 12:-0.755102 13:-1 14:-1 15:-1 16:-1 17:-1 18:-1 19:-1 20:-1 21:-1 
1.0766549734194464 1:-0.5 2:-1 3:-0.757576 4:-0.218935 5:-0.515152 6:-0.59322 7:-0.75 8:-1 9:-1 10:-1 11:-1 12:-1 13:-1 14:-1 15:-1 16:-1 17:-1 18:-1 19:-1 20:-1 21:-1 
2 2:-0.59322 3:-0.515152 4:-1 5:-0.375084 6:-1 7:-1 8:-1 9:-1 10:-1 11:-1 12:-1 13:-1 14:-1 15:-1 16:-1 17:-1 18:-1 19:-1 20:-1 21:-1 
2 1:-1 2:-1 3:-0.757576 4:-1 5:-0.676768 6:-1 7:-1 8:-1 9:-1 10:-1 11:-1 12:-1 13:-1 14:-1 15:-1 16:-1 17:-1 18:-1 19:-1 20:-1 21:-1 
2 1:-1 2:-1 3:-1 4:-1 5:-1 6:-1 7:-1 8:-1 9:-1 10:-1 11:-1 12:-1 13:-1 14:-1 15:-1 16:-1 17:-1 18:-1 19:-1 20:-1 21:-1 
1.5664743724102119 1:-1 2:-0.59322 3:-0.919192 4:-1 5:-0.676768 6:-0.288136 7:-1 8:-0.558011 9:-1 10:-1 11:-1 12:-0.510204 13:-1 14:-1 15:-0.655172 16:-0.894737 17:-0.896373 18:-0.655172 19:-1 20:-1 21:-1 
2 1:-1 2:-1 3:-1 4:-1 5:-1 6:-1 7:-1 8:-1 9:-1 10:-1 11:-1 12:-1 13:-1 14:-1 15:-1 16:-1 17:-1 18:-1 19:-1 20:-1 21:-1 
2 1:-1 2:-1 3:-1 4:-1 5:-1 6:-1 7:-1 8:-1 9:-1 10:-1 11:-1 12:-1 13:-1 14:-1 15:-1 16:-1 17:-1 18:-1 19:-1 20:-1 21:-1 
1.0068369088361764 1:-0.5 2:-0.59322 3:-0.757576 4:-0.467456 5:-1 6:-0.59322 7:-0.45 8:-0.926335 9:-0.75 10:-1 11:-1 12:-0.918367 13:-0.565789 14:-1 15:-1 16:-1 17:-1 18:-1 19:-1 20:-1 21:-1 
1.6209324794326585 1:-1 2:-0.677966 3:-1 4:-0.260355 5:-1 6:-1 7:-1 8:-0.779006 9:-0.479167 10:-1 11:-0.494253 12:-1 13:-0.605263 14:-0.906542 15:-0.655172 16:-1 17:-1 18:-1 19:-1 20:-1 21:-1 
2 1:-1 2:-1 3:-1 4:-0.112426 5:-0.676768 6:0.0169492 7:-1 8:-1 9:-1 10:-1 11:-1 12:-1 13:-1 14:-1 15:-1 16:-1 17:-1 18:-1 19:-1 20:-1 21:-1 
0.83383509228662478 1:-0.5 2:-0.59322 3:-0.369697 4:-1 5:-0.676768 6:-1 7:-1 8:-1 9:-1 10:-1 11:-1 12:-1 13:-1 14:-1 15:-1 16:-1 17:-1 18:-1 19:-1 20:-1 21:-1 
2 1:-1 2:-1 3:-1 4:-1 5:-1 6:-1 7:-1 8:-1 9:-1 10:-1 11:-1 12:-1 13:-1 14:-1 15:-1 16:-1 17:-1 18:-1 19:-1 20:-1 21:-1 
2 1:-1 2:-0.79661 3:-1 4:-0.64497 5:-1 6:-0.59322 7:-1 8:-1 9:-1 10:-1 11:-1 12:-1 13:-1 14:-1 15:-1 16:-1 17:-1 18:-1 19:-1 20:-1 21:-1 
2 1:-1 2:-1 3:-1 4:-1 5:-1 6:-1 7:-1 8:-1 9:-1 10:-1 11:-1 12:-1 13:-1 14:-1 15:-1 16:-1 17:-1 18:-1 19:-1 20:-1 21:-1 
2 1:-1 2:-1 3:-1 4:-1 5:-1 6:-1 7:-1 8:-1 9:-1 10:-1 11:-1 12:-1 13:-1 14:-1 15:-1 16:-1 17:-1 18:-1 19:-1 20:-1 21:-1 
2 1:-1 2:-1 3:-0.757576 4:-1 5:-1 6:-0.674576 7:-1 8:-1 9:-1 10:-1 11:-1 12:-1 13:-1 14:-1 15:-1 16:-1 17:-1 18:-1 19:-1 20:-1 21:-1 
2 1:-1 2:-0.674576 3:-1 4:-0.289941 5:-0.676768 6:-0.186441 7:-1 8:-1 9:-1 10:-1 11:-1 12:-1 13:-1 14:-1 15:-1 16:-1 17:-1 18:-1 19:-1 20:-1 21:-1 
1.5431318615222089 1:-1 2:-0.288136 3:-1 4:-0.64497 5:-0.353535 6:-1 7:-0.75 8:-0.779006 9:-0.5 10:-1 11:-0.724138 12:-0.755102 13:-0.605263 14:-1 15:-1 16:-1 17:-1 18:-1 19:-1 20:-1 21:-1 
2 1:-1 2:-1 3:-1 4:-1 5:-1 6:-1 7:-1 8:-1 9:-1 10:-1 11:-1 12:-1 13:-1 14:-1 15:-1 16:-1 17:-1 18:-1 19:-1 20:-1 21:-1 
2 1:-1 2:-1 3:-0.919192 4:-0.881657 5:-0.806061 6:-1 7:-1 8:-1 9:-1 10:-1 11:-1 12:-1 13:-1 14:-1 15:-1 16:-1 17:-1 18:-1 19:-1 20:-1 21:-1 
2 1:-0.833333 2:-1 3:-0.919192 4:-0.266272 5:-0.676768 6:-1 7:-1 8:-1 9:-1 10:-1 11:-1 12:-1 13:-1 14:-1 15:-1 16:-1 17:-1 18:-1 19:-1 20:-1 21:-1 
2 1:-0.5 2:-0.864407 3:-1 4:-0.881657 5:-0.892256 6:-0.59322 7:-1 8:-1 9:-0.733333 10:-1 11:-1 12:-1 13:-1 14:-1 15:-1 16:-1 17:-1 18:-1 19:-1 20:-1 21:-1 
0.5400275940990672 1:-0.5 2:0.0576271 3:-0.919192 4:-0.881657 5:-0.676768 6:-1 7:-1 8:-1 9:-1 10:-1 11:-1 12:-1 13:-1 14:-1 15:-1 16:-1 17:-1 18:-1 19:-1 20:-1 21:-1 
2 1:-1 2:-1 3:-0.919192 4:-0.881657 5:-0.806061 6:-1 7:-1 8:-1 9:-1 10:-1 11:-1 12:-1 13:-1 14:-1 15:-1 16:-1 17:-1 18:-1 19:-1 20:-1 21:-1 
2 1:-0.6 2:-1 3:-0.515152 4:-0.64497 5:-0.353535 6:-1 7:-1 8:-1 9:-1 10:-1 11:-1 12:-1 13:-1 14:-1 15:-1 16:-1 17:-1 18:-1 19:-1 20:-1 21:-1 
1.564149081893869 1:-1 2:-0.864407 3:-0.919192 4:-0.881657 5:-0.892256 6:-0.0847458 7:-1 8:-1 9:-0.916667 10:-0.142857 11:-0.724138 12:-0.142857 13:0.381579 14:-1 15:-0.885057 16:0.105263 17:-0.689119 18:0.206897 19:-1 20:-1 21:-1 
2 2:-0.59322 3:-0.515152 4:-1 5:-0.375084 6:-1 7:-1 8:-1 9:-1 10:-1 11:-1 12:-1 13:-1 14:-1 15:-1 16:-1 17:-1 18:-1 19:-1 20:-1 21:-1 
2 1:-1 2:-1 3:-1 4:-1 5:-1 6:-1 7:-1 8:-1 9:-1 10:-1 11:-1 12:-1 13:-1 14:-1 15:-1 16:-1 17:-1 18:-1 19:-1 20:-1 21:-1 
2 1:-1 2:-1 3:-0.919192 4:-0.881657 5:-0.806061 6:-1 7:-1 8:-1 9:-1 10:-1 11:-1 12:-1 13:-1 14:-1 15:-1 16:-1 17:-1 18:-1 19:-1 20:-1 21:-1 
2 1:-0.75 2:-1 3:-0.919192 4:-1 5:-0.892256 6:-1 7:-1 8:-0.837937 9:-1 10:-1 11:-1 12:-1 13:-1 14:-1 15:-1 16:-1 17:-1 18:-1 19:-1 20:-1 21:-1 
2 1:-1 2:-1 3:-1 4:-0.349112 5:-0.676768 6:-0.864407 7:-0.541667 8:-1 9:-1 10:-1 11:-1 12:-1 13:-1 14:-1 15:-1 16:-1 17:-1 18:-1 19:-1 20:-1 21:-1 
2 1:-1 2:-1 3:-0.919192 4:-0.881657 5:-0.806061 6:-1 7:-1 8:-1 9:-1 10:-1 11:-1 12:-1 13:-1 14:-1 15:-1 16:-1 17:-1 18:-1 19:-1 20:-1 21:-1 
2 2:-1 3:-0.757576 4:-0.289941 5:-1 6:-0.59322 7:-1 8:-1 9:-1 10:-1 11:-1 12:-1 13:-1 14:-1 15:-1 16:-1 17:-1 18:-1 19:-1 20:-1 21:-1 
2 1:-0.666667 2:-0.728814 3:-0.838384 4:-1 5:-1 6:-1 7:-1 8:-1 9:-1 10:-1 11:-1 12:-1 13:-1 14:-1 15:-1 16:-1 17:-1 18:-1 19:-1 20:-1 21:-1 
1.9470503829213568 1:-0.833333 2:-0.864407 3:-0.757576 4:-1 5:-1 6:-1 7:-1 8:-1 9:-1 10:-1 11:-1 12:-1 13:-1 14:-1 15:-1 16:-1 17:-1 18:-1 19:-1 20:-1 21:-1 
2 1:-1 2:-1 3:-1 4:-1 5:-1 6:-1 7:-1 8:-1 9:-1 10:-1 11:-1 12:-1 13:-1 14:-1 15:-1 16:-1 17:-1 18:-1 19:-1 20:-1 21:-1 
2 1:-1 2:-0.864407 3:-1 4:-0.289941 5:-0.676768 6:-0.186441 7:-1 8:-1 9:-1 10:-1 11:-1 12:-1 13:-1 14:-1 15:-1 16:-1 17:-1 18:-1 19:-1 20:-1 21:-1 
2 1:-1 2:-1 3:-1 4:-1 5:-1 6:-1 7:-1 8:-1 9:-1 10:-1 11:-1 12:-1 13:-1 14:-1 15:-1 16:-1 17:-1 18:-1 19:-1 20:-1 21:-1 
1.1211445253642058 1:-0.5 2:-0.288136 3:-0.393939 4:-0.112426 5:-0.676768 6:-0.288136 7:-1 8:-1 9:-1 10:-1 11:-1 12:-1 13:-1 14:-1 15:-1 16:-1 17:-1 18:-1 19:-1 20:-1 21:-1 
2 1:-1 2:-0.79661 3:-1 4:-1 5:-1 6:-0.59322 7:-0.75 8:-1 9:-1 10:-1 11:-1 12:-1 13:-1 14:-1 15:-1 16:-1 17:-1 18:-1 19:-1 20:-1 21:-1 
2 1:-1 2:-1 3:-1 4:-1 5:-1 6:-1 7:-1 8:-1 9:-1 10:-1 11:-1 12:-1 13:-1 14:-1 15:-1 16:-1 17:-1 18:-1 19:-1 20:-1 21:-1 
1.5803397838380036 1:-0.895833 2:-1 3:-0.818182 4:-1 5:-0.353535 6:-1 7:-1 8:-1 9:-1 10:-0.428571 11:-1 12:-0.918367 13:-0.605263 14:-0.345794 15:-1 16:-1 17:-1 18:-1 19:-1 20:-1 21:-1 
2 1:-1 2:-1 3:-1 4:-1 5:-1 6:-1 7:-1 8:-1 9:-1 10:-1 11:-1 12:-1 13:-1 14:-1 15:-1 16:-1 17:-1 18:-1 19:-1 20:-1 21:-1 
2 1:-0.5 2:-1 3:-0.272727 4:-0.64497 5:-0.030303 6:-1 7:-0.916667 8:-0.337017 9:-1 10:-1 11:-1 12:-1 13:-1 14:-1 15:-1 16:-1 17:-1 18:-1 19:-1 20:-1 21:-1 
0.56802008764558598 1:-0.5 2:-0.898305 3:-0.272727 4:-0.64497 5:-0.030303 6:0.220339 7:-1 8:-1 9:-1 10:-1 11:-1 12:-1 13:-1 14:-1 15:-1 16:-1 17:-1 18:-1 19:-1 20:-1 21:-1 
1.1853273264467676 1:-0.5 2:-0.674576 3:-1 4:-0.64497 5:-0.892256 6:-0.40339 7:-1 8:-1 9:-1 10:-1 11:-1 12:-1 13:-1 14:-1 15:-1 16:-1 17:-1 18:-1 19:-1 20:-1 21:-1 
2 1:-0.75 2:-1 3:-0.757576 4:-1 5:-0.676768 6:-1 7:-1 8:-1 9:-1 10:-1 11:-1 12:-1 13:-1 14:-1 15:-1 16:-1 17:-1 18:-1 19:-1 20:-1 21:-1 
2 1:-1 2:-1 3:-1 4:-1 5:-1 6:-1 7:-1 8:-1 9:-1 10:-1 11:-1 12:-1 13:-1 14:-1 15:-1 16:-1 17:-1 18:-1 19:-1 20:-1 21:-1 
2 1:-1 2:-1 3:-1 4:-1 5:-1 6:-1 7:-1 8:-1 9:-1 10:-1 11:-1 12:-1 13:-1 14:-1 15:-1 16:-1 17:-1 18:-1 19:-1 20:-1 21:-1 
1.3274545427346462 1:0.5 2:-1 3:-0.272727 4:-0.64497 5:-0.676768 6:0.220339 7:-1 8:-1 9:-1 10:-1 11:-1 12:-1 13:-1 14:-1 15:-1 16:-1 17:-1 18:-1 19:-1 20:-1 21:-1 
2 1:-1 2:-1 3:-1 4:-1 5:-1 6:-1 7:-1 8:-1 9:-1 10:-1 11:-1 12:-1 13:-1 14:-1 15:-1 16:-1 17:-1 18:-1 19:-1 20:-1 21:-1 
2 1:-1 2:-1 3:-1 4:-1 5:-1 6:-1 7:-1 8:-1 9:-1 10:-1 11:-1 12:-1 13:-1 14:-1 15:-1 16:-1 17:-1 18:-1 19:-1 20:-1 21:-1 
0.57764028180437377 1:-0.833333 2:-0.59322 3:-1 4:-0.64497 5:-0.676768 6:-1 7:-1 8:-1 9:-1 10:-1 11:-1 12:-1 13:-1 14:-1 15:-1 16:-1 17:-1 18:-1 19:-1 20:-1 21:-1 
1.2373343493973938 1:-0.5 2:0.220339 3:-0.757576 4:-1 5:-1 6:0.220339 7:-1 8:-1 9:-1 10:-1 11:-1 12:-1 13:-1 14:-1 15:-1 16:-1 17:-1 18:-1 19:-1 20:-1 21:-1 
2 1:-0.25 2:-1 3:-0.636364 4:-0.64497 5:-1 6:-1 7:-0.916667 8:-0.779006 9:-1 10:-1 11:-1 12:-1 13:-1 14:-1 15:-1 16:-1 17:-1 18:-1 19:-1 20:-1 21:-1 
2 1:-1 2:-1 3:-1 4:-1 5:-1 6:-1 7:-1 8:-1 9:-1 10:-1 11:-1 12:-1 13:-1 14:-1 15:-1 16:-1 17:-1 18:-1 19:-1 20:-1 21:-1 
2 1:-0.5 2:-0.59322 3:-1 4:-0.64497 5:-0.676768 6:-0.59322 7:-1 8:-1 9:-1 10:-1 11:-1 12:-1 13:-1 14:-1 15:-1 16:-1 17:-1 18:-1 19:-1 20:-1 21:-1 
2 1:-1 2:-1 3:-0.806061 4:-0.64497 5:-1 6:-0.59322 7:-1 8:-1 9:-1 10:-1 11:-1 12:-1 13:-1 14:-1 15:-1 16:-1 17:-1 18:-1 19:-1 20:-1 21:-1 
2 1:-1 2:-1 3:-0.919192 4:-0.704142 5:-1 6:-1 7:-0.75 8:-0.779006 9:-1 10:-1 11:-1 12:-0.918367 13:-1 14:-1 15:-1 16:-1 17:-1 18:-1 19:-1 20:-1 21:-1 
2 1:-1 2:-1 3:-1 4:-1 5:-1 6:-1 7:-1 8:-1 9:-1 10:-1 11:-1 12:-1 13:-1 14:-1 15:-1 16:-1 17:-1 18:-1 19:-1 20:-1 21:-1 
2 1:-0.6 2:-0.186441 3:-0.757576 4:-0.289941 5:-1 6:-1 7:-1 8:-1 9:-1 10:-1 11:-1 12:-1 13:-1 14:-1 15:-1 16:-1 17:-1 18:-1 19:-1 20:-1 21:-1 
2 1:-1 2:-1 3:-1 4:-1 5:-1 6:-1 7:-1 8:-1 9:-1 10:-1 11:-1 12:-1 13:-1 14:-1 15:-1 16:-1 17:-1 18:-1 19:-1 20:-1 21:-1 
2 1:-1 2:-1 3:-0.806061 4:-1 5:-0.676768 6:-1 7:-1 8:-1 9:-1 10:-1 11:-1 12:-1 13:-1 14:-1 15:-1 16:-1 17:-1 18:-1 19:-1 20:-1 21:-1 
2 1:-1 2:-1 3:-1 4:-1 5:-1 6:-1 7:-1 8:-1 9:-1 10:-1 11:-1 12:-1 13:-1 14:-1 15:-1 16:-1 17:-1 18:-1 19:-1 20:-1 21:-1 
2 1:-1 2:-1 3:-1 4:-0.715976 5:-1 6:-0.59322 7:-1 8:-1 9:-1 10:-1 11:-1 12:-1 13:-1 14:-1 15:-1 16:-1 17:-1 18:-1 19:-1 20:-1 21:-1 
2 1:-1 2:-1 3:-1 4:-1 5:-1 6:-1 7:-1 8:-1 9:-1 10:-1 11:-1 12:-1 13:-1 14:-1 15:-1 16:-1 17:-1 18:-1 19:-1 20:-1 21:-1 
2 1:-1 2:-0.59322 3:-0.757576 4:-0.360947 5:-0.676768 6:-1 7:-1 8:-1 9:-1 10:-1 11:-1 12:-1 13:-1 14:-1 15:-1 16:-1 17:-1 18:-1 19:-1 20:-1 21:-1 
1.3577567019671468 1:-1 2:-0.59322 3:-1 4:-0.881657 5:-0.676768 6:-1 7:-1 8:-1 9:-1 10:-1 11:-1 12:-1 13:-1 14:-1 15:-1 16:-1 17:-1 18:-1 19:-1 20:-1 21:-1 
2 1:-1 2:-0.864407 3:-0.919192 4:-1 5:-1 6:-1 7:-1 8:-1 9:-1 10:-1 11:-1 12:-1 13:-1 14:-1 15:-1 16:-1 17:-1 18:-1 19:-1 20:-1 21:-1 
2 1:-0.6 2:-1 3:-0.515152 4:-1 5:-0.676768 6:-0.186441 7:-1 8:-1 9:-1 10:-1 11:-1 12:-1 13:-1 14:-1 15:-1 16:-1 17:-1 18:-1 19:-1 20:-1 21:-1 
2 1:-1 2:-0.59322 3:-0.563636 4:-0.64497 5:-0.676768 6:-1 7:-1 8:-1 9:-1 10:-1 11:-1 12:-1 13:-1 14:-1 15:-1 16:-1 17:-1 18:-1 19:-1 20:-1 21:-1 
2 1:-1 2:-1 3:-1 4:-1 5:-1 6:-1 7:-1 8:-1 9:-1 10:-1 11:-1 12:-1 13:-1 14:-1 15:-1 16:-1 17:-1 18:-1 19:-1 20:-1 21:-1 
1.2747988815686648 1:-1 2:-0.349153 3:-0.515152 4:-0.881657 5:-0.676768 6:-0.59322 7:-1 8:-1 9:-1 10:-1 11:-1 12:-1 13:-1 14:-1 15:-1 16:-1 17:-1 18:-1 19:-1 20:-1 21:-1 
2 1:-1 2:-1 3:-1 4:-1 5:-1 6:-1 7:-1 8:-1 9:-1 10:-1 11:-1 12:-1 13:-1 14:-1 15:-1 16:-1 17:-1 18:-1 19:-1 20:-1 21:-1 
2 1:-1 2:-1 3:-1 4:-1 5:-1 6:-1 7:-1 8:-1 9:-1 10:-1 11:-1 12:-1 13:-1 14:-1 15:-1 16:-1 17:-1 18:-1 19:-1 20:-1 21:-1 
2 1:-1 2:-0.59322 3:-1 4:-1 5:-0.676768 6:-1 7:-1 8:-1 9:-1 10:-1 11:-1 12:-1 13:-1 14:-1 15:-1 16:-1 17:-1 18:-1 19:-1 20:-1 21:-1 
2 1:-1 2:-0.59322 3:-1 4:-1 5:-0.676768 6:-1 7:-0.75 8:-1 9:-0.916667 10:-0.755102 11:-1 12:-1 13:-1 14:-1 15:-1 16:-1 17:-1 18:-1 19:-1 20:-1 21:-1 
0.39385256344896474 1:-0.5 2:0.0847458 3:-0.919192 4:-0.64497 5:-0.892256 6:0.0847458 7:-1 8:-1 9:-1 10:-1 11:-1 12:-1 13:-1 14:-1 15:-1 16:-1 17:-1 18:-1 19:-1 20:-1 21:-1 
1.8352497903878304 1:-0.833333 2:-0.864407 3:-0.757576 4:-0.64497 5:-1 6:-0.254237 7:-1 8:-1 9:-0.75 10:-0.55102 11:-1 12:-1 13:-1 14:-1 15:-1 16:-1 17:-1 18:-1 19:-1 20:-1 21:-1 
2 1:-0.25 2:-0.59322 3:-0.636364 4:-1 5:-1 6:-1 7:-1 8:-1 9:-1 10:-1 11:-1 12:-1 13:-1 14:-1 15:-1 16:-1 17:-1 18:-1 19:-1 20:-1 21:-1 
1.5968435733845125 1:-1 2:-0.59322 3:-0.692929 4:-0.881657 5:-0.892256 6:-1 7:-1 8:-1 9:-1 10:-1 11:-1 12:-1 13:-1 14:-1 15:-1 16:-1 17:-1 18:-1 19:-1 20:-1 21:-1 
2 1:-0.5 2:-1 3:-1 4:-0.112426 5:-0.676768 6:0.0169492 7:-1 8:-1 9:-1 10:-1 11:-1 12:-1 13:-1 14:-1 15:-1 16:-1 17:-1 18:-1 19:-1 20:-1 21:-1 
2 1:-1 2:-1 3:-1 4:-0.112426 5:-0.676768 6:0.0169492 7:-1 8:-1 9:-1 10:-1 11:-1 12:-1 13:-1 14:-1 15:-1 16:-1 17:-1 18:-1 19:-1 20:-1 21:-1 
2 1:-1 2:-1 3:-1 4:-1 5:-1 6:-1 7:-1 8:-1 9:-1 10:-1 11:-1 12:-1 13:-1 14:-1 15:-1 16:-1 17:-1 18:-1 19:-1 20:-1 21:-1 
2 1:-0.5 2:-0.59322 3:-0.636364 4:-1 5:-0.030303 6:-0.59322 7:-0.25 8:-1 9:-1 10:-1 11:-1 12:-1 13:-1 14:-1 15:-1 16:-1 17:-1 18:-1 19:-1 20:-1 21:-1 
1.5544337279237634 1:-0.133333 2:-1 3:-1 4:0.189349 5:-0.676768 6:0.423729 7:-0.75 8:-0.226519 9:-1 10:-1 11:-0.724138 12:-1 13:-1 14:-1 15:-0.655172 16:-1 17:-1 18:-1 19:-1 20:-1 21:-1 
1.5838828147413089 1:-1 2:-0.79661 3:-0.757576 4:-1 5:-0.504377 6:0.0169492 7:-0.75 8:-0.447514 9:-0.375 10:-0.44898 11:-1 12:-0.632653 13:-1 14:-1 15:-0.885057 16:-1 17:-1 18:-1 19:-1 20:-1 21:-1 
2 1:-1 2:-1 3:-1 4:-1 5:-1 6:-1 7:-1 8:-1 9:-1 10:-1 11:-1 12:-1 13:-1 14:-1 15:-1 16:-1 17:-1 18:-1 19:-1 20:-1 21:-1 
1.5706411978419477 1:-1 2:-0.474576 3:-1 4:-0.64497 5:-0.582492 6:-1 7:-0.916667 8:-1 9:-0.625 10:-1 11:-1 12:-1 13:-0.407895 14:-1 15:-1 16:-1 17:-0.689119 18:-0.655172 19:-1 20:-1 21:-1 
2 1:-1 2:-1 3:-1 4:-1 5:-1 6:-1 7:-1 8:-1 9:-1 10:-1 11:-1 12:-1 13:-1 14:-1 15:-1 16:-1 17:-1 18:-1 19:-1 20:-1 21:-1 
2 1:-1 2:-1 3:-1 4:-1 5:-1 6:-1 7:-1 8:-1 9:-1 10:-1 11:-1 12:-1 13:-1 14:-1 15:-1 16:-1 17:-1 18:-1 19:-1 20:-1 21:-1 
0.65348629590379947 1:-1 2:-0.59322 3:-0.757576 4:-0.64497 5:-1 6:-0.59322 7:-1 8:-1 9:-1 10:-1 11:-1 12:-1 13:-1 14:-1 15:-1 16:-1 17:-1 18:-1 19:-1 20:-1 21:-1 
1.6864749774911447 1:-0.25 2:-1 3:-0.393939 4:-0.64497 5:-0.191919 6:-1 7:-0.125 8:-1 9:-1 10:-1 11:-1 12:-1 13:-1 14:-1 15:-1 16:-1 17:-1 18:-1 19:-1 20:-1 21:-1 
2 1:-1 2:-1 3:-1 4:-1 5:-1 6:-1 7:-1 8:-1 9:-1 10:-1 11:-1 12:-1 13:-1 14:-1 15:-1 16:-1 17:-1 18:-1 19:-1 20:-1 21:-1 
0.93000406196902408 1:-0.416667 2:-0.864407 3:-0.757576 4:-1 5:-0.36431 6:-1 7:-0.75 8:-1 9:-0.916667 10:-1 11:-1 12:-1 13:-1 14:-1 15:-1 16:-1 17:-1 18:-1 19:-1 20:-1 21:-1 
2 1:-0.533333 2:-1 3:-0.717172 4:-1 5:-1 6:-1 7:-0.916667 8:-1 9:-1 10:-1 11:-1 12:-1 13:-1 14:-1 15:-1 16:-1 17:-1 18:-1 19:-1 20:-1 21:-1 
2 1:-1 2:-1 3:-1 4:-1 5:-1 6:-1 7:-1 8:-1 9:-1 10:-1 11:-1 12:-1 13:-1 14:-1 15:-1 16:-1 17:-1 18:-1 19:-1 20:-1 21:-1 
2 1:-1 2:-1 3:-1 4:-1 5:-1 6:-1 7:-1 8:-1 9:-1 10:-1 11:-1 12:-1 13:-1 14:-1 15:-1 16:-1 17:-1 18:-1 19:-1 20:-1 21:-1 
2 1:-1 2:-1 3:-1 4:-1 5:-1 6:-1 7:-1 8:-1 9:-1 10:-1 11:-1 12:-1 13:-1 14:-1 15:-1 16:-1 17:-1 18:-1 19:-1 20:-1 21:-1 
0.28041143975684996 1:-0.25 2:-1 3:-0.757576 4:-1 5:-1 6:-0.389831 7:-1 8:-1 9:-1 10:-1 11:-1 12:-1 13:-1 14:-1 15:-1 16:-1 17:-1 18:-1 19:-1 20:-1 21:-1 
2 1:-1 2:-1 3:-1 4:-0.881657 5:-0.892256 6:-0.864407 7:-1 8:-1 9:-0.916667 10:-1 11:-1 12:-1 13:-1 14:-1 15:-1 16:-1 17:-1 18:-1 19:-1 20:-1 21:-1 
2 1:-1 2:-1 3:-1 4:-1 5:-1 6:-1 7:-1 8:-1 9:-1 10:-1 11:-1 12:-1 13:-1 14:-1 15:-1 16:-1 17:-1 18:-1 19:-1 20:-1 21:-1 
2 1:-0.5 2:-0.864407 3:-0.531313 4:-0.64497 5:-1 6:-1 7:-1 8:-1 9:-1 10:-1 11:-1 12:-1 13:-1 14:-1 15:-1 16:-1 17:-1 18:-1 19:-1 20:-1 21:-1 
1.5533676499084379 1:-0.875 2:-0.59322 3:-0.636364 4:0.100592 5:-1 6:0.423729 7:-0.75 8:-0.779006 9:-0.125 10:-1 11:-1 12:-1 13:-1 14:-1 15:-1 16:-1 17:-1 18:-1 19:-1 20:-1 21:-1 
2 1:-1 2:-1 3:-0.919192 4:-0.64497 5:-1 6:-1 7:-1 8:-1 9:-1 10:-1 11:-1 12:-1 13:-1 14:-1 15:-1 16:-1 17:-1 18:-1 19:-1 20:-1 21:-1 
2 1:-0.1 2:-0.59322 3:-0.919192 4:-0.64497 5:-1 6:-1 7:-1 8:-1 9:-1 10:-1 11:-1 12:-1 13:-1 14:-1 15:-1 16:-1 17:-1 18:-1 19:-1 20:-1 21:-1 
2 1:-0.916667 2:-1 3:-0.919192 4:-1 5:-0.892256 6:-1 7:-1 8:-1 9:-1 10:-1 11:-1 12:-1 13:-1 14:-1 15:-1 16:-1 17:-1 18:-1 19:-1 20:-1 21:-1 
2 1:-1 2:-0.389831 3:-0.757576 4:-0.467456 5:-1 6:-1 7:-1 8:-1 9:-1 10:-1 11:-1 12:-1 13:-1 14:-1 15:-1 16:-1 17:-1 18:-1 19:-1 20:-1 21:-1 
2 1:-1 2:-1 3:-1 4:-1 5:-1 6:-1 7:-1 8:-1 9:-1 10:-1 11:-1 12:-1 13:-1 14:-1 15:-1 16:-1 17:-1 18:-1 19:-1 20:-1 21:-1 
2 1:-0.5 2:-1 3:-0.757576 4:-1 5:-0.892256 6:-1 7:-0.916667 8:-1 9:-1 10:-0.918367 11:-1 12:-1 13:-1 14:-1 15:-1 16:-1 17:-1 18:-1 19:-1 20:-1 21:-1 
2 1:-1 2:-1 3:-1 4:-1 5:-1 6:-1 7:-1 8:-1 9:-1 10:-1 11:-1 12:-1 13:-1 14:-1 15:-1 16:-1 17:-1 18:-1 19:-1 20:-1 21:-1 
2 1:-0.6 2:-1 3:-0.757576 4:-1 5:-1 6:-1 7:-1 8:-1 9:-1 10:-1 11:-1 12:-1 13:-1 14:-1 15:-1 16:-1 17:-1 18:-1 19:-1 20:-1 21:-1 
2 1:-0.5 2:0.220339 3:-0.757576 4:0.0650888 5:-0.030303 6:-1 7:-1 8:-1 9:-1 10:-1 11:-1 12:-1 13:-1 14:-1 15:-1 16:-1 17:-1 18:-1 19:-1 20:-1 21:-1 
0.58218101325302507 1:-0.366667 2:-1 3:-1 4:-0.207101 5:-0.569024 6:-1 7:-1 8:-1 9:-0.916667 10:-1 11:-1 12:-1 13:-1 14:-1 15:-1 16:-1 17:-1 18:-1 19:-1 20:-1 21:-1 
1.1980144385491269 1:-0.5 2:-1 3:-0.757576 4:-0.313609 5:-0.676768 6:-1 7:-1 8:-1 9:-1 10:-1 11:-1 12:-1 13:-1 14:-1 15:-1 16:-1 17:-1 18:-1 19:-1 20:-1 21:-1 
2 1:-1 2:-1 3:-1 4:-1 5:-1 6:-1 7:-1 8:-1 9:-1 10:-1 11:-1 12:-1 13:-1 14:-1 15:-1 16:-1 17:-1 18:-1 19:-1 20:-1 21:-1 
2 1:-1 2:-1 3:-1 4:-1 5:-1 6:-1 7:-1 8:-1 9:-1 10:-1 11:-1 12:-1 13:-1 14:-1 15:-1 16:-1 17:-1 18:-1 19:-1 20:-1 21:-1 
2 1:-1 2:-1 3:-0.757576 4:-0.360947 5:-0.676768 6:-1 7:-1 8:-1 9:-1 10:-1 11:-1 12:-1 13:-1 14:-1 15:-1 16:-1 17:-1 18:-1 19:-1 20:-1 21:-1 
2 1:-0.958333 2:-1 3:-0.919192 4:-1 5:-0.892256 6:-1 7:-0.916667 8:-1 9:-1 10:-1 11:-1 12:-1 13:-1 14:-1 15:-1 16:-1 17:-1 18:-1 19:-1 20:-1 21:-1 
0.46663152140210834 1:-0.5 2:-0.59322 3:-0.757576 4:-0.313609 5:-1 6:-0.59322 7:-1 8:-1 9:-1 10:-1 11:-1 12:-1 13:-1 14:-1 15:-1 16:-1 17:-1 18:-1 19:-1 20:-1 21:-1 
2 1:-1 2:-1 3:-1 4:-1 5:-1 6:-1 7:-1 8:-1 9:-1 10:-1 11:-1 12:-1 13:-1 14:-1 15:-1 16:-1 17:-1 18:-1 19:-1 20:-1 21:-1 
2 1:-0.833333 2:-1 3:-0.919192 4:-1 5:-1 6:-1 7:-1 8:-1 9:-1 10:-1 11:-1 12:-1 13:-1 14:-1 15:-1 16:-1 17:-1 18:-1 19:-1 20:-1 21:-1 
2 1:-1 2:-0.59322 3:-1 4:-0.64497 5:-0.676768 6:-1 7:-1 8:-0.779006 9:-1 10:-1 11:-1 12:-1 13:-1 14:-1 15:-1 16:-1 17:-1 18:-1 19:-1 20:-1 21:-1 
2 1:-1 2:-1 3:-1 4:-1 5:-1 6:-1 7:-1 8:-1 9:-1 10:-1 11:-1 12:-1 13:-1 14:-1 15:-1 16:-1 17:-1 18:-1 19:-1 20:-1 21:-1 
2 1:-1 2:-1 3:-1 4:-1 5:-1 6:-1 7:-1 8:-1 9:-1 10:-1 11:-1 12:-1 13:-1 14:-1 15:-1 16:-1 17:-1 18:-1 19:-1 20:-1 21:-1 
1.568882511757105 1:-1 2:-1 3:-0.757576 4:-1 5:-0.892256 6:-0.59322 7:-1 8:-0.60221 9:-1 10:-1 11:-0.310345 12:-1 13:-0.605263 14:-0.906542 15:-0.655172 16:-0.210526 17:-1 18:-1 19:-1 20:-1 21:-1 
1.5875749856673078 1:0.25 2:-0.59322 3:-0.393939 4:-0.112426 5:-1 6:-0.389831 7:-0.75 8:-0.558011 9:-1 10:-1 11:-1 12:-1 13:-1 14:-1 15:-1 16:-1 17:-1 18:-1 19:-1 20:-1 21:-1 
2 1:-0.5 2:-1 3:-0.919192 4:-1 5:-0.892256 6:-1 7:-1 8:-0.926335 9:-0.75 10:-0.755102 11:-1 12:-1 13:-1 14:-1 15:-1 16:-1 17:-1 18:-1 19:-1 20:-1 21:-1 
2 1:-1 2:-1 3:-0.515152 4:-0.64497 5:-0.353535 6:-0.59322 7:-1 8:-1 9:-1 10:-1 11:-1 12:-1 13:-1 14:-1 15:-1 16:-1 17:-1 18:-1 19:-1 20:-1 21:-1 
2 1:-0.75 2:-0.59322 3:-0.878788 4:-1 5:-1 6:-1 7:-1 8:-1 9:-1 10:-1 11:-1 12:-1 13:-1 14:-1 15:-1 16:-1 17:-1 18:-1 19:-1 20:-1 21:-1 
2 1:-0.5 2:-0.864407 3:-0.272727 4:0.0650888 5:-0.676768 6:0.220339 7:-1 8:-1 9:-1 10:-1 11:-1 12:-1 13:-1 14:-1 15:-1 16:-1 17:-1 18:-1 19:-1 20:-1 21:-1 
2 1:-1 2:-0.674576 3:-1 4:-0.64497 5:-0.892256 6:-1 7:-1 8:-1 9:-1 10:-1 11:-1 12:-1 13:-1 14:-1 15:-1 16:-1 17:-1 18:-1 19:-1 20:-1 21:-1 
1.0042854630849287 1:-1 2:-0.59322 3:-0.757576 4:-1 5:-0.676768 6:-0.59322 7:-0.75 8:-0.779006 9:-0.75 10:-0.755102 11:-0.724138 12:-1 13:-1 14:-1 15:-1 16:-1 17:-1 18:-1 19:-1 20:-1 21:-1 
2 1:-1 2:-1 3:-1 4:-0.64497 5:-1 6:-1 7:-1 8:-1 9:-1 10:-1 11:-1 12:-1 13:-1 14:-1 15:-1 16:-1 17:-1 18:-1 19:-1 20:-1 21:-1 
0.71653433772019148 1:-0.5 2:-0.59322 3:-0.644444 4:-1 5:-0.418182 6:-0.59322 7:-1 8:-1 9:-1 10:-1 11:-1 12:-1 13:-1 14:-1 15:-1 16:-1 17:-1 18:-1 19:-1 20:-1 21:-1 
2 1:-1 2:-1 3:-1 4:-1 5:-1 6:-1 7:-1 8:-1 9:-1 10:-1 11:-1 12:-1 13:-1 14:-1 15:-1 16:-1 17:-1 18:-1 19:-1 20:-1 21:-1 
2 1:-0.25 2:-0.59322 3:-0.757576 4:-0.64497 5:-0.515152 6:-1 7:-1 8:-1 9:-1 10:-1 11:-1 12:-1 13:-1 14:-1 15:-1 16:-1 17:-1 18:-1 19:-1 20:-1 21:-1 
1.7190988053770024 1:-0.833333 2:-0.59322 3:-1 4:-0.64497 5:-0.676768 6:-0.267797 7:-0.75 8:-1 9:-1 10:-1 11:-1 12:-1 13:-1 14:-1 15:-1 16:-1 17:-1 18:-1 19:-1 20:-1 21:-1 
1.5658153494073201 1:-1 2:-0.237288 3:-1 4:-0.64497 5:-0.676768 6:0.118644 7:-1 8:-0.447514 9:-0.75 10:-0.326531 11:-1 12:-1 13:-0.0131579 14:-1 15:-0.655172 16:-1 17:-1 18:-1 19:-1 20:-1 21:-1 
0.99817880050165342 1:-0.5 2:-0.349153 3:-1 4:-0.112426 5:-0.676768 6:0.0169492 7:-0.375 8:-1 9:-1 10:-1 11:-1 12:-1 13:-1 14:-1 15:-1 16:-1 17:-1 18:-1 19:-1 20:-1 21:-1 
2 1:-1 2:-1 3:-1 4:-1 5:-1 6:-1 7:-1 8:-1 9:-1 10:-1 11:-1 12:-1 13:-1 14:-1 15:-1 16:-1 17:-1 18:-1 19:-1 20:-1 21:-1 
0.95660591537521622 2:-1 3:-0.515152 4:-1 5:-0.676768 6:-1 7:-0.75 8:-1 9:-1 10:-1 11:-1 12:-1 13:-1 14:-1 15:-1 16:-1 17:-1 18:-1 19:-1 20:-1 21:-1 
2 1:-1 2:-1 3:-1 4:-1 5:-1 6:-1 7:-1 8:-1 9:-1 10:-1 11:-1 12:-1 13:-1 14:-1 15:-1 16:-1 17:-1 18:-1 19:-1 20:-1 21:-1 
1.5875844777584598 1:-1 2:-0.59322 3:-0.919192 4:-1 5:-0.676768 6:-0.661017 7:-1 8:-0.668508 9:-1 10:-1 11:-1 12:-0.755102 13:-0.605263 14:-1 15:0.0689655 16:-1 17:-0.689119 18:-1 19:-1 20:-1 21:-1 
2 1:-0.5 2:-0.79661 3:-1 4:-0.64497 5:-0.676768 6:-1 7:-1 8:-1 9:-1 10:-1 11:-1 12:-1 13:-1 14:-1 15:-1 16:-1 17:-1 18:-1 19:-1 20:-1 21:-1 
1.5648252721363112 1:-1 2:-0.288136 3:-0.0424242 4:-1 5:-0.676768 6:-0.59322 7:-0.3125 8:-1 9:0.225 10:-0.755102 11:-0.172414 12:-1 13:-1 14:-1 15:-1 16:-1 17:-1 18:-1 19:-1 20:-1 21:-1 
2 1:-1 2:-1 3:-0.806061 4:-0.64497 5:-1 6:-1 7:-1 8:-1 9:-1 10:-1 11:-1 12:-1 13:-1 14:-1 15:-1 16:-1 17:-1 18:-1 19:-1 20:-1 21:-1 
2 1:-1 2:-1 3:-1 4:-0.881657 5:-0.676768 6:-0.59322 7:-1 8:-1 9:-1 10:-1 11:-1 12:-1 13:-1 14:-1 15:-1 16:-1 17:-1 18:-1 19:-1 20:-1 21:-1 
2 1:-1 2:-1 3:-1 4:-1 5:-1 6:-1 7:-1 8:-1 9:-1 10:-1 11:-1 12:-1 13:-1 14:-1 15:-1 16:-1 17:-1 18:-1 19:-1 20:-1 21:-1 
2 1:-0.5 2:-0.59322 3:-1 4:-1 5:-0.892256 6:-0.59322 7:-1 8:-1 9:-1 10:-1 11:-1 12:-1 13:-1 14:-1 15:-1 16:-1 17:-1 18:-1 19:-1 20:-1 21:-1 
1.8181690819495664 1:-0.5 2:-1 3:-0.919192 4:-0.337278 5:-0.676768 6:-1 7:-1 8:-1 9:-1 10:-1 11:-1 12:-1 13:-1 14:-1 15:-1 16:-1 17:-1 18:-1 19:-1 20:-1 21:-1 
2 1:-1 2:-1 3:-1 4:-1 5:-1 6:-1 7:-1 8:-1 9:-1 10:-1 11:-1 12:-1 13:-1 14:-1 15:-1 16:-1 17:-1 18:-1 19:-1 20:-1 21:-1 
2 1:-1 2:-0.389831 3:-0.757576 4:-1 5:-0.515152 6:-1 7:-1 8:-1 9:-1 10:-1 11:-1 12:-1 13:-1 14:-1 15:-1 16:-1 17:-1 18:-1 19:-1 20:-1 21:-1 
1.5631491006468345 1:-0.5 2:-0.674576 3:-1 4:-1 5:-0.892256 6:-0.186441 7:-0.75 8:-0.558011 9:-1 10:-1 11:-1 12:-0.918367 13:-0.868421 14:-0.906542 15:-0.678161 16:-1 17:-1 18:-1 19:-1 20:-1 21:-1 
2 1:-1 2:-1 3:-0.806061 4:-0.112426 5:-0.676768 6:0.0169492 7:-0.375 8:-1 9:-1 10:-1 11:-1 12:-1 13:-1 14:-1 15:-1 16:-1 17:-1 18:-1 19:-1 20:-1 21:-1 
2 1:-1 2:-1 3:-1 4:-1 5:-1 6:-1 7:-1 8:-1 9:-1 10:-1 11:-1 12:-1 13:-1 14:-1 15:-1 16:-1 17:-1 18:-1 19:-1 20:-1 21:-1 
1.5579859808708882 1:-0.5 2:-1 3:-1 4:0.213018 5:-0.0841751 6:-0.59322 7:-0.145833 8:0.00184162 9:-1 10:-1 11:-1 12:-1 13:-1 14:-1 15:-1 16:-1 17:-1 18:-1 19:-1 20:-1 21:-1 
1.3717633767054214 1:-0.5 2:-1 3:-0.919192 4:-0.467456 5:-1 6:-0.864407 7:-0.75 8:-0.314917 9:-0.916667 10:-0.755102 11:-0.724138 12:-1 13:-1 14:-1 15:-1 16:-1 17:-1 18:-1 19:-1 20:-1 21:-1 
2 1:-1 2:-1 3:-1 4:-1 5:-1 6:-1 7:-1 8:-1 9:-1 10:-1 11:-1 12:-1 13:-1 14:-1 15:-1 16:-1 17:-1 18:-1 19:-1 20:-1 21:-1 
0.23240616242426751 1:-0.5 2:-0.389831 3:-0.757576 4:-0.822485 5:-0.676768 6:-0.59322 7:-1 8:-0.668508 9:-1 10:-1 11:-1 12:-1 13:-1 14:-1 15:-1 16:-1 17:-1 18:-1 19:-1 20:-1 21:-1 
2 1:-1 2:-0.864407 3:-0.919192 4:-0.668639 5:-1 6:-0.59322 7:-0.75 8:-0.779006 9:-1 10:-1 11:-1 12:-1 13:-1 14:-1 15:-1 16:-1 17:-1 18:-1 19:-1 20:-1 21:-1 
2 1:-1 2:-1 3:-1 4:-1 5:-1 6:-1 7:-1 8:-1 9:-1 10:-1 11:-1 12:-1 13:-1 14:-1 15:-1 16:-1 17:-1 18:-1 19:-1 20:-1 21:-1 
2 2:-0.59322 3:-0.515152 4:-1 5:-0.482828 6:-1 7:-1 8:-1 9:-1 10:-1 11:-1 12:-1 13:-1 14:-1 15:-1 16:-1 17:-1 18:-1 19:-1 20:-1 21:-1 
2 1:-1 2:-1 3:-1 4:-1 5:-1 6:-1 7:-1 8:-1 9:-1 10:-1 11:-1 12:-1 13:-1 14:-1 15:-1 16:-1 17:-1 18:-1 19:-1 20:-1 21:-1 
2 1:-1 2:-1 3:-1 4:-1 5:-1 6:-1 7:-1 8:-1 9:-1 10:-1 11:-1 12:-1 13:-1 14:-1 15:-1 16:-1 17:-1 18:-1 19:-1 20:-1 21:-1 
0.43073444974165254 1:-0.416667 2:-0.0508475 3:-0.757576 4:-0.64497 5:-1 6:0.274576 7:-1 8:-1 9:-1 10:-1 11:-1 12:-1 13:-1 14:-1 15:-1 16:-1 17:-1 18:-1 19:-1 20:-1 21:-1 
1.5218224159077351 1:-0.833333 2:-0.59322 3:-0.515152 4:-0.64497 5:-0.353535 6:-0.186441 7:-1 8:-1 9:-1 10:-1 11:-1 12:-1 13:-1 14:-1 15:-1 16:-1 17:-1 18:-1 19:-1 20:-1 21:-1 
2 1:-0.75 2:-1 3:-0.757576 4:-1 5:-1 6:-0.59322 7:-1 8:-1 9:-1 10:-1 11:-1 12:-1 13:-1 14:-1 15:-1 16:-1 17:-1 18:-1 19:-1 20:-1 21:-1 
2 1:-0.5 2:-0.186441 3:-0.757576 4:-1 5:-0.515152 6:-1 7:-1 8:-1 9:-1 10:-1 11:-1 12:-1 13:-1 14:-1 15:-1 16:-1 17:-1 18:-1 19:-1 20:-1 21:-1 
2 1:-1 2:-1 3:-1 4:-1 5:-1 6:-1 7:-1 8:-1 9:-1 10:-1 11:-1 12:-1 13:-1 14:-1 15:-1 16:-1 17:-1 18:-1 19:-1 20:-1 21:-1 
1.4179922221993582 1:0.2 2:-0.59322 3:-0.030303 4:-1 5:-1 6:-1 7:-1 8:-1 9:-1 10:-0.755102 11:-0.724138 12:-1 13:-1 14:-1 15:-1 16:-1 17:-1 18:-1 19:-1 20:-1 21:-1 
2 1:-1 2:-1 3:-1 4:-1 5:-1 6:-1 7:-1 8:-1 9:-1 10:-1 11:-1 12:-1 13:-1 14:-1 15:-1 16:-1 17:-1 18:-1 19:-1 20:-1 21:-1 
2 1:-0.5 2:-0.59322 3:-1 4:-1 5:-1 6:-0.59322 7:-1 8:-1 9:-1 10:-1 11:-1 12:-1 13:-1 14:-1 15:-1 16:-1 17:-1 18:-1 19:-1 20:-1 21:-1 
2 1:-1 2:-1 3:-1 4:-1 5:-1 6:-1 7:-1 8:-1 9:-1 10:-1 11:-1 12:-1 13:-1 14:-1 15:-1 16:-1 17:-1 18:-1 19:-1 20:-1 21:-1 
2 1:-1 2:-0.538983 3:-0.757576 4:-1 5:-0.676768 6:-1 7:-1 8:-1 9:-1 10:-1 11:-1 12:-1 13:-1 14:-1 15:-1 16:-1 17:-1 18:-1 19:-1 20:-1 21:-1 
1.6819617795029478 1:-0.5 2:0.0576271 3:-0.757576 4:-0.64497 5:-1 6:-1 7:-1 8:-1 9:-1 10:-1 11:-1 12:-1 13:-1 14:-1 15:-1 16:-1 17:-1 18:-1 19:-1 20:-1 21:-1 
2 2:-0.59322 3:-0.515152 4:-1 5:-0.482828 6:-1 7:-1 8:-1 9:-1 10:-1 11:-1 12:-1 13:-1 14:-1 15:-1 16:-1 17:-1 18:-1 19:-1 20:-1 21:-1 
2 1:-1 2:-1 3:-1 4:-1 5:-1 6:-1 7:-1 8:-1 9:-1 10:-1 11:-1 12:-1 13:-1 14:-1 15:-1 16:-1 17:-1 18:-1 19:-1 20:-1 21:-1 
2 1:-1 2:-0.864407 3:-1 4:-1 5:-1 6:-1 7:-1 8:-1 9:-1 10:-1 11:-1 12:-1 13:-1 14:-1 15:-1 16:-1 17:-1 18:-1 19:-1 20:-1 21:-1 
2 1:-1 2:-0.389831 3:-0.757576 4:-0.467456 5:-1 6:-1 7:-1 8:-1 9:-1 10:-1 11:-1 12:-1 13:-1 14:-1 15:-1 16:-1 17:-1 18:-1 19:-1 20:-1 21:-1 
2 1:-0.833333 2:-1 3:-0.757576 4:-1 5:-1 6:-1 7:-1 8:-1 9:-1 10:-1 11:-1 12:-1 13:-1 14:-1 15:-1 16:-1 17:-1 18:-1 19:-1 20:-1 21:-1 
2 1:-1 2:-1 3:-1 4:-1 5:-1 6:-1 7:-1 8:-1 9:-1 10:-1 11:-1 12:-1 13:-1 14:-1 15:-1 16:-1 17:-1 18:-1 19:-1 20:-1 21:-1 
2 1:-1 2:-1 3:-1 4:-1 5:-1 6:-1 7:-1 8:-1 9:-1 10:-1 11:-1 12:-1 13:-1 14:-1 15:-1 16:-1 17:-1 18:-1 19:-1 20:-1 21:-1 
2 1:-1 2:-1 3:-1 4:-1 5:-1 6:-1 7:-1 8:-1 9:-1 10:-1 11:-1 12:-1 13:-1 14:-1 15:-1 16:-1 17:-1 18:-1 19:-1 20:-1 21:-1 
2 2:-0.59322 3:-0.515152 4:-0.289941 5:-1 6:-1 7:-1 8:-1 9:-1 10:-1 11:-1 12:-1 13:-1 14:-1 15:-1 16:-1 17:-1 18:-1 19:-1 20:-1 21:-1 
2 2:-0.59322 3:-0.515152 4:-1 5:-0.375084 6:-1 7:-1 8:-1 9:-1 10:-1 11:-1 12:-1 13:-1 14:-1 15:-1 16:-1 17:-1 18:-1 19:-1 20:-1 21:-1 
2 1:-0.75 2:-1 3:-0.757576 4:-1 5:-1 6:-0.105085 7:-0.75 8:-0.337017 9:-0.75 10:-0.265306 11:-1 12:-1 13:-1 14:-1 15:-1 16:-1 17:-1 18:-1 19:-1 20:-1 21:-1 
2 2:-0.59322 3:-0.515152 4:-0.289941 5:-1 6:-1 7:-1 8:-1 9:-1 10:-1 11:-1 12:-1 13:-1 14:-1 15:-1 16:-1 17:-1 18:-1 19:-1 20:-1 21:-1 
2 1:-1 2:-1 3:-1 4:-1 5:-1 6:-1 7:-1 8:-1 9:-1 10:-1 11:-1 12:-1 13:-1 14:-1 15:-1 16:-1 17:-1 18:-1 19:-1 20:-1 21:-1 
2 1:-0.833333 2:-1 3:-0.919192 4:-1 5:-1 6:-0.484746 7:-1 8:-1 9:-1 10:-1 11:-1 12:-1 13:-1 14:-1 15:-1 16:-1 17:-1 18:-1 19:-1 20:-1 21:-1 
2 1:-0.25 2:-0.59322 3:-0.636364 4:-1 5:-1 6:-1 7:-1 8:-1 9:-1 10:-1 11:-1 12:-1 13:-1 14:-1 15:-1 16:-1 17:-1 18:-1 19:-1 20:-1 21:-1 
2 1:-0.833333 2:-0.59322 3:-1 4:-0.715976 5:-1 6:-0.864407 7:-1 8:-1 9:-1 10:-1 11:-1 12:-1 13:-1 14:-1 15:-1 16:-1 17:-1 18:-1 19:-1 20:-1 21:-1 
2 1:-1 2:-1 3:-0.757576 4:-1 5:-1 6:-0.59322 7:-0.916667 8:-0.926335 9:-0.916667 10:-0.755102 11:-0.724138 12:-1 13:-1 14:-1 15:-1 16:-1 17:-1 18:-1 19:-1 20:-1 21:-1 
1.7601851923793004 1:-0.5 2:-1 3:-0.563636 4:-1 5:-1 6:-0.267797 7:-0.75 8:-1 9:-1 10:-1 11:-1 12:-1 13:-1 14:-1 15:-1 16:-1 17:-1 18:-1 19:-1 20:-1 21:-1 
2 1:-0.833333 2:-1 3:-1 4:-1 5:-1 6:-1 7:-1 8:-1 9:-1 10:-1 11:-1 12:-1 13:-1 14:-1 15:-1 16:-1 17:-1 18:-1 19:-1 20:-1 21:-1 
2 1:-0.833333 2:-1 3:-0.919192 4:-1 5:-1 6:-1 7:-1 8:-1 9:-1 10:-1 11:-1 12:-1 13:-1 14:-1 15:-1 16:-1 17:-1 18:-1 19:-1 20:-1 21:-1 
2 1:-1 2:-1 3:-1 4:-0.905325 5:-1 6:-0.864407 7:-1 8:-1 9:-1 10:-1 11:-1 12:-1 13:-1 14:-1 15:-1 16:-1 17:-1 18:-1 19:-1 20:-1 21:-1 
2 1:-1 2:-1 3:-1 4:-1 5:-1 6:-1 7:-1 8:-1 9:-1 10:-1 11:-1 12:-1 13:-1 14:-1 15:-1 16:-1 17:-1 18:-1 19:-1 20:-1 21:-1 
0.13750282890545895 1:-0.75 2:-0.59322 3:-0.757576 4:-0.64497 5:-1 6:-1 7:-1 8:-1 9:-1 10:-1 11:-1 12:-1 13:-1 14:-1 15:-1 16:-1 17:-1 18:-1 19:-1 20:-1 21:-1 
2 1:-1 2:-1 3:-1 4:-1 5:-1 6:-1 7:-1 8:-1 9:-1 10:-1 11:-1 12:-1 13:-1 14:-1 15:-1 16:-1 17:-1 18:-1 19:-1 20:-1 21:-1 
2 1:-0.833333 2:-1 3:-0.919192 4:-1 5:-1 6:-1 7:-1 8:-1 9:-1 10:-1 11:-1 12:-1 13:-1 14:-1 15:-1 16:-1 17:-1 18:-1 19:-1 20:-1 21:-1 
2 1:-1 2:-1 3:-1 4:-1 5:-1 6:-1 7:-1 8:-1 9:-1 10:-1 11:-1 12:-1 13:-1 14:-1 15:-1 16:-1 17:-1 18:-1 19:-1 20:-1 21:-1 
0.33107251654454939 1:-0.5 2:-0.349153 3:-1 4:-0.289941 5:-0.676768 6:-0.186441 7:-1 8:-1 9:-1 10:-1 11:-1 12:-1 13:-1 14:-1 15:-1 16:-1 17:-1 18:-1 19:-1 20:-1 21:-1 
1.2896888703782847 1:-1 2:-0.59322 3:-1 4:-0.64497 5:-0.676768 6:-0.59322 7:-0.75 8:-0.779006 9:-0.75 10:-1 11:-1 12:-1 13:-1 14:-1 15:-1 16:-1 17:-1 18:-1 19:-1 20:-1 21:-1 
2 1:-1 2:-0.79661 3:-0.757576 4:-0.64497 5:-1 6:-1 7:-1 8:-1 9:-1 10:-1 11:-1 12:-1 13:-1 14:-1 15:-1 16:-1 17:-1 18:-1 19:-1 20:-1 21:-1 
0.83550058847736941 1:-0.5 2:-0.59322 3:-1 4:-1 5:-0.676768 6:-1 7:-1 8:-1 9:-1 10:-1 11:-1 12:-1 13:-1 14:-1 15:-1 16:-1 17:-1 18:-1 19:-1 20:-1 21:-1 
1.5640707130320579 1:0.5 2:0.220339 3:-0.919192 4:-0.64497 5:-0.030303 6:0.708475 7:-1 8:-0.558011 9:-0.75 10:-0.510204 11:-1 12:-1 13:-1 14:-1 15:-1 16:-1 17:-1 18:-1 19:-1 20:-1 21:-1 
2 1:-0.833333 2:-0.59322 3:-0.757576 4:-1 5:-1 6:-1 7:-1 8:-1 9:-1 10:-1 11:-1 12:-1 13:-1 14:-1 15:-1 16:-1 17:-1 18:-1 19:-1 20:-1 21:-1 
1.847536584035256 1:-0.1875 2:-1 3:-0.575758 4:-1 5:-0.434343 6:-1 7:-0.625 8:-1 9:-0.75 10:-1 11:-1 12:-1 13:-1 14:-1 15:-1 16:-1 17:-1 18:-1 19:-1 20:-1 21:-1 
2 1:-1 2:-1 3:-1 4:-1 5:-1 6:-1 7:-1 8:-1 9:-1 10:-1 11:-1 12:-1 13:-1 14:-1 15:-1 16:-1 17:-1 18:-1 19:-1 20:-1 21:-1 
2 1:-1 2:-1 3:-1 4:-1 5:-1 6:-1 7:-1 8:-1 9:-1 10:-1 11:-1 12:-1 13:-1 14:-1 15:-1 16:-1 17:-1 18:-1 19:-1 20:-1 21:-1 
2 1:-0.5 2:-0.59322 3:-0.806061 4:-1 5:-1 6:-1 7:-1 8:-1 9:-1 10:-1 11:-1 12:-1 13:-1 14:-1 15:-1 16:-1 17:-1 18:-1 19:-1 20:-1 21:-1 
1.4928561889094374 1:-0.5 2:0.444068 3:-0.393939 4:0.242604 5:-0.676768 6:0.444068 7:-1 8:-1 9:-1 10:-1 11:-1 12:-1 13:-1 14:-1 15:-1 16:-1 17:-1 18:-1 19:-1 20:-1 21:-1 
2 1:-1 2:-1 3:-1 4:-1 5:-1 6:-1 7:-1 8:-1 9:-1 10:-1 11:-1 12:-1 13:-1 14:-1 15:-1 16:-1 17:-1 18:-1 19:-1 20:-1 21:-1 
2 1:-1 2:-1 3:-1 4:-1 5:-1 6:-1 7:-1 8:-1 9:-1 10:-1 11:-1 12:-1 13:-1 14:-1 15:-1 16:-1 17:-1 18:-1 19:-1 20:-1 21:-1 
2 1:-1 2:-1 3:-0.757576 4:-1 5:-0.676768 6:-1 7:-1 8:-1 9:-1 10:-1 11:-1 12:-1 13:-1 14:-1 15:-1 16:-1 17:-1 18:-1 19:-1 20:-1 21:-1 
2 1:-1 2:-1 3:-0.838384 4:-1 5:-0.245791 6:-0.59322 7:-0.416667 8:-1 9:-0.916667 10:-1 11:-1 12:-1 13:-1 14:-1 15:-1 16:-1 17:-1 18:-1 19:-1 20:-1 21:-1 
2 1:-0.583333 2:-1 3:-1 4:-1 5:-0.676768 6:-1 7:-0.75 8:-1 9:-1 10:-1 11:-1 12:-1 13:-1 14:-1 15:-1 16:-1 17:-1 18:-1 19:-1 20:-1 21:-1 
2 1:-1 2:-1 3:-1 4:-0.64497 5:-1 6:-0.59322 7:-0.75 8:-1 9:-1 10:-1 11:-1 12:-1 13:-1 14:-1 15:-1 16:-1 17:-1 18:-1 19:-1 20:-1 21:-1 
2 1:-1 2:-1 3:-0.636364 4:-0.64497 5:-0.515152 6:-1 7:-1 8:-1 9:-1 10:-1 11:-1 12:-1 13:-1 14:-1 15:-1 16:-1 17:-1 18:-1 19:-1 20:-1 21:-1 
2 1:-1 2:-1 3:-0.757576 4:-0.881657 5:-0.676768 6:-0.59322 7:-1 8:-1 9:-1 10:-1 11:-1 12:-1 13:-1 14:-1 15:-1 16:-1 17:-1 18:-1 19:-1 20:-1 21:-1 
2 1:-1 2:-1 3:-1 4:-1 5:-1 6:-1 7:-1 8:-1 9:-1 10:-1 11:-1 12:-1 13:-1 14:-1 15:-1 16:-1 17:-1 18:-1 19:-1 20:-1 21:-1 
0.98992905815582899 1:-0.5 2:-1 3:-1 4:-1 5:-1 6:-1 7:-1 8:-1 9:-1 10:-1 11:-1 12:-1 13:-1 14:-1 15:-1 16:-1 17:-1 18:-1 19:-1 20:-1 21:-1 
0.63259277414642412 1:-1 2:-0.59322 3:-0.757576 4:-0.467456 5:-1 6:-0.389831 7:-1 8:-0.779006 9:-1 10:-1 11:-1 12:-1 13:-1 14:-1 15:-1 16:-1 17:-1 18:-1 19:-1 20:-1 21:-1 
2 1:-1 2:-1 3:-1 4:-1 5:-1 6:-1 7:-1 8:-1 9:-1 10:-1 11:-1 12:-1 13:-1 14:-1 15:-1 16:-1 17:-1 18:-1 19:-1 20:-1 21:-1 
1.4420348214187078 1:-1 2:-1 3:-0.806061 4:-0.64497 5:-0.676768 6:-1 7:-0.75 8:-0.779006 9:-0.75 10:-0.755102 11:-0.724138 12:-0.755102 13:-1 14:-1 15:-1 16:-1 17:-1 18:-1 19:-1 20:-1 21:-1 
1.5549821370556907 1:-0.0833333 2:-1 3:-1 4:0.233728 5:-0.676768 6:0.423729 7:-0.75 8:-0.226519 9:-1 10:-1 11:-0.310345 12:-1 13:-1 14:-1 15:-0.137931 16:-0.684211 17:-0.689119 18:-1 19:-1 20:-1 21:-1 
1.6243833074234562 1:-0.5 2:-0.674576 3:-1 4:-1 5:-0.892256 6:-0.40339 7:-0.375 8:-0.779006 9:-0.375 10:-1 11:-1 12:-1 13:-0.868421 14:-0.906542 15:-0.885057 16:-0.705263 17:-1 18:-1 19:-1 20:-1 21:-1 
2 1:-1 2:-1 3:-0.919192 4:-1 5:-1 6:-1 7:-0.916667 8:-1 9:-1 10:-1 11:-1 12:-1 13:-1 14:-1 15:-1 16:-1 17:-1 18:-1 19:-1 20:-1 21:-1 
2 1:-1 2:-1 3:-1 4:-1 5:-1 6:-1 7:-1 8:-1 9:-1 10:-1 11:-1 12:-1 13:-1 14:-1 15:-1 16:-1 17:-1 18:-1 19:-1 20:-1 21:-1 
2 1:-0.833333 2:-1 3:-1 4:-0.881657 5:-1 6:-1 7:-1 8:-1 9:-1 10:-1 11:-1 12:-1 13:-1 14:-1 15:-1 16:-1 17:-1 18:-1 19:-1 20:-1 21:-1 
1.4825868023301043 1:-0.6 2:-0.59322 3:-0.757576 4:-1 5:-1 6:-1 7:-1 8:-1 9:-1 10:-1 11:-1 12:-1 13:-1 14:-1 15:-1 16:-1 17:-1 18:-1 19:-1 20:-1 21:-1 
2 1:-0.25 2:-1 3:-0.757576 4:-0.881657 5:-0.515152 6:-1 7:-1 8:-1 9:-1 10:-1 11:-1 12:-1 13:-1 14:-1 15:-1 16:-1 17:-1 18:-1 19:-1 20:-1 21:-1 
1.5010209375954866 1:-0.5 2:-1 3:-1 4:-0.467456 5:-0.030303 6:-0.59322 7:-0.25 8:-0.337017 9:-0.55 10:-0.706122 11:-0.816092 12:-1 13:-1 14:-1 15:-1 16:-1 17:-1 18:-1 19:-1 20:-1 21:-1 
2 1:-1 2:-0.864407 3:-1 4:-1 5:-1 6:-1 7:-1 8:-1 9:-1 10:-1 11:-1 12:-1 13:-1 14:-1 15:-1 16:-1 17:-1 18:-1 19:-1 20:-1 21:-1 
2 1:-1 2:0.0169492 3:-0.757576 4:-1 5:-0.353535 6:-1 7:-1 8:-1 9:-1 10:-1 11:-1 12:-1 13:-1 14:-1 15:-1 16:-1 17:-1 18:-1 19:-1 20:-1 21:-1 
2 1:-0.25 2:-0.59322 3:-0.636364 4:-1 5:-1 6:-1 7:-1 8:-1 9:-1 10:-1 11:-1 12:-1 13:-1 14:-1 15:-1 16:-1 17:-1 18:-1 19:-1 20:-1 21:-1 
1.6002192081351743 1:-0.4 2:-0.389831 3:-1 4:-0.64497 5:-1 6:-1 7:-1 8:-1 9:-1 10:-1 11:-1 12:-1 13:-1 14:-1 15:-1 16:-1 17:-1 18:-1 19:-1 20:-1 21:-1 
2 1:-1 2:-1 3:-1 4:-1 5:-1 6:-1 7:-1 8:-1 9:-1 10:-1 11:-1 12:-1 13:-1 14:-1 15:-1 16:-1 17:-1 18:-1 19:-1 20:-1 21:-1 
2 1:-0.8 2:-1 3:-1 4:-0.64497 5:-0.418182 6:-1 7:-0.75 8:-1 9:-1 10:-0.755102 11:-1 12:-1 13:-1 14:-1 15:-1 16:-1 17:-1 18:-1 19:-1 20:-1 21:-1 
2 2:-0.59322 3:-0.515152 4:-0.881657 5:-0.375084 6:-1 7:-1 8:-1 9:-1 10:-1 11:-1 12:-1 13:-1 14:-1 15:-1 16:-1 17:-1 18:-1 19:-1 20:-1 21:-1 
2 1:-0.833333 2:-0.864407 3:-1 4:-1 5:-1 6:-0.864407 7:-1 8:-1 9:-1 10:-1 11:-1 12:-1 13:-1 14:-1 15:-1 16:-1 17:-1 18:-1 19:-1 20:-1 21:-1 
0.36308053308479049 1:-1 2:-0.389831 3:-0.757576 4:-0.467456 5:-0.418182 6:-0.59322 7:-1 8:-1 9:-1 10:-1 11:-1 12:-1 13:-1 14:-1 15:-1 16:-1 17:-1 18:-1 19:-1 20:-1 21:-1 
2 1:-0.6 2:-1 3:-0.757576 4:-1 5:-1 6:-1 7:-1 8:-1 9:-1 10:-1 11:-1 12:-1 13:-1 14:-1 15:-1 16:-1 17:-1 18:-1 19:-1 20:-1 21:-1 
2 1:-1 2:-1 3:-1 4:-1 5:-1 6:-1 7:-1 8:-1 9:-1 10:-1 11:-1 12:-1 13:-1 14:-1 15:-1 16:-1 17:-1 18:-1 19:-1 20:-1 21:-1 
2 1:-1 2:-1 3:-1 4:-1 5:-1 6:-1 7:-1 8:-1 9:-1 10:-1 11:-1 12:-1 13:-1 14:-1 15:-1 16:-1 17:-1 18:-1 19:-1 20:-1 21:-1 
2 1:-1 2:-1 3:-1 4:-1 5:-1 6:-1 7:-1 8:-1 9:-1 10:-1 11:-1 12:-1 13:-1 14:-1 15:-1 16:-1 17:-1 18:-1 19:-1 20:-1 21:-1 
2 1:-1 2:-1 3:-1 4:-1 5:-1 6:-1 7:-1 8:-1 9:-1 10:-1 11:-1 12:-1 13:-1 14:-1 15:-1 16:-1 17:-1 18:-1 19:-1 20:-1 21:-1 
1.741324142385956 1:-0.6 2:-0.186441 3:-0.757576 4:-0.00591716 5:-0.676768 6:-1 7:-1 8:-1 9:-1 10:-1 11:-1 12:-1 13:-1 14:-1 15:-1 16:-1 17:-1 18:-1 19:-1 20:-1 21:-1 
2 1:-1 2:-0.59322 3:-1 4:-1 5:-0.676768 6:-1 7:-1 8:-1 9:-1 10:-1 11:-1 12:-1 13:-1 14:-1 15:-1 16:-1 17:-1 18:-1 19:-1 20:-1 21:-1 
1.4745666243101134 1:-0.625 2:-0.118644 3:-1 4:-1 5:-0.892256 6:0.315254 7:-0.75 8:-1 9:-0.75 10:-1 11:-1 12:-1 13:-1 14:-1 15:-1 16:-1 17:-1 18:-1 19:-1 20:-1 21:-1 
2 2:-0.59322 3:-0.515152 4:-1 5:-0.375084 6:-1 7:-1 8:-1 9:-1 10:-1 11:-1 12:-1 13:-1 14:-1 15:-1 16:-1 17:-1 18:-1 19:-1 20:-1 21:-1 
2 1:-1 2:-0.79661 3:-1 4:-0.64497 5:-1 6:-0.59322 7:-1 8:-1 9:-1 10:-1 11:-1 12:-1 13:-1 14:-1 15:-1 16:-1 17:-1 18:-1 19:-1 20:-1 21:-1 
2 1:-1 2:-1 3:-0.919192 4:-0.881657 5:-0.806061 6:-1 7:-1 8:-1 9:-1 10:-1 11:-1 12:-1 13:-1 14:-1 15:-1 16:-1 17:-1 18:-1 19:-1 20:-1 21:-1 
2 1:-1 2:-0.267797 3:-0.757576 4:-1 5:-1 6:-1 7:-0.916667 8:-0.907919 9:-0.916667 10:-0.918367 11:-0.908046 12:-1 13:-1 14:-1 15:-1 16:-1 17:-1 18:-1 19:-1 20:-1 21:-1 
1.8084471826036506 1:-0.5 2:-0.864407 3:-0.757576 4:-1 5:-1 6:-0.864407 7:-0.35 8:-1 9:-1 10:-1 11:-1 12:-1 13:-1 14:-1 15:-1 16:-1 17:-1 18:-1 19:-1 20:-1 21:-1 
0.80417401508300579 1:-0.5 2:-0.0508475 3:-0.272727 4:-0.64497 5:-0.030303 6:-1 7:-1 8:-1 9:-1 10:-1 11:-1 12:-1 13:-1 14:-1 15:-1 16:-1 17:-1 18:-1 19:-1 20:-1 21:-1 
2 1:-1 2:-1 3:-1 4:-0.881657 5:-0.892256 6:-0.59322 7:-0.75 8:-1 9:-1 10:-1 11:-1 12:-1 13:-1 14:-1 15:-1 16:-1 17:-1 18:-1 19:-1 20:-1 21:-1 
2 1:-1 2:-1 3:-0.919192 4:-0.881657 5:-0.806061 6:-1 7:-1 8:-1 9:-1 10:-1 11:-1 12:-1 13:-1 14:-1 15:-1 16:-1 17:-1 18:-1 19:-1 20:-1 21:-1 
1.564092501427323 1:-0.125 2:-1 3:-0.0909091 4:-1 5:-1 6:0.830508 7:-0.75 8:-0.116022 9:-0.75 10:-0.0204082 11:-1 12:-1 13:-0.407895 14:-1 15:-1 16:-1 17:-0.689119 18:-1 19:-1 20:-1 21:-1 
2 1:-1 2:-1 3:-1 4:-1 5:-1 6:-1 7:-1 8:-1 9:-1 10:-1 11:-1 12:-1 13:-1 14:-1 15:-1 16:-1 17:-1 18:-1 19:-1 20:-1 21:-1 
2 1:-1 2:-1 3:-1 4:-1 5:-1 6:-1 7:-1 8:-1 9:-1 10:-1 11:-1 12:-1 13:-1 14:-1 15:-1 16:-1 17:-1 18:-1 19:-1 20:-1 21:-1 
2 1:-1 2:-1 3:-0.919192 4:-1 5:-0.676768 6:-1 7:-1 8:-1 9:-1 10:-1 11:-1 12:-1 13:-1 14:-1 15:-1 16:-1 17:-1 18:-1 19:-1 20:-1 21:-1 
2 1:-1 2:-1 3:-1 4:-1 5:-1 6:-1 7:-1 8:-1 9:-1 10:-1 11:-1 12:-1 13:-1 14:-1 15:-1 16:-1 17:-1 18:-1 19:-1 20:-1 21:-1 
2 1:-1 2:-1 3:-0.919192 4:-0.881657 5:-0.806061 6:-1 7:-1 8:-1 9:-1 10:-1 11:-1 12:-1 13:-1 14:-1 15:-1 16:-1 17:-1 18:-1 19:-1 20:-1 21:-1 
2 1:-1 2:-1 3:-1 4:-1 5:-1 6:-1 7:-1 8:-1 9:-1 10:-1 11:-1 12:-1 13:-1 14:-1 15:-1 16:-1 17:-1 18:-1 19:-1 20:-1 21:-1 
2 1:-1 2:-0.254237 3:-0.757576 4:-0.349112 5:-1 6:-1 7:-1 8:-1 9:-1 10:-1 11:-1 12:-1 13:-1 14:-1 15:-1 16:-1 17:-1 18:-1 19:-1 20:-1 21:-1 
2 1:-1 2:-1 3:-1 4:-1 5:-1 6:-1 7:-1 8:-1 9:-1 10:-1 11:-1 12:-1 13:-1 14:-1 15:-1 16:-1 17:-1 18:-1 19:-1 20:-1 21:-1 
2 1:-1 2:-0.254237 3:-0.757576 4:-0.349112 5:-1 6:-1 7:-1 8:-1 9:-1 10:-1 11:-1 12:-1 13:-1 14:-1 15:-1 16:-1 17:-1 18:-1 19:-1 20:-1 21:-1 
2 1:-0.75 2:-1 3:-0.919192 4:-0.881657 5:-0.946128 6:-1 7:-0.916667 8:-0.690608 9:-1 10:-1 11:-1 12:-1 13:-1 14:-1 15:-1 16:-1 17:-1 18:-1 19:-1 20:-1 21:-1 
1.0316421925302512 1:0.25 2:-0.59322 3:-1 4:-0.112426 5:-1 6:-1 7:-1 8:-1 9:-1 10:-1 11:-1 12:-1 13:-1 14:-1 15:-1 16:-1 17:-1 18:-1 19:-1 20:-1 21:-1 
2 1:-1 2:-1 3:-1 4:-1 5:-1 6:-1 7:-1 8:-1 9:-1 10:-1 11:-1 12:-1 13:-1 14:-1 15:-1 16:-1 17:-1 18:-1 19:-1 20:-1 21:-1 
2 1:-1 2:-1 3:-1 4:-1 5:-1 6:-1 7:-1 8:-1 9:-1 10:-1 11:-1 12:-1 13:-1 14:-1 15:-1 16:-1 17:-1 18:-1 19:-1 20:-1 21:-1 
2 1:-0.866667 2:-0.864407 3:-0.919192 4:-0.881657 5:-1 6:-1 7:-1 8:-1 9:-1 10:-1 11:-1 12:-1 13:-1 14:-1 15:-1 16:-1 17:-1 18:-1 19:-1 20:-1 21:-1 
2 1:-1 2:-0.837288 3:-1 4:-0.289941 5:-0.676768 6:-0.186441 7:-1 8:-1 9:-1 10:-1 11:-1 12:-1 13:-1 14:-1 15:-1 16:-1 17:-1 18:-1 19:-1 20:-1 21:-1 
2 1:-1 2:-1 3:-0.757576 4:-1 5:-0.676768 6:-1 7:-1 8:-1 9:-1 10:-1 11:-1 12:-1 13:-1 14:-1 15:-1 16:-1 17:-1 18:-1 19:-1 20:-1 21:-1 
2 1:-0.25 2:-0.59322 3:-0.919192 4:-0.467456 5:-1 6:-1 7:-1 8:-1 9:-1 10:-1 11:-1 12:-1 13:-1 14:-1 15:-1 16:-1 17:-1 18:-1 19:-1 20:-1 21:-1 
1.9884861361386983 1:-0.5 2:-0.864407 3:-1 4:-0.64497 5:-1 6:-1 7:-1 8:-1 9:-1 10:-1 11:-1 12:-1 13:-1 14:-1 15:-1 16:-1 17:-1 18:-1 19:-1 20:-1 21:-1 
2 1:-1 2:-1 3:-0.919192 4:-0.881657 5:-0.806061 6:-1 7:-1 8:-1 9:-1 10:-1 11:-1 12:-1 13:-1 14:-1 15:-1 16:-1 17:-1 18:-1 19:-1 20:-1 21:-1 
1.8357664678507084 1:-0.5 2:-0.59322 3:-0.393939 4:-0.64497 5:-0.892256 6:0.0169492 7:-1 8:-1 9:-1 10:-1 11:-1 12:-1 13:-1 14:-1 15:-1 16:-1 17:-1 18:-1 19:-1 20:-1 21:-1 
0.99441437278593603 1:-0.375 2:0.0169492 3:-0.757576 4:-0.112426 5:-0.337374 6:-1 7:-0.5 8:-0.779006 9:-0.5 10:-1 11:-1 12:-1 13:-1 14:-1 15:-1 16:-1 17:-1 18:-1 19:-1 20:-1 21:-1 
2 1:-1 2:-1 3:-1 4:-1 5:-1 6:-1 7:-1 8:-1 9:-1 10:-1 11:-1 12:-1 13:-1 14:-1 15:-1 16:-1 17:-1 18:-1 19:-1 20:-1 21:-1 
2 1:-1 2:-0.59322 3:-0.393939 4:-0.64497 5:-0.676768 6:0.0169492 7:-1 8:-1 9:-1 10:-1 11:-1 12:-1 13:-1 14:-1 15:-1 16:-1 17:-1 18:-1 19:-1 20:-1 21:-1 
1.5679888769983568 1:-1 2:-0.288136 3:-1 4:-0.289941 5:-1 6:-0.186441 7:-1 8:-0.226519 9:-0.125 10:-0.755102 11:-0.0344828 12:-1 13:-1 14:-1 15:-1 16:-1 17:-1 18:-1 19:-1 20:-1 21:-1 
2 1:-0.25 2:-0.59322 3:-0.636364 4:-1 5:-1 6:-1 7:-1 8:-1 9:-1 10:-1 11:-1 12:-1 13:-1 14:-1 15:-1 16:-1 17:-1 18:-1 19:-1 20:-1 21:-1 
1.6028964881535415 1:-1 2:-0.59322 3:-0.757576 4:-0.289941 5:-0.676768 6:-0.186441 7:-0.5 8:-1 9:-1 10:-1 11:-1 12:-1 13:-1 14:-1 15:-1 16:-1 17:-1 18:-1 19:-1 20:-1 21:-1 
2 2:-0.59322 3:-0.515152 4:-0.289941 5:-1 6:-1 7:-1 8:-1 9:-1 10:-1 11:-1 12:-1 13:-1 14:-1 15:-1 16:-1 17:-1 18:-1 19:-1 20:-1 21:-1 
2 1:-1 2:-1 3:-1 4:-1 5:-1 6:-1 7:-1 8:-1 9:-1 10:-1 11:-1 12:-1 13:-1 14:-1 15:-1 16:-1 17:-1 18:-1 19:-1 20:-1 21:-1 
1.5244446673149514 1:-1 2:-0.59322 3:-0.757576 4:-1 5:-1 6:-0.864407 7:-0.75 8:-0.160221 9:-1 10:-0.632653 11:-0.724138 12:-0.755102 13:-1 14:-1 15:-1 16:-1 17:-1 18:-1 19:-1 20:-1 21:-1 
2 1:-1 2:-1 3:-1 4:-1 5:-1 6:-1 7:-1 8:-1 9:-1 10:-1 11:-1 12:-1 13:-1 14:-1 15:-1 16:-1 17:-1 18:-1 19:-1 20:-1 21:-1 
2 1:-0.6 2:-1 3:-1 4:-0.64497 5:-1 6:-1 7:-1 8:-1 9:-1 10:-1 11:-1 12:-1 13:-1 14:-1 15:-1 16:-1 17:-1 18:-1 19:-1 20:-1 21:-1 
2 1:-1 2:-0.79661 3:-0.878788 4:-0.112426 5:-0.676768 6:0.0169492 7:-1 8:-1 9:-1 10:-1 11:-1 12:-1 13:-1 14:-1 15:-1 16:-1 17:-1 18:-1 19:-1 20:-1 21:-1 
2 1:-1 2:-1 3:-0.919192 4:-0.881657 5:-0.806061 6:-1 7:-1 8:-1 9:-1 10:-1 11:-1 12:-1 13:-1 14:-1 15:-1 16:-1 17:-1 18:-1 19:-1 20:-1 21:-1 
2 1:-1 2:-1 3:-1 4:-1 5:-1 6:-1 7:-1 8:-1 9:-1 10:-1 11:-1 12:-1 13:-1 14:-1 15:-1 16:-1 17:-1 18:-1 19:-1 20:-1 21:-1 
2 1:-0.5 2:-0.59322 3:-0.757576 4:-0.64497 5:-0.892256 6:-0.864407 7:-1 8:-0.779006 9:-1 10:-0.918367 11:-1 12:-0.918367 13:-0.828947 14:-1 15:-1 16:-1 17:-1 18:-1 19:-1 20:-1 21:-1 
2 1:-1 2:-0.674576 3:-0.757576 4:-1 5:-1 6:-1 7:-1 8:-1 9:-1 10:-1 11:-1 12:-1 13:-1 14:-1 15:-1 16:-1 17:-1 18:-1 19:-1 20:-1 21:-1 
2 1:-1 2:-0.864407 3:-0.919192 4:-1 5:-1 6:-1 7:-1 8:-1 9:-1 10:-1 11:-1 12:-1 13:-1 14:-1 15:-1 16:-1 17:-1 18:-1 19:-1 20:-1 21:-1 
2 1:-1 2:-1 3:-0.919192 4:-0.881657 5:-0.806061 6:-1 7:-1 8:-1 9:-1 10:-1 11:-1 12:-1 13:-1 14:-1 15:-1 16:-1 17:-1 18:-1 19:-1 20:-1 21:-1 
1.694957032405912 1:-0.8125 2:-1 3:-1 4:-1 5:-1 6:-1 7:-1 8:-0.61326 9:-1 10:-0.387755 11:-1 12:-1 13:-0.0131579 14:-1 15:-1 16:-1 17:-0.896373 18:-0.655172 19:-1 20:-1 21:-1 
2 1:-1 2:-1 3:-1 4:-1 5:-1 6:-1 7:-1 8:-1 9:-1 10:-1 11:-1 12:-1 13:-1 14:-1 15:-1 16:-1 17:-1 18:-1 19:-1 20:-1 21:-1 
2 1:-1 2:-1 3:-0.919192 4:-0.597633 5:-0.676768 6:-1 7:-1 8:-1 9:-1 10:-1 11:-1 12:-1 13:-1 14:-1 15:-1 16:-1 17:-1 18:-1 19:-1 20:-1 21:-1 
2 1:-0.958333 2:-1 3:-0.919192 4:-1 5:-0.892256 6:-1 7:-0.916667 8:-1 9:-1 10:-1 11:-1 12:-1 13:-1 14:-1 15:-1 16:-1 17:-1 18:-1 19:-1 20:-1 21:-1 
2 1:-1 2:-1 3:-0.919192 4:-0.881657 5:-0.806061 6:-1 7:-1 8:-1 9:-1 10:-1 11:-1 12:-1 13:-1 14:-1 15:-1 16:-1 17:-1 18:-1 19:-1 20:-1 21:-1 
2 1:-1 2:-1 3:-0.919192 4:-0.881657 5:-0.806061 6:-1 7:-1 8:-1 9:-1 10:-1 11:-1 12:-1 13:-1 14:-1 15:-1 16:-1 17:-1 18:-1 19:-1 20:-1 21:-1 
2 1:-0.5 2:-1 3:-1 4:-1 5:-1 6:-1 7:-1 8:-1 9:-1 10:-1 11:-1 12:-1 13:-1 14:-1 15:-1 16:-1 17:-1 18:-1 19:-1 20:-1 21:-1 
0.62419324920791075 1:-0.5 2:-0.864407 3:-0.692929 4:-0.64497 5:-0.159596 6:-0.59322 7:-1 8:-1 9:-1 10:-1 11:-1 12:-1 13:-1 14:-1 15:-1 16:-1 17:-1 18:-1 19:-1 20:-1 21:-1 
2 1:-1 2:-1 3:-0.919192 4:-0.881657 5:-0.806061 6:-1 7:-1 8:-1 9:-1 10:-1 11:-1 12:-1 13:-1 14:-1 15:-1 16:-1 17:-1 18:-1 19:-1 20:-1 21:-1 
2 1:-0.46875 2:-1 3:-0.742424 4:-1 5:-1 6:-1 7:-0.75 8:-1 9:-0.75 10:-1 11:-0.724138 12:-1 13:-0.868421 14:-1 15:-1 16:-1 17:-1 18:-1 19:-1 20:-1 21:-1 
2 1:-0.866667 2:-1 3:-0.919192 4:-1 5:-0.892256 6:-1 7:-1 8:-1 9:-1 10:-1 11:-1 12:-1 13:-1 14:-1 15:-1 16:-1 17:-1 18:-1 19:-1 20:-1 21:-1 
2 1:-1 2:-1 3:-1 4:-1 5:-1 6:-1 7:-1 8:-1 9:-1 10:-1 11:-1 12:-1 13:-1 14:-1 15:-1 16:-1 17:-1 18:-1 19:-1 20:-1 21:-1 
2 1:-1 2:-1 3:-0.919192 4:-0.881657 5:-0.806061 6:-1 7:-1 8:-1 9:-1 10:-1 11:-1 12:-1 13:-1 14:-1 15:-1 16:-1 17:-1 18:-1 19:-1 20:-1 21:-1 
2 1:-1 2:-1 3:-1 4:-1 5:-1 6:-1 7:-1 8:-1 9:-1 10:-1 11:-1 12:-1 13:-1 14:-1 15:-1 16:-1 17:-1 18:-1 19:-1 20:-1 21:-1 
2 1:-0.5 2:-1 3:-1 4:-1 5:-1 6:-1 7:-1 8:-1 9:-1 10:-1 11:-1 12:-1 13:-1 14:-1 15:-1 16:-1 17:-1 18:-1 19:-1 20:-1 21:-1 
0.35882736460563047 1:-0.5 2:-0.79661 3:-0.757576 4:-1 5:-0.676768 6:-1 7:-0.75 8:-0.779006 9:-0.75 10:-1 11:-1 12:-1 13:-1 14:-1 15:-1 16:-1 17:-1 18:-1 19:-1 20:-1 21:-1 
0.68804507289861505 1:-0.5 2:-0.59322 3:-0.579798 4:-0.526627 5:-1 6:-0.0508475 7:-0.75 8:-0.926335 9:-0.916667 10:-0.836735 11:-1 12:-1 13:-1 14:-1 15:-1 16:-1 17:-1 18:-1 19:-1 20:-1 21:-1 
2 1:-1 2:-0.864407 3:-0.644444 4:-1 5:-0.515152 6:-0.267797 7:-0.75 8:-1 9:-1 10:-1 11:-1 12:-1 13:-1 14:-1 15:-1 16:-1 17:-1 18:-1 19:-1 20:-1 21:-1 
2 1:-1 2:-1 3:-1 4:-1 5:-1 6:-1 7:-1 8:-1 9:-1 10:-1 11:-1 12:-1 13:-1 14:-1 15:-1 16:-1 17:-1 18:-1 19:-1 20:-1 21:-1 
2 1:-0.5 2:-1 3:-1 4:-1 5:-0.353535 6:-0.59322 7:-0.5 8:-1 9:-0.4 10:-1 11:-1 12:-1 13:-1 14:-1 15:-1 16:-1 17:-1 18:-1 19:-1 20:-1 21:-1 
2 1:-1 2:-1 3:-0.757576 4:-0.64497 5:-1 6:-1 7:-1 8:-1 9:-1 10:-1 11:-1 12:-1 13:-1 14:-1 15:-1 16:-1 17:-1 18:-1 19:-1 20:-1 21:-1 
2 1:-1 2:-1 3:-1 4:-1 5:-1 6:-1 7:-1 8:-1 9:-1 10:-1 11:-1 12:-1 13:-1 14:-1 15:-1 16:-1 17:-1 18:-1 19:-1 20:-1 21:-1 
0.66247890412725785 1:-0.5 2:-0.59322 3:-1 4:-0.64497 5:-0.676768 6:-1 7:-1 8:-1 9:-1 10:-1 11:-1 12:-1 13:-1 14:-1 15:-1 16:-1 17:-1 18:-1 19:-1 20:-1 21:-1 
2 1:-1 2:-1 3:-0.979798 4:-1 5:-1 6:-1 7:-1 8:-1 9:-1 10:-1 11:-0.908046 12:-1 13:-0.868421 14:-1 15:-0.885057 16:-0.894737 17:-1 18:-1 19:-1 20:-1 21:-1 
1.4889685153728989 1:-0.5 2:-0.59322 3:-0.757576 4:-1 5:-0.434343 6:-1 7:-1 8:-1 9:-0.916667 10:-0.918367 11:-0.222989 12:-0.755102 13:-1 14:-0.439252 15:-1 16:-0.684211 17:-0.689119 18:-1 19:-1 20:-1 21:-1 
2 1:-0.75 2:-1 3:-1 4:-0.64497 5:-0.676768 6:-0.59322 7:-1 8:-1 9:-1 10:-1 11:-1 12:-1 13:-1 14:-1 15:-1 16:-1 17:-1 18:-1 19:-1 20:-1 21:-1 
2 1:-1 2:-0.864407 3:-1 4:-0.881657 5:-1 6:-0.864407 7:-1 8:-1 9:-1 10:-1 11:-1 12:-1 13:-1 14:-1 15:-1 16:-1 17:-1 18:-1 19:-1 20:-1 21:-1 
1.054363484076795 1:-0.25 2:-1 3:-0.757576 4:-0.467456 5:-1 6:-0.59322 7:-1 8:-1 9:-1 10:-1 11:-1 12:-1 13:-1 14:-1 15:-1 16:-1 17:-1 18:-1 19:-1 20:-1 21:-1 
2 1:-1 2:-1 3:-1 4:-1 5:-1 6:-1 7:-1 8:-1 9:-1 10:-1 11:-1 12:-1 13:-1 14:-1 15:-1 16:-1 17:-1 18:-1 19:-1 20:-1 21:-1 
2 1:-1 2:-1 3:-0.757576 4:-0.64497 5:-1 6:-1 7:-1 8:-1 9:-1 10:-1 11:-1 12:-1 13:-1 14:-1 15:-1 16:-1 17:-1 18:-1 19:-1 20:-1 21:-1 
0.18856811316036612 1:-0.6 2:0.0169492 3:-0.393939 4:-0.64497 5:-0.191919 6:-1 7:-1 8:-1 9:-1 10:-1 11:-1 12:-1 13:-1 14:-1 15:-1 16:-1 17:-1 18:-1 19:-1 20:-1 21:-1 
2 1:-1 2:-1 3:-1 4:-1 5:-1 6:-1 7:-1 8:-1 9:-1 10:-1 11:-1 12:-1 13:-1 14:-1 15:-1 16:-1 17:-1 18:-1 19:-1 20:-1 21:-1 
2 1:-1 2:-1 3:-1 4:-1 5:-1 6:-1 7:-1 8:-1 9:-1 10:-1 11:-1 12:-1 13:-1 14:-1 15:-1 16:-1 17:-1 18:-1 19:-1 20:-1 21:-1 
1.5643926966774233 1:-0.5 2:0.627119 3:-0.757576 4:0.420118 5:-0.676768 6:-0.59322 7:-0.75 8:-0.779006 9:-0.75 10:-0.755102 11:0.37931 12:-1 13:-1 14:-1 15:-1 16:-1 17:-1 18:-1 19:-1 20:-1 21:-1 
1.8608517842970229 1:0.1 2:-0.389831 3:-1 4:-1 5:-0.676768 6:-0.59322 7:-1 8:-1 9:-1 10:-1 11:-1 12:-1 13:-1 14:-1 15:-1 16:-1 17:-1 18:-1 19:-1 20:-1 21:-1 
2 1:-1 2:-0.674576 3:-1 4:-0.64497 5:-1 6:-1 7:-1 8:-1 9:-1 10:-1 11:-1 12:-1 13:-1 14:-1 15:-1 16:-1 17:-1 18:-1 19:-1 20:-1 21:-1 
2 1:-1 2:-1 3:-1 4:-1 5:-1 6:-1 7:-1 8:-1 9:-1 10:-1 11:-1 12:-1 13:-1 14:-1 15:-1 16:-1 17:-1 18:-1 19:-1 20:-1 21:-1 
2 1:-1 2:-1 3:-0.919192 4:-0.881657 5:-0.913805 6:-0.864407 7:-0.916667 8:-1 9:-1 10:-1 11:-1 12:-1 13:-1 14:-1 15:-1 16:-1 17:-1 18:-1 19:-1 20:-1 21:-1 
2 1:-0.833333 2:-1 3:-0.919192 4:-1 5:-1 6:-1 7:-1 8:-1 9:-1 10:-1 11:-1 12:-1 13:-1 14:-1 15:-1 16:-1 17:-1 18:-1 19:-1 20:-1 21:-1 
0.33408895116882592 1:-0.5 2:-1 3:-1 4:-0.360947 5:-1 6:-0.59322 7:-1 8:-1 9:-1 10:-1 11:-1 12:-1 13:-1 14:-1 15:-1 16:-1 17:-1 18:-1 19:-1 20:-1 21:-1 
2 1:-1 2:-1 3:-0.636364 4:-0.64497 5:-0.515152 6:-1 7:-1 8:-1 9:-1 10:-1 11:-1 12:-1 13:-1 14:-1 15:-1 16:-1 17:-1 18:-1 19:-1 20:-1 21:-1 
2 1:-0.5 2:-1 3:-1 4:-1 5:-1 6:-1 7:-1 8:-1 9:-1 10:-1 11:-1 12:-1 13:-1 14:-1 15:-1 16:-1 17:-1 18:-1 19:-1 20:-1 21:-1 
2 1:-1 2:-1 3:-1 4:-1 5:-1 6:-1 7:-1 8:-1 9:-1 10:-1 11:-1 12:-1 13:-1 14:-1 15:-1 16:-1 17:-1 18:-1 19:-1 20:-1 21:-1 
2 1:-0.833333 2:-0.267797 3:-0.757576 4:-0.64497 5:-1 6:-1 7:-1 8:-1 9:-1 10:-1 11:-1 12:-1 13:-1 14:-1 15:-1 16:-1 17:-1 18:-1 19:-1 20:-1 21:-1 
2 1:-1 2:-1 3:-1 4:-0.349112 5:-0.676768 6:-0.254237 7:-1 8:-1 9:-1 10:-1 11:-1 12:-1 13:-1 14:-1 15:-1 16:-1 17:-1 18:-1 19:-1 20:-1 21:-1 
2 1:-1 2:-1 3:-1 4:-1 5:-1 6:-1 7:-1 8:-1 9:-1 10:-1 11:-1 12:-1 13:-1 14:-1 15:-1 16:-1 17:-1 18:-1 19:-1 20:-1 21:-1 
1.5642761473285824 1:-0.216667 2:-1 3:-1 4:0.281065 5:0.0774411 6:-1 7:-1 8:-1 9:-0.166667 10:-1 11:-1 12:-0.265306 13:-1 14:-0.719626 15:-0.655172 16:-1 17:-1 18:-1 19:-1 20:-1 21:-1 
2 1:-0.833333 2:-0.59322 3:-0.757576 4:-1 5:-0.676768 6:-1 7:-1 8:-1 9:-1 10:-1 11:-1 12:-1 13:-1 14:-1 15:-1 16:-1 17:-1 18:-1 19:-1 20:-1 21:-1 
2 1:-1 2:-1 3:-1 4:-1 5:-1 6:-1 7:-1 8:-1 9:-1 10:-1 11:-1 12:-1 13:-1 14:-1 15:-1 16:-1 17:-1 18:-1 19:-1 20:-1 21:-1 
2 1:-0.5 2:-0.59322 3:-0.757576 4:-1 5:-1 6:-0.864407 7:-1 8:-0.926335 9:-1 10:-0.918367 11:-1 12:-1 13:-1 14:-1 15:-1 16:-1 17:-1 18:-1 19:-1 20:-1 21:-1 
2 1:-1 2:-0.79661 3:-1 4:-0.64497 5:-1 6:-1 7:-1 8:-1 9:-0.75 10:-1 11:-1 12:-1 13:-1 14:-1 15:-1 16:-1 17:-1 18:-1 19:-1 20:-1 21:-1 
2 2:-0.59322 3:-0.515152 4:-0.289941 5:-1 6:-1 7:-1 8:-1 9:-1 10:-1 11:-1 12:-1 13:-1 14:-1 15:-1 16:-1 17:-1 18:-1 19:-1 20:-1 21:-1 
2 1:-1 2:-0.186441 3:-0.757576 4:-0.360947 5:-0.676768 6:-1 7:-1 8:-1 9:-1 10:-1 11:-1 12:-1 13:-1 14:-1 15:-1 16:-1 17:-1 18:-1 19:-1 20:-1 21:-1 
2 1:-0.5 2:-0.59322 3:-1 4:-0.715976 5:-1 6:-1 7:-1 8:-1 9:-1 10:-1 11:-1 12:-1 13:-1 14:-1 15:-1 16:-1 17:-1 18:-1 19:-1 20:-1 21:-1 
2 1:-0.5 2:-1 3:-1 4:-1 5:-0.676768 6:-0.59322 7:-1 8:-1 9:-1 10:-1 11:-1 12:-1 13:-1 14:-1 15:-1 16:-1 17:-1 18:-1 19:-1 20:-1 21:-1 
2 1:-1 2:-1 3:-0.919192 4:-1 5:-1 6:-1 7:-1 8:-1 9:-0.75 10:-1 11:-1 12:-1 13:-1 14:-1 15:-1 16:-1 17:-1 18:-1 19:-1 20:-1 21:-1 
2 1:-1 2:-1 3:-1 4:-1 5:-1 6:-1 7:-1 8:-1 9:-1 10:-1 11:-1 12:-1 13:-1 14:-1 15:-1 16:-1 17:-1 18:-1 19:-1 20:-1 21:-1 
2 1:-0.5 2:-1 3:-0.515152 4:-1 5:-0.245791 6:-0.59322 7:-0.5 8:-1 9:-1 10:-1 11:-1 12:-1 13:-1 14:-1 15:-1 16:-1 17:-1 18:-1 19:-1 20:-1 21:-1 
2 1:-1 2:-1 3:-1 4:-1 5:-1 6:-1 7:-1 8:-1 9:-1 10:-1 11:-1 12:-1 13:-1 14:-1 15:-1 16:-1 17:-1 18:-1 19:-1 20:-1 21:-1 
0.46981569090540054 1:-0.5 2:-0.349153 3:-1 4:-1 5:-1 6:-0.59322 7:-1 8:-1 9:-1 10:-1 11:-1 12:-1 13:-1 14:-1 15:-1 16:-1 17:-1 18:-1 19:-1 20:-1 21:-1 
2 1:-1 2:-1 3:-0.919192 4:-0.881657 5:-0.806061 6:-1 7:-1 8:-1 9:-1 10:-1 11:-1 12:-1 13:-1 14:-1 15:-1 16:-1 17:-1 18:-1 19:-1 20:-1 21:-1 
2 1:-1 2:-1 3:-1 4:-1 5:-1 6:-1 7:-1 8:-1 9:-1 10:-1 11:-1 12:-1 13:-1 14:-1 15:-1 16:-1 17:-1 18:-1 19:-1 20:-1 21:-1 
2 1:-0.5 2:-0.674576 3:-1 4:-1 5:-1 6:-1 7:-1 8:-1 9:-1 10:-1 11:-1 12:-1 13:-1 14:-1 15:-1 16:-1 17:-1 18:-1 19:-1 20:-1 21:-1 
2 1:-1 2:-0.864407 3:-0.919192 4:-0.64497 5:-1 6:-1 7:-1 8:-1 9:-1 10:-1 11:-1 12:-1 13:-1 14:-1 15:-1 16:-1 17:-1 18:-1 19:-1 20:-1 21:-1 
2 1:-0.833333 2:-0.59322 3:-0.959596 4:-0.881657 5:-0.892256 6:-1 7:-1 8:-1 9:-1 10:-1 11:-1 12:-1 13:-1 14:-1 15:-1 16:-1 17:-1 18:-1 19:-1 20:-1 21:-1 
1.1437802478549104 1:-0.5 2:-0.864407 3:-0.919192 4:-0.881657 5:-0.892256 6:-0.484746 7:-1 8:-0.779006 9:-0.6875 10:-1 11:-0.908046 12:-0.771429 13:-1 14:-1 15:-1 16:-1 17:-1 18:-1 19:-1 20:-1 21:-1 
2 1:-0.6 2:-1 3:-1 4:-0.289941 5:-0.676768 6:-0.186441 7:-1 8:-1 9:-1 10:-1 11:-1 12:-1 13:-1 14:-1 15:-1 16:-1 17:-1 18:-1 19:-1 20:-1 21:-1 
2 1:-1 2:-1 3:-1 4:-1 5:-1 6:-1 7:-1 8:-1 9:-1 10:-1 11:-1 12:-1 13:-1 14:-1 15:-1 16:-1 17:-1 18:-1 19:-1 20:-1 21:-1 
2 1:-0.5 2:-1 3:-1 4:-1 5:-1 6:-1 7:-1 8:-1 9:-1 10:-1 11:-1 12:-1 13:-1 14:-1 15:-1 16:-1 17:-1 18:-1 19:-1 20:-1 21:-1 
2 1:-1 2:-1 3:-0.919192 4:-0.881657 5:-0.806061 6:-1 7:-1 8:-1 9:-1 10:-1 11:-1 12:-1 13:-1 14:-1 15:-1 16:-1 17:-1 18:-1 19:-1 20:-1 21:-1 
1.5635023084171564 1:-0.833333 2:0.0576271 3:-0.757576 4:-0.64497 5:0.131313 6:-0.59322 7:-0.125 8:-0.226519 9:-0.125 10:-1 11:-1 12:-1 13:-1 14:-1 15:-1 16:-1 17:-1 18:-1 19:-1 20:-1 21:-1 
2 1:-1 2:-1 3:-0.919192 4:-0.881657 5:-0.806061 6:-1 7:-1 8:-1 9:-1 10:-1 11:-1 12:-1 13:-1 14:-1 15:-1 16:-1 17:-1 18:-1 19:-1 20:-1 21:-1 
1.5643506976962787 1:-1 2:-0.59322 3:-0.919192 4:-1 5:-0.676768 6:-0.349153 7:-1 8:-0.558011 9:-1 10:-0.755102 11:-1 12:-1 13:-0.210526 14:-1 15:-1 16:-1 17:-1 18:-1 19:-1 20:1 21:-1 
2 1:-1 2:-1 3:-0.919192 4:-0.881657 5:-0.806061 6:-1 7:-1 8:-1 9:-1 10:-1 11:-1 12:-1 13:-1 14:-1 15:-1 16:-1 17:-1 18:-1 19:-1 20:-1 21:-1 
2 1:-1 2:-0.864407 3:-0.919192 4:-1 5:-1 6:-1 7:-1 8:-1 9:-1 10:-1 11:-1 12:-1 13:-1 14:-1 15:-1 16:-1 17:-1 18:-1 19:-1 20:-1 21:-1 
2 1:-1 2:-1 3:-0.919192 4:-0.881657 5:-0.806061 6:-1 7:-1 8:-1 9:-1 10:-1 11:-1 12:-1 13:-1 14:-1 15:-1 16:-1 17:-1 18:-1 19:-1 20:-1 21:-1 
2 1:-1 2:-0.267797 3:-0.757576 4:-0.64497 5:-1 6:-1 7:-1 8:-1 9:-1 10:-1 11:-1 12:-1 13:-1 14:-1 15:-1 16:-1 17:-1 18:-1 19:-1 20:-1 21:-1 
2 1:-0.5 2:-1 3:-1 4:-0.881657 5:-0.676768 6:-0.267797 7:-0.75 8:-1 9:-1 10:-1 11:-1 12:-1 13:-1 14:-1 15:-1 16:-1 17:-1 18:-1 19:-1 20:-1 21:-1 
2 1:-1 2:-1 3:-0.757576 4:-1 5:-0.676768 6:-1 7:-1 8:-1 9:-1 10:-1 11:-1 12:-1 13:-1 14:-1 15:-1 16:-1 17:-1 18:-1 19:-1 20:-1 21:-1 
2 1:-0.5 2:-1 3:-1 4:-1 5:-1 6:-1 7:-1 8:-1 9:-1 10:-1 11:-1 12:-1 13:-1 14:-1 15:-1 16:-1 17:-1 18:-1 19:-1 20:-1 21:-1 
2 1:-1 2:-0.79661 3:-0.757576 4:-0.64497 5:-1 6:-1 7:-1 8:-1 9:-1 10:-1 11:-1 12:-1 13:-1 14:-1 15:-1 16:-1 17:-1 18:-1 19:-1 20:-1 21:-1 
2 1:-1 2:-1 3:-0.919192 4:-0.881657 5:-0.806061 6:-1 7:-1 8:-1 9:-1 10:-1 11:-1 12:-1 13:-1 14:-1 15:-1 16:-1 17:-1 18:-1 19:-1 20:-1 21:-1 
2 1:-1 2:-1 3:-1 4:-1 5:-1 6:-1 7:-1 8:-1 9:-1 10:-1 11:-1 12:-1 13:-1 14:-1 15:-1 16:-1 17:-1 18:-1 19:-1 20:-1 21:-1 
2 1:-1 2:-1 3:-1 4:-1 5:-1 6:-1 7:-1 8:-1 9:-1 10:-1 11:-1 12:-1 13:-1 14:-1 15:-1 16:-1 17:-1 18:-1 19:-1 20:-1 21:-1 
2 1:-1 2:-1 3:-0.757576 4:-0.64497 5:-1 6:-1 7:-1 8:-1 9:-1 10:-1 11:-1 12:-1 13:-1 14:-1 15:-1 16:-1 17:-1 18:-1 19:-1 20:-1 21:-1 
2 1:-1 2:-1 3:-0.919192 4:-0.881657 5:-0.806061 6:-1 7:-1 8:-1 9:-1 10:-1 11:-1 12:-1 13:-1 14:-1 15:-1 16:-1 17:-1 18:-1 19:-1 20:-1 21:-1 
0.7145351104722254 1:-0.5 2:-1 3:-0.757576 4:-1 5:-0.676768 6:-1 7:-0.916667 8:-0.779006 9:-1 10:-1 11:-1 12:-1 13:-1 14:-1 15:-1 16:-1 17:-1 18:-1 19:-1 20:-1 21:-1 
2 1:-1 2:-1 3:-0.919192 4:-0.881657 5:-0.806061 6:-1 7:-1 8:-1 9:-1 10:-1 11:-1 12:-1 13:-1 14:-1 15:-1 16:-1 17:-1 18:-1 19:-1 20:-1 21:-1 
2 1:-1 2:-1 3:-1 4:-1 5:-1 6:-1 7:-1 8:-1 9:-1 10:-1 11:-1 12:-1 13:-1 14:-1 15:-1 16:-1 17:-1 18:-1 19:-1 20:-1 21:-1 
2 1:-1 2:-1 3:-1 4:-1 5:-1 6:-1 7:-1 8:-1 9:-1 10:-1 11:-1 12:-1 13:-1 14:-1 15:-1 16:-1 17:-1 18:-1 19:-1 20:-1 21:-1 
2 1:-1 2:-1 3:-0.919192 4:-0.881657 5:-0.806061 6:-1 7:-1 8:-1 9:-1 10:-1 11:-1 12:-1 13:-1 14:-1 15:-1 16:-1 17:-1 18:-1 19:-1 20:-1 21:-1 
1.4829434921581572 1:-1 2:-0.59322 3:-0.919192 4:-1 5:-0.676768 6:-0.511864 7:-1 8:-0.558011 9:-1 10:-0.755102 11:-1 12:-1 13:-0.210526 14:-1 15:-1 16:-1 17:-1 18:-1 19:-1 20:-1 21:-1 
2 1:-1 2:-1 3:-1 4:-1 5:-1 6:-1 7:-1 8:-1 9:-1 10:-1 11:-1 12:-1 13:-1 14:-1 15:-1 16:-1 17:-1 18:-1 19:-1 20:-1 21:-1 
2 1:-0.833333 2:-0.864407 3:-1 4:-1 5:-1 6:-1 7:-1 8:-1 9:-1 10:-1 11:-1 12:-1 13:-1 14:-1 15:-1 16:-1 17:-1 18:-1 19:-1 20:-1 21:-1 
2 1:-0.0833333 2:-0.59322 3:-1 4:-0.349112 5:-1 6:-1 7:-1 8:-1 9:-1 10:-1 11:-1 12:-1 13:-1 14:-1 15:-1 16:-1 17:-1 18:-1 19:-1 20:-1 21:-1 
2 1:-1 2:-0.59322 3:-0.757576 4:-1 5:-0.418182 6:-1 7:-1 8:-1 9:-1 10:-1 11:-1 12:-1 13:-1 14:-1 15:-1 16:-1 17:-1 18:-1 19:-1 20:-1 21:-1 
2 1:-0.25 2:-1 3:-0.757576 4:-0.467456 5:-1 6:-0.59322 7:-1 8:-1 9:-1 10:-1 11:-1 12:-1 13:-1 14:-1 15:-1 16:-1 17:-1 18:-1 19:-1 20:-1 21:-1 
