svm_type c_svc
kernel_type rbf
gamma 8
nr_class 2
total_sv 5353
rho 0.56777999902517773
label 1 0
nr_sv 2121 3232
SV
2 1:-1 2:-1 3:-1 4:-1 5:-1 6:-1 7:-1 8:-1 9:-1 10:-1 11:-1 12:-1 13:-1 14:-1 15:-1 16:-1 17:-1 18:-1 19:-1 20:-1 21:-1 
2 1:-1 2:-1 3:-1 4:-1 5:-1 6:-1 7:-1 8:-1 9:-1 10:-1 11:-1 12:-1 13:-1 14:-1 15:-1 16:-1 17:-1 18:-1 19:-1 20:-1 21:-1 
2 1:-0.5 2:-0.59322 3:-1 4:-0.881657 5:-1 6:-1 7:-1 8:-1 9:-1 10:-1 11:-1 12:-1 13:-1 14:-1 15:-1 16:-1 17:-1 18:-1 19:-1 20:-1 21:-1 
2 1:-1 2:-1 3:-0.939394 4:-1 5:-1 6:-1 7:-1 8:-1 9:-1 10:-0.836735 11:-1 12:-0.918367 13:-0.736842 14:-1 15:-1 16:-1 17:-1 18:-1 19:-1 20:-1 21:-1 
2 1:-1 2:-0.932203 3:-1 4:-0.881657 5:-1 6:-1 7:-1 8:-1 9:-1 10:-0.918367 11:-1 12:-1 13:-1 14:-1 15:-1 16:-1 17:-1 18:-1 19:-1 20:-1 21:-1 
2 1:-1 2:-0.864407 3:-1 4:-1 5:-1 6:-1 7:-1 8:-1 9:-1 10:-1 11:-1 12:-1 13:-1 14:-1 15:-1 16:-1 17:-1 18:-1 19:-1 20:-1 21:-1 
2 1:-0.822917 2:-1 3:-0.914141 4:-1 5:-1 6:-1 7:-1 8:-1 9:-1 10:-0.877551 11:-1 12:-1 13:-0.736842 14:-1 15:-0.885057 16:-0.789474 17:-1 18:-1 19:-1 20:-1 21:-1 
2 1:-1 2:-1 3:-1 4:-1 5:-1 6:-1 7:-1 8:-1 9:-1 10:-1 11:-1 12:-1 13:-1 14:-1 15:-1 16:-1 17:-1 18:-1 19:-1 20:-1 21:-1 
2 1:-1 2:-1 3:-1 4:-1 5:-1 6:-1 7:-1 8:-1 9:-1 10:-1 11:-1 12:-1 13:-1 14:-1 15:-1 16:-1 17:-1 18:-1 19:-1 20:-1 21:-1 
2 1:-1 2:-0.288136 3:-1 4:0.0650888 5:-0.676768 6:0.220339 7:-1 8:-0.779006 9:-0.75 10:-1 11:-1 12:-1 13:-1 14:-1 15:-1 16:-1 17:-1 18:-1 19:-1 20:-1 21:-1 
2 1:-0.833333 2:-0.59322 3:-0.741414 4:-0.881657 5:-1 6:-1 7:-1 8:-1 9:-1 10:-1 11:-1 12:-1 13:-1 14:-1 15:-1 16:-1 17:-1 18:-1 19:-1 20:-1 21:-1 
1.1684750404573854 1:-0.5 2:-0.674576 3:-0.878788 4:0.0650888 5:-0.676768 6:0.220339 7:-0.25 8:-1 9:-1 10:-1 11:-1 12:-1 13:-1 14:-1 15:-1 16:-1 17:-1 18:-1 19:-1 20:-1 21:-1 
2 1:-1 2:-1 3:-1 4:-1 5:-1 6:-1 7:-1 8:-1 9:-1 10:-1 11:-1 12:-1 13:-1 14:-1 15:-1 16:-1 17:-1 18:-1 19:-1 20:-1 21:-1 
2 1:-1 2:-0.864407 3:-1 4:-1 5:-1 6:-0.59322 7:-1 8:-1 9:-1 10:-1 11:-1 12:-1 13:-1 14:-1 15:-1 16:-1 17:-1 18:-1 19:-1 20:-1 21:-1 
2 1:-1 2:-1 3:-1 4:-1 5:-1 6:-1 7:-1 8:-1 9:-1 10:-1 11:-1 12:-1 13:-1 14:-1 15:-1 16:-1 17:-1 18:-1 19:-1 20:-1 21:-1 
1.6787540898707403 1:-1 2:-0.674576 3:-1 4:-0.64497 5:-1 6:-1 7:-1 8:-1 9:-1 10:-1 11:-1 12:-1 13:-1 14:-1 15:-1 16:-1 17:-1 18:-1 19:-1 20:-1 21:-1 
2 1:-1 2:-1 3:-1 4:-1 5:-1 6:-1 7:-1 8:-1 9:-1 10:-1 11:-1 12:-1 13:-1 14:-1 15:-1 16:-1 17:-1 18:-1 19:-1 20:-1 21:-1 
2 1:-1 2:-0.830508 3:-0.89899 4:-0.289941 5:-0.676768 6:-0.864407 7:-1 8:-1 9:-1 10:-1 11:-1 12:-1 13:-1 14:-1 15:-1 16:-1 17:-1 18:-1 19:-1 20:-1 21:-1 
1.3580095143259248 1:-0.291667 2:-0.864407 3:-0.757576 4:-0.497041 5:-1 6:-0.59322 7:-1 8:-0.779006 9:-1 10:-0.918367 11:-1 12:-1 13:-1 14:-1 15:-1 16:-1 17:-1 18:-1 19:-1 20:-1 21:-1 
2 1:-1 2:-1 3:-1 4:-1 5:-1 6:-1 7:-1 8:-1 9:-1 10:-1 11:-1 12:-1 13:-1 14:-1 15:-1 16:-1 17:-1 18:-1 19:-1 20:-1 21:-1 
2 1:-1 2:-1 3:-1 4:-1 5:-1 6:-1 7:-1 8:-1 9:-1 10:-1 11:-1 12:-1 13:-1 14:-1 15:-1 16:-1 17:-1 18:-1 19:-1 20:-1 21:-1 
0.51914376542712781 1:-0.833333 2:-0.59322 3:-1 4:-0.881657 5:-0.676768 6:-1 7:-1 8:-1 9:-1 10:-1 11:-1 12:-1 13:-1 14:-1 15:-1 16:-1 17:-1 18:-1 19:-1 20:-1 21:-1 
2 1:-1 2:-0.79661 3:-1 4:-0.112426 5:-0.676768 6:-1 7:-0.75 8:-0.447514 9:-1 10:-0.387755 11:-1 12:-1 13:-1 14:-1 15:-1 16:-1 17:-1 18:-1 19:-1 20:-1 21:-1 
2 1:-1 2:-0.864407 3:-0.757576 4:-0.64497 5:-1 6:-1 7:-1 8:-1 9:-1 10:-1 11:-1 12:-1 13:-1 14:-1 15:-1 16:-1 17:-1 18:-1 19:-1 20:-1 21:-1 
2 1:-1 2:-1 3:-1 4:-1 5:-0.63367 6:-1 7:-0.75 8:-0.779006 9:-1 10:-1 11:-1 12:-1 13:-1 14:-1 15:-1 16:-1 17:-1 18:-1 19:-1 20:-1 21:-1 
2 1:-1 2:-1 3:-1 4:-1 5:-1 6:-1 7:-1 8:-1 9:-1 10:-1 11:-1 12:-1 13:-1 14:-1 15:-1 16:-1 17:-1 18:-1 19:-1 20:-1 21:-1 
2 1:-0.833333 2:-1 3:-0.858586 4:-1 5:-0.811448 6:-1 7:-0.875 8:-1 9:-0.916667 10:-1 11:-1 12:-1 13:-1 14:-1 15:-1 16:-1 17:-1 18:-1 19:-1 20:-1 21:-1 
2 1:-1 2:-1 3:-1 4:-1 5:-1 6:-1 7:-1 8:-1 9:-1 10:-1 11:-1 12:-1 13:-1 14:-1 15:-1 16:-1 17:-1 18:-1 19:-1 20:-1 21:-1 
1.4707681903770711 1:0.25 2:-0.59322 3:-0.757576 4:-0.64497 5:-1 6:-0.59322 7:-0.375 8:-1 9:-1 10:-1 11:-1 12:-1 13:-1 14:-1 15:-1 16:-1 17:-1 18:-1 19:-1 20:-1 21:-1 
2 1:-1 2:-1 3:-1 4:-1 5:-1 6:-1 7:-1 8:-1 9:-1 10:-1 11:-1 12:-1 13:-1 14:-1 15:-1 16:-1 17:-1 18:-1 19:-1 20:-1 21:-1 
1.5727458008461923 1:-0.677083 2:-1 3:-0.717172 4:-1 5:-1 6:-1 7:-1 8:-1 9:-1 10:-1 11:-0.494253 12:-1 13:-0.210526 14:-1 15:-1 16:-1 17:-0.689119 18:-0.310345 19:-1 20:-1 21:-1 
1.1591771443478704 1:0.5 2:-0.59322 3:-0.272727 4:-1 5:-0.224242 6:-1 7:-1 8:-1 9:-1 10:-1 11:-1 12:-1 13:-1 14:-1 15:-1 16:-1 17:-1 18:-1 19:-1 20:-1 21:-1 
2 1:-1 2:-1 3:-1 4:-1 5:-1 6:-1 7:-1 8:-1 9:-1 10:-1 11:-1 12:-1 13:-1 14:-1 15:-1 16:-1 17:-1 18:-1 19:-1 20:-1 21:-1 
2 1:-1 2:-1 3:-1 4:-0.64497 5:-1 6:-1 7:-1 8:-1 9:-1 10:-1 11:-1 12:-1 13:-1 14:-1 15:-1 16:-1 17:-1 18:-1 19:-1 20:-1 21:-1 
2 1:-1 2:-1 3:-1 4:-1 5:-1 6:-1 7:-1 8:-1 9:-1 10:-1 11:-1 12:-1 13:-1 14:-1 15:-1 16:-1 17:-1 18:-1 19:-1 20:-1 21:-1 
2 1:-1 2:-1 3:-1 4:-1 5:-1 6:-1 7:-1 8:-1 9:-1 10:-1 11:-1 12:-1 13:-1 14:-1 15:-1 16:-1 17:-1 18:-1 19:-1 20:-1 21:-1 
2 1:-1 2:-0.674576 3:-1 4:-0.64497 5:-1 6:-1 7:-1 8:-1 9:-1 10:-1 11:-1 12:-1 13:-1 14:-1 15:-1 16:-1 17:-1 18:-1 19:-1 20:-1 21:-1 
2 1:-1 2:-1 3:-0.838384 4:-1 5:-1 6:-1 7:-1 8:-1 9:-1 10:-1 11:-1 12:-1 13:-1 14:-1 15:-1 16:-1 17:-1 18:-1 19:-1 20:-1 21:-1 
2 1:-1 2:-1 3:-0.878788 4:-0.64497 5:-0.892256 6:-0.79661 7:-1 8:-1 9:-1 10:-1 11:-1 12:-1 13:-1 14:-1 15:-1 16:-1 17:-1 18:-1 19:-1 20:-1 21:-1 
2 1:-0.833333 2:-1 3:-0.757576 4:-1 5:-1 6:-0.59322 7:-1 8:-0.779006 9:-1 10:-1 11:-1 12:-1 13:-1 14:-1 15:-1 16:-1 17:-1 18:-1 19:-1 20:-1 21:-1 
1.8277404016291758 1:-1 2:-1 3:-0.636364 4:0.0650888 5:-0.676768 6:0.220339 7:-0.25 8:-0.668508 9:-1 10:-1 11:-1 12:-1 13:-1 14:-1 15:-1 16:-1 17:-1 18:-1 19:-1 20:-1 21:-1 
2 1:-0.5 2:-1 3:-0.69697 4:-1 5:-0.59596 6:-1 7:-0.75 8:-1 9:-0.75 10:-1 11:-1 12:-1 13:-1 14:-1 15:-1 16:-1 17:-1 18:-1 19:-1 20:-1 21:-1 
2 1:-1 2:-1 3:-0.725253 4:-0.64497 5:-1 6:-1 7:-1 8:-1 9:-1 10:-1 11:-1 12:-1 13:-1 14:-1 15:-1 16:-1 17:-1 18:-1 19:-1 20:-1 21:-1 
1.7029024081058384 1:-1 2:-1 3:-0.757576 4:-1 5:-0.676768 6:-1 7:-1 8:-1 9:-1 10:-1 11:-1 12:-1 13:-1 14:-1 15:-1 16:-1 17:-1 18:-1 19:-1 20:-1 21:-1 
2 1:-1 2:-1 3:-1 4:-1 5:-1 6:-1 7:-1 8:-1 9:-1 10:-1 11:-1 12:-1 13:-1 14:-1 15:-1 16:-1 17:-1 18:-1 19:-1 20:-1 21:-1 
2 1:-1 2:0.0169492 3:-0.757576 4:-1 5:-0.191919 6:-1 7:-1 8:-1 9:-1 10:-1 11:-1 12:-1 13:-1 14:-1 15:-1 16:-1 17:-1 18:-1 19:-1 20:-1 21:-1 
2 1:-1 2:-0.864407 3:-1 4:-0.64497 5:-1 6:-1 7:-1 8:-1 9:-1 10:-1 11:-1 12:-1 13:-1 14:-1 15:-1 16:-1 17:-1 18:-1 19:-1 20:-1 21:-1 
0.96977608445454366 1:-0.5 2:-0.864407 3:-0.628283 4:-0.289941 5:-0.676768 6:-0.186441 7:-1 8:-1 9:-1 10:-1 11:-1 12:-1 13:-1 14:-1 15:-1 16:-1 17:-1 18:-1 19:-1 20:-1 21:-1 
1.6444342346534073 1:-1 2:-0.59322 3:-0.757576 4:-0.881657 5:-0.741414 6:-1 7:-1 8:-1 9:-1 10:-1 11:-1 12:-1 13:-1 14:-1 15:-1 16:-1 17:-1 18:-1 19:-1 20:-1 21:-1 
2 1:-1 2:-1 3:-1 4:-1 5:-1 6:-1 7:-1 8:-1 9:-1 10:-1 11:-1 12:-1 13:-1 14:-1 15:-1 16:-1 17:-1 18:-1 19:-1 20:-1 21:-1 
2 1:-1 2:-1 3:-1 4:-1 5:-0.676768 6:-1 7:-1 8:-1 9:-1 10:-1 11:-1 12:-1 13:-1 14:-1 15:-1 16:-1 17:-1 18:-1 19:-1 20:-1 21:-1 
2 1:-1 2:-1 3:-1 4:-1 5:-1 6:-1 7:-1 8:-1 9:-1 10:-1 11:-1 12:-1 13:-1 14:-1 15:-1 16:-1 17:-1 18:-1 19:-1 20:-1 21:-1 
2 1:-0.833333 2:-0.864407 3:-1 4:-0.64497 5:-0.676768 6:-1 7:-1 8:-1 9:-1 10:-1 11:-1 12:-1 13:-1 14:-1 15:-1 16:-1 17:-1 18:-1 19:-1 20:-1 21:-1 
2 1:-1 2:-1 3:-0.757576 4:-1 5:-1 6:-1 7:-1 8:-1 9:-0.75 10:-1 11:-1 12:-1 13:-1 14:-1 15:-1 16:-1 17:-1 18:-1 19:-1 20:-1 21:-1 
2 1:-1 2:-1 3:-1 4:-1 5:-1 6:-1 7:-1 8:-1 9:-1 10:-1 11:-1 12:-1 13:-1 14:-1 15:-1 16:-1 17:-1 18:-1 19:-1 20:-1 21:-1 
1.5196764453216631 1:-0.5625 2:0.186441 3:-1 4:-1 5:-0.892256 6:0.620339 7:-0.75 8:-1 9:-0.375 10:-1 11:-0.724138 12:-0.755102 13:-1 14:-1 15:-1 16:-1 17:-1 18:-1 19:-1 20:-1 21:-1 
0.57402960723692931 1:-0.5 2:-0.59322 3:-0.563636 4:-1 5:-1 6:-1 7:-1 8:-1 9:-1 10:-1 11:-1 12:-1 13:-1 14:-1 15:-1 16:-1 17:-1 18:-1 19:-1 20:-1 21:-1 
2 1:-1 2:-0.59322 3:-1 4:-1 5:-0.676768 6:-1 7:-0.75 8:-1 9:-1 10:-1 11:-1 12:-1 13:-1 14:-1 15:-1 16:-1 17:-1 18:-1 19:-1 20:-1 21:-1 
2 1:-1 2:-0.389831 3:-0.919192 4:-0.467456 5:-1 6:-1 7:-0.75 8:-0.779006 9:-1 10:-1 11:-1 12:-1 13:-1 14:-1 15:-1 16:-1 17:-1 18:-1 19:-1 20:-1 21:-1 
2 1:-0.666667 2:-0.864407 3:-0.838384 4:-1 5:-1 6:-1 7:-0.866667 8:-1 9:-1 10:-1 11:-1 12:-1 13:-1 14:-1 15:-1 16:-1 17:-1 18:-1 19:-1 20:-1 21:-1 
2 1:-1 2:-1 3:-1 4:-1 5:-1 6:-1 7:-1 8:-1 9:-1 10:-1 11:-1 12:-1 13:-1 14:-1 15:-1 16:-1 17:-1 18:-1 19:-1 20:-1 21:-1 
2 1:-0.833333 2:-1 3:-0.919192 4:-1 5:-1 6:-1 7:-1 8:-1 9:-0.916667 10:-1 11:-0.908046 12:-0.918367 13:-1 14:-1 15:-1 16:-1 17:-1 18:-1 19:-1 20:-1 21:-1 
0.32321912918545503 1:-0.833333 2:-0.59322 3:-0.757576 4:-1 5:-1 6:-1 7:-1 8:-1 9:-1 10:-1 11:-1 12:-1 13:-1 14:-1 15:-1 16:-1 17:-1 18:-1 19:-1 20:-1 21:-1 
2 1:-0.833333 2:-1 3:-1 4:-1 5:-1 6:-1 7:-1 8:-1 9:-1 10:-1 11:-1 12:-1 13:-1 14:-1 15:-1 16:-1 17:-1 18:-1 19:-1 20:-1 21:-1 
2 1:-1 2:-1 3:-1 4:-1 5:-1 6:-1 7:-1 8:-1 9:-1 10:-1 11:-1 12:-1 13:-1 14:-1 15:-1 16:-1 17:-1 18:-1 19:-1 20:-1 21:-1 
1.09033979537946 1:-0.5 2:-0.349153 3:-0.515152 4:-0.64497 5:-0.892256 6:-0.59322 7:-0.5 8:-1 9:-1 10:-1 11:-1 12:-1 13:-1 14:-1 15:-1 16:-1 17:-1 18:-1 19:-1 20:-1 21:-1 
1.672106761750803 1:0.25 2:-0.59322 3:-0.393939 4:-1 5:-0.030303 6:-0.59322 7:-0.25 8:-1 9:-1 10:-1 11:-1 12:-1 13:-1 14:-1 15:-1 16:-1 17:-1 18:-1 19:-1 20:-1 21:-1 
0.90555874650833335 1:-0.291667 2:0.152542 3:-0.757576 4:0.00591716 5:-0.283502 6:-1 7:-0.5 8:-0.779006 9:-0.5 10:-1 11:-1 12:-1 13:-1 14:-1 15:-1 16:-1 17:-1 18:-1 19:-1 20:-1 21:-1 
2 1:-0.5 2:-0.59322 3:-1 4:-1 5:-0.838384 6:-0.79661 7:-0.75 8:-1 9:-1 10:-1 11:-1 12:-1 13:-1 14:-1 15:-1 16:-1 17:-1 18:-1 19:-1 20:-1 21:-1 
2 1:-1 2:-1 3:-1 4:-1 5:-1 6:-1 7:-1 8:-1 9:-1 10:-1 11:-1 12:-1 13:-1 14:-1 15:-1 16:-1 17:-1 18:-1 19:-1 20:-1 21:-1 
2 1:-1 2:-1 3:-1 4:-1 5:-1 6:-1 7:-1 8:-1 9:-1 10:-1 11:-1 12:-1 13:-1 14:-1 15:-1 16:-1 17:-1 18:-1 19:-1 20:-1 21:-1 
2 1:-1 2:-1 3:-1 4:-1 5:-1 6:-1 7:-1 8:-1 9:-1 10:-1 11:-1 12:-1 13:-1 14:-1 15:-1 16:-1 17:-1 18:-1 19:-1 20:-1 21:-1 
2 1:-0.5 2:-1 3:-0.555556 4:-0.64497 5:-0.407407 6:-1 7:-1 8:-1 9:-1 10:-1 11:-1 12:-1 13:-1 14:-1 15:-1 16:-1 17:-1 18:-1 19:-1 20:-1 21:-1 
2 1:-0.833333 2:-0.538983 3:-0.515152 4:-0.64497 5:-0.353535 6:-1 7:-1 8:-1 9:-1 10:-1 11:-1 12:-1 13:-1 14:-1 15:-1 16:-1 17:-1 18:-1 19:-1 20:-1 21:-1 
2 1:-1 2:-1 3:-1 4:-1 5:-1 6:-1 7:-1 8:-1 9:-1 10:-1 11:-1 12:-1 13:-1 14:-1 15:-1 16:-1 17:-1 18:-1 19:-1 20:-1 21:-1 
0.49179690791091696 1:-1 2:-0.59322 3:-0.466667 4:-0.467456 5:-0.676768 6:-0.59322 7:-1 8:-1 9:-1 10:-1 11:-1 12:-1 13:-1 14:-1 15:-1 16:-1 17:-1 18:-1 19:-1 20:-1 21:-1 
1.7278658537768314 1:-0.833333 2:-0.59322 3:-0.757576 4:-1 5:-0.569024 6:-1 7:-0.416667 8:-0.779006 9:-0.75 10:-1 11:-1 12:-1 13:-1 14:-1 15:-1 16:-1 17:-1 18:-1 19:-1 20:-1 21:-1 
2 1:-1 2:-1 3:-1 4:-1 5:-1 6:-1 7:-1 8:-1 9:-1 10:-1 11:-1 12:-1 13:-1 14:-1 15:-1 16:-1 17:-1 18:-1 19:-1 20:-1 21:-1 
2 1:-0.5 2:-1 3:-1 4:-1 5:-0.741414 6:-1 7:-1 8:-1 9:-1 10:-1 11:-1 12:-1 13:-1 14:-1 15:-1 16:-1 17:-1 18:-1 19:-1 20:-1 21:-1 
2 1:-0.5 2:-0.59322 3:-1 4:-1 5:-0.676768 6:-1 7:-1 8:-0.779006 9:-1 10:-1 11:-1 12:-1 13:-1 14:-1 15:-1 16:-1 17:-1 18:-1 19:-1 20:-1 21:-1 
2 1:-1 2:-1 3:-1 4:-1 5:-1 6:-1 7:-1 8:-1 9:-1 10:-1 11:-1 12:-1 13:-1 14:-1 15:-1 16:-1 17:-1 18:-1 19:-1 20:-1 21:-1 
2 1:-1 2:-1 3:-1 4:-1 5:-1 6:-1 7:-1 8:-1 9:-1 10:-1 11:-1 12:-1 13:-1 14:-1 15:-1 16:-1 17:-1 18:-1 19:-1 20:-1 21:-1 
2 1:-0.416667 2:-1 3:-0.717172 4:-1 5:-0.806061 6:-0.864407 7:-1 8:-1 9:-1 10:-1 11:-1 12:-1 13:-1 14:-1 15:-1 16:-1 17:-1 18:-1 19:-1 20:-1 21:-1 
1.4233128572538694 1:-0.5 2:-0.59322 3:-1 4:-1 5:-1 6:-0.267797 7:-0.916667 8:-0.779006 9:-0.75 10:-1 11:-1 12:-1 13:-1 14:-1 15:-1 16:-1 17:-1 18:-1 19:-1 20:-1 21:-1 
0.54966162339616109 1:-0.833333 2:-1 3:-1 4:-1 5:-0.676768 6:-0.59322 7:-1 8:-0.572744 9:-1 10:-0.755102 11:-0.724138 12:-1 13:-1 14:-1 15:-1 16:-1 17:-1 18:-1 19:-1 20:-1 21:-1 
2 1:-1 2:-0.891525 3:-1 4:-0.881657 5:-1 6:-1 7:-1 8:-1 9:-1 10:-1 11:-1 12:-1 13:-1 14:-1 15:-1 16:-1 17:-1 18:-1 19:-1 20:-1 21:-1 
2 1:-1 2:-1 3:-1 4:-1 5:-1 6:-1 7:-1 8:-1 9:-1 10:-1 11:-1 12:-1 13:-1 14:-1 15:-1 16:-1 17:-1 18:-1 19:-1 20:-1 21:-1 
2 1:-1 2:-1 3:-1 4:-1 5:-1 6:-1 7:-1 8:-1 9:-1 10:-1 11:-1 12:-1 13:-1 14:-1 15:-1 16:-1 17:-1 18:-1 19:-1 20:-1 21:-1 
2 1:-1 2:-1 3:-1 4:-1 5:-1 6:-1 7:-1 8:-1 9:-1 10:-1 11:-1 12:-1 13:-1 14:-1 15:-1 16:-1 17:-1 18:-1 19:-1 20:-1 21:-1 
2 1:-1 2:-1 3:-1 4:-1 5:-1 6:-1 7:-1 8:-1 9:-1 10:-1 11:-1 12:-1 13:-1 14:-1 15:-1 16:-1 17:-1 18:-1 19:-1 20:-1 21:-1 
2 1:-1 2:-1 3:-1 4:-1 5:-1 6:-1 7:-1 8:-1 9:-1 10:-1 11:-1 12:-1 13:-1 14:-1 15:-1 16:-1 17:-1 18:-1 19:-1 20:-1 21:-1 
1.5767347232864146 1:-0.25 2:-1 3:-0.757576 4:-1 5:-0.515152 6:-0.864407 7:-0.5 8:-0.779006 9:-0.75 10:-1 11:-0.448276 12:-0.755102 13:-0.868421 14:-0.439252 15:-1 16:-1 17:-1 18:-1 19:-1 20:-1 21:-1 
1.7174444044414434 1:-0.5 2:-0.186441 3:-1 4:-0.289941 5:-1 6:-0.59322 7:-1 8:-0.779006 9:-1 10:-1 11:-1 12:-1 13:-1 14:-1 15:-1 16:-1 17:-1 18:-1 19:-1 20:-1 21:-1 
2 1:-1 2:-1 3:-1 4:-1 5:-1 6:-1 7:-1 8:-1 9:-1 10:-1 11:-1 12:-1 13:-1 14:-1 15:-1 16:-1 17:-1 18:-1 19:-1 20:-1 21:-1 
2 1:-1 2:-0.674576 3:-1 4:-0.64497 5:-0.676768 6:-1 7:-0.75 8:-0.779006 9:-1 10:-1 11:-1 12:-1 13:-1 14:-1 15:-1 16:-1 17:-1 18:-1 19:-1 20:-1 21:-1 
2 1:-1 2:-1 3:-1 4:-1 5:-1 6:-1 7:-1 8:-1 9:-1 10:-1 11:-1 12:-1 13:-1 14:-1 15:-1 16:-1 17:-1 18:-1 19:-1 20:-1 21:-1 
2 1:-1 2:-1 3:-1 4:-1 5:-0.676768 6:-1 7:-1 8:-1 9:-1 10:-1 11:-1 12:-1 13:-1 14:-1 15:-1 16:-1 17:-1 18:-1 19:-1 20:-1 21:-1 
2 1:-1 2:-1 3:-1 4:-1 5:-1 6:-1 7:-1 8:-1 9:-1 10:-1 11:-1 12:-1 13:-1 14:-1 15:-1 16:-1 17:-1 18:-1 19:-1 20:-1 21:-1 
2 1:-1 2:-1 3:-1 4:-1 5:-1 6:-1 7:-1 8:-1 9:-1 10:-1 11:-1 12:-1 13:-1 14:-1 15:-1 16:-1 17:-1 18:-1 19:-1 20:-1 21:-1 
2 1:-1 2:-1 3:-1 4:-1 5:-1 6:-1 7:-1 8:-1 9:-1 10:-1 11:-1 12:-1 13:-1 14:-1 15:-1 16:-1 17:-1 18:-1 19:-1 20:-1 21:-1 
2 1:-1 2:-0.864407 3:-1 4:-0.881657 5:-1 6:-1 7:-1 8:-1 9:-1 10:-1 11:-1 12:-1 13:-1 14:-1 15:-1 16:-1 17:-1 18:-1 19:-1 20:-1 21:-1 
2 1:-1 2:-1 3:-1 4:-1 5:-1 6:-1 7:-1 8:-1 9:-1 10:-1 11:-1 12:-1 13:-1 14:-1 15:-1 16:-1 17:-1 18:-1 19:-1 20:-1 21:-1 
1.7666433725163735 1:-0.5 2:-1 3:-1 4:-0.360947 5:-1 6:-1 7:-1 8:-1 9:-1 10:-1 11:-1 12:-1 13:-1 14:-1 15:-1 16:-1 17:-1 18:-1 19:-1 20:-1 21:-1 
2 1:-1 2:-0.728814 3:-0.838384 4:-1 5:-1 6:-1 7:-1 8:-1 9:-1 10:-1 11:-1 12:-1 13:-1 14:-1 15:-1 16:-1 17:-1 18:-1 19:-1 20:-1 21:-1 
2 1:-1 2:-0.59322 3:-1 4:-1 5:-0.676768 6:-1 7:-1 8:-1 9:-1 10:-1 11:-1 12:-1 13:-1 14:-1 15:-1 16:-1 17:-1 18:-1 19:-1 20:-1 21:-1 
0.99385358884016195 1:-0.5 2:-0.59322 3:-0.393939 4:-1 5:-0.676768 6:0.0169492 7:-1 8:-1 9:-1 10:-1 11:-1 12:-1 13:-1 14:-1 15:-1 16:-1 17:-1 18:-1 19:-1 20:-1 21:-1 
2 1:-1 2:-1 3:-0.919192 4:-0.881657 5:-0.806061 6:-1 7:-1 8:-1 9:-1 10:-1 11:-1 12:-1 13:-1 14:-1 15:-1 16:-1 17:-1 18:-1 19:-1 20:-1 21:-1 
2 1:-1 2:-1 3:-1 4:-1 5:-1 6:-1 7:-1 8:-1 9:-1 10:-1 11:-1 12:-1 13:-1 14:-1 15:-1 16:-1 17:-1 18:-1 19:-1 20:-1 21:-1 
2 1:-1 2:-0.864407 3:-1 4:-0.64497 5:-1 6:-1 7:-1 8:-1 9:-1 10:-1 11:-1 12:-1 13:-1 14:-1 15:-1 16:-1 17:-1 18:-1 19:-1 20:-1 21:-1 
2 1:-1 2:-1 3:-1 4:-1 5:-1 6:-1 7:-1 8:-1 9:-1 10:-1 11:-1 12:-1 13:-1 14:-1 15:-1 16:-1 17:-1 18:-1 19:-1 20:-1 21:-1 
2 1:-1 2:-1 3:-1 4:-1 5:-1 6:-1 7:-1 8:-1 9:-1 10:-1 11:-1 12:-1 13:-1 14:-1 15:-1 16:-1 17:-1 18:-1 19:-1 20:-1 21:-1 
2 1:-0.6 2:0.0169492 3:-0.757576 4:-0.112426 5:-0.191919 6:-1 7:-1 8:-1 9:-1 10:-1 11:-1 12:-1 13:-1 14:-1 15:-1 16:-1 17:-1 18:-1 19:-1 20:-1 21:-1 
2 1:-1 2:-1 3:-0.919192 4:-0.881657 5:-0.806061 6:-1 7:-1 8:-1 9:-1 10:-1 11:-1 12:-1 13:-1 14:-1 15:-1 16:-1 17:-1 18:-1 19:-1 20:-1 21:-1 
2 1:-1 2:-1 3:-0.919192 4:-0.881657 5:-0.806061 6:-1 7:-1 8:-1 9:-1 10:-1 11:-1 12:-1 13:-1 14:-1 15:-1 16:-1 17:-1 18:-1 19:-1 20:-1 21:-1 
2 1:-0.833333 2:-0.864407 3:-0.919192 4:-1 5:-1 6:-1 7:-1 8:-1 9:-1 10:-1 11:-1 12:-1 13:-1 14:-1 15:-1 16:-1 17:-1 18:-1 19:-1 20:-1 21:-1 
0.92133000884057592 1:-0.25 2:-1 3:-0.757576 4:-0.881657 5:-0.353535 6:-0.59322 7:-0.75 8:-1 9:-1 10:-1 11:-1 12:-1 13:-1 14:-1 15:-1 16:-1 17:-1 18:-1 19:-1 20:-1 21:-1 
2 1:-0.25 2:-0.59322 3:-0.757576 4:-0.467456 5:-1 6:-1 7:-1 8:-1 9:-1 10:-1 11:-1 12:-1 13:-1 14:-1 15:-1 16:-1 17:-1 18:-1 19:-1 20:-1 21:-1 
2 1:-1 2:-0.59322 3:-0.757576 4:-1 5:-0.741414 6:-1 7:-1 8:-1 9:-1 10:-1 11:-1 12:-1 13:-1 14:-1 15:-1 16:-1 17:-1 18:-1 19:-1 20:-1 21:-1 
2 1:-0.833333 2:-0.566102 3:-0.919192 4:-0.64497 5:-1 6:-1 7:-1 8:-1 9:-1 10:-1 11:-1 12:-1 13:-1 14:-1 15:-1 16:-1 17:-1 18:-1 19:-1 20:-1 21:-1 
2 1:-1 2:-1 3:-0.919192 4:-0.881657 5:-0.806061 6:-1 7:-1 8:-1 9:-1 10:-1 11:-1 12:-1 13:-1 14:-1 15:-1 16:-1 17:-1 18:-1 19:-1 20:-1 21:-1 
2 1:-1 2:-1 3:-1 4:-1 5:-1 6:-1 7:-1 8:-1 9:-1 10:-1 11:-1 12:-1 13:-1 14:-1 15:-1 16:-1 17:-1 18:-1 19:-1 20:-1 21:-1 
2 1:-1 2:-1 3:-1 4:-1 5:-1 6:-1 7:-1 8:-1 9:-1 10:-1 11:-1 12:-1 13:-1 14:-1 15:-1 16:-1 17:-1 18:-1 19:-1 20:-1 21:-1 
2 1:-1 2:-0.267797 3:-0.757576 4:-0.64497 5:-1 6:-0.864407 7:-1 8:-0.926335 9:-1 10:-0.918367 11:-1 12:-1 13:-1 14:-1 15:-1 16:-1 17:-1 18:-1 19:-1 20:-1 21:-1 
2 1:-1 2:-1 3:-0.919192 4:-0.881657 5:-0.806061 6:-1 7:-1 8:-1 9:-1 10:-1 11:-1 12:-1 13:-1 14:-1 15:-1 16:-1 17:-1 18:-1 19:-1 20:-1 21:-1 
2 1:-1 2:-1 3:-0.757576 4:-0.64497 5:-1 6:-1 7:-1 8:-1 9:-1 10:-1 11:-1 12:-1 13:-1 14:-1 15:-1 16:-1 17:-1 18:-1 19:-1 20:-1 21:-1 
2 1:-1 2:-1 3:-1 4:-1 5:-1 6:-1 7:-1 8:-1 9:-1 10:-1 11:-1 12:-1 13:-1 14:-1 15:-1 16:-1 17:-1 18:-1 19:-1 20:-1 21:-1 
0.5158641572724838 1:-0.5 2:-0.267797 3:-0.939394 4:-0.289941 5:-0.676768 6:-0.59322 7:-1 8:-1 9:-1 10:-1 11:-1 12:-1 13:-1 14:-1 15:-1 16:-1 17:-1 18:-1 19:-1 20:-1 21:-1 
0.63506842519470497 1:-0.5 2:-1 3:-0.919192 4:-0.337278 5:-0.676768 6:-1 7:-1 8:-1 9:-1 10:-1 11:-1 12:-1 13:-1 14:-1 15:-1 16:-1 17:-1 18:-1 19:-1 20:-1 21:-1 
2 1:-1 2:-0.674576 3:-1 4:-0.64497 5:-1 6:-1 7:-1 8:-1 9:-1 10:-1 11:-1 12:-1 13:-1 14:-1 15:-1 16:-1 17:-1 18:-1 19:-1 20:-1 21:-1 
2 1:-0.5 2:-0.864407 3:-0.393939 4:-0.64497 5:-0.191919 6:-1 7:-1 8:-1 9:-1 10:-1 11:-1 12:-1 13:-1 14:-1 15:-1 16:-1 17:-1 18:-1 19:-1 20:-1 21:-1 
2 1:-1 2:-1 3:-0.919192 4:-0.881657 5:-0.806061 6:-1 7:-1 8:-1 9:-1 10:-1 11:-1 12:-1 13:-1 14:-1 15:-1 16:-1 17:-1 18:-1 19:-1 20:-1 21:-1 
1.5676807623129818 1:1 2:-0.59322 3:-0.757576 4:0.420118 5:-0.191919 6:-0.59322 8:-1 9:-1 10:-1 11:-1 12:-1 13:-1 14:-1 15:-1 16:-1 17:-1 18:-1 19:-1 20:-1 21:-1 
2 1:-1 2:-1 3:-0.919192 4:-0.881657 5:-0.806061 6:-1 7:-1 8:-1 9:-1 10:-1 11:-1 12:-1 13:-1 14:-1 15:-1 16:-1 17:-1 18:-1 19:-1 20:-1 21:-1 
0.23919141360280338 1:-0.1 2:-1 3:-0.757576 4:-1 5:-1 6:-1 7:-1 8:-1 9:-1 10:-1 11:-1 12:-1 13:-1 14:-1 15:-1 16:-1 17:-1 18:-1 19:-1 20:-1 21:-1 
2 1:-1 2:-1 3:-1 4:-1 5:-1 6:-1 7:-1 8:-1 9:-1 10:-1 11:-1 12:-1 13:-1 14:-1 15:-1 16:-1 17:-1 18:-1 19:-1 20:-1 21:-1 
2 1:-0.0833333 2:-0.59322 3:-0.555556 4:-1 5:-0.676768 6:-1 7:-1 8:-1 9:-1 10:-1 11:-1 12:-1 13:-1 14:-1 15:-1 16:-1 17:-1 18:-1 19:-1 20:-1 21:-1 
2 1:-0.833333 2:-1 3:-0.919192 4:-1 5:-1 6:-1 7:-0.916667 8:-1 9:-1 10:-1 11:-1 12:-1 13:-1 14:-1 15:-1 16:-1 17:-1 18:-1 19:-1 20:-1 21:-1 
2 1:-1 2:-0.864407 3:-0.757576 4:-0.822485 5:-0.191919 6:-0.59322 7:-0.375 8:-1 9:-1 10:-1 11:-1 12:-1 13:-1 14:-1 15:-1 16:-1 17:-1 18:-1 19:-1 20:-1 21:-1 
2 1:-1 2:-1 3:-0.919192 4:-1 5:-1 6:-1 7:-1 8:-1 9:-1 10:-1 11:-1 12:-1 13:-1 14:-1 15:-1 16:-1 17:-1 18:-1 19:-1 20:-1 21:-1 
2 1:-0.833333 2:-1 3:-0.919192 4:-1 5:-1 6:-1 7:-1 8:-1 9:-1 10:-1 11:-1 12:-1 13:-1 14:-1 15:-1 16:-1 17:-1 18:-1 19:-1 20:-1 21:-1 
2 1:-0.833333 2:-1 3:-1 4:-1 5:-0.676768 6:-0.59322 7:-1 8:-1 9:-0.516667 10:-1 11:-0.724138 12:-1 13:-1 14:-1 15:-1 16:-1 17:-1 18:-1 19:-1 20:-1 21:-1 
2 1:-0.770833 2:-1 3:-0.858586 4:-1 5:-1 6:-0.661017 7:-1 8:-0.815838 9:-1 10:-1 11:-0.908046 12:-1 13:-1 14:-1 15:-1 16:-1 17:-1 18:-1 19:-1 20:-1 21:-1 
1.4676337654807432 1:-1 2:-0.59322 3:-0.919192 4:-1 5:-0.676768 6:-0.59322 7:-1 8:-0.779006 9:-0.35 10:-0.755102 11:-0.724138 12:-1 13:-1 14:-1 15:-1 16:-1 17:-1 18:-1 19:-1 20:-1 21:-1 
2 1:-1 2:-1 3:-1 4:-1 5:-1 6:-1 7:-1 8:-1 9:-1 10:-1 11:-1 12:-1 13:-1 14:-1 15:-1 16:-1 17:-1 18:-1 19:-1 20:-1 21:-1 
2 1:-0.833333 2:-0.59322 3:-1 4:-1 5:-1 6:-0.864407 7:-1 8:-1 9:-1 10:-1 11:-1 12:-1 13:-1 14:-1 15:-1 16:-1 17:-1 18:-1 19:-1 20:-1 21:-1 
2 1:-1 2:-0.674576 3:-1 4:-0.64497 5:-0.676768 6:-0.59322 7:-1 8:-1 9:-1 10:-1 11:-1 12:-1 13:-1 14:-1 15:-1 16:-1 17:-1 18:-1 19:-1 20:-1 21:-1 
2 1:-1 2:-0.864407 3:-0.935354 4:-1 5:-1 6:-1 7:-1 8:-1 9:-1 10:-1 11:-1 12:-1 13:-1 14:-1 15:-1 16:-1 17:-1 18:-1 19:-1 20:-1 21:-1 
2 1:-0.5 2:-0.864407 3:-0.393939 4:-0.64497 5:-0.191919 6:-1 7:-1 8:-1 9:-1 10:-1 11:-1 12:-1 13:-1 14:-1 15:-1 16:-1 17:-1 18:-1 19:-1 20:-1 21:-1 
2 1:-1 2:-0.864407 3:-0.393939 4:-0.64497 5:-0.191919 6:-1 7:-1 8:-1 9:-1 10:-1 11:-1 12:-1 13:-1 14:-1 15:-1 16:-1 17:-1 18:-1 19:-1 20:-1 21:-1 
1.4524436171520914 1:-0.833333 2:-0.59322 3:-0.434343 4:-1 5:-0.030303 6:-0.59322 7:-0.25 8:-1 9:-1 10:-1 11:-1 12:-1 13:-1 14:-1 15:-1 16:-1 17:-1 18:-1 19:-1 20:-1 21:-1 
2 1:-1 2:-1 3:-1 4:-1 5:-1 6:-1 7:-1 8:-1 9:-1 10:-1 11:-1 12:-1 13:-1 14:-1 15:-1 16:-1 17:-1 18:-1 19:-1 20:-1 21:-1 
2 1:-1 2:-1 3:-1 4:-1 5:-1 6:-1 7:-1 8:-1 9:-1 10:-1 11:-1 12:-1 13:-1 14:-1 15:-1 16:-1 17:-1 18:-1 19:-1 20:-1 21:-1 
2 1:-1 2:-1 3:-1 4:-1 5:-1 6:-1 7:-1 8:-1 9:-1 10:-1 11:-1 12:-1 13:-1 14:-1 15:-1 16:-1 17:-1 18:-1 19:-1 20:-1 21:-1 
2 1:-1 2:-0.864407 3:-1 4:-0.64497 5:-1 6:-1 7:-1 8:-1 9:-1 10:-1 11:-1 12:-1 13:-1 14:-1 15:-1 16:-1 17:-1 18:-1 19:-1 20:-1 21:-1 
2 1:-1 2:-0.59322 3:-1 4:-1 5:-1 6:-1 7:-1 8:-1 9:-0.683333 10:-0.918367 11:-1 12:-1 13:-1 14:-1 15:-1 16:-1 17:-1 18:-1 19:-1 20:-1 21:-1 
2 1:-0.5 2:-0.59322 3:-1 4:-0.881657 5:-0.892256 6:-1 7:-0.916667 8:-0.779006 9:-1 10:-1 11:-1 12:-1 13:-1 14:-1 15:-1 16:-1 17:-1 18:-1 19:-1 20:-1 21:-1 
2 1:-1 2:-1 3:-1 4:-1 5:-1 6:-1 7:-1 8:-1 9:-1 10:-1 11:-1 12:-1 13:-1 14:-1 15:-1 16:-1 17:-1 18:-1 19:-1 20:-1 21:-1 
2 1:-0.6 2:-1 3:-0.515152 4:-0.64497 5:-0.353535 6:-1 7:-1 8:-1 9:-1 10:-1 11:-1 12:-1 13:-1 14:-1 15:-1 16:-1 17:-1 18:-1 19:-1 20:-1 21:-1 
2 1:-1 2:-1 3:-1 4:-1 5:-1 6:-1 7:-1 8:-1 9:-1 10:-1 11:-1 12:-1 13:-1 14:-1 15:-1 16:-1 17:-1 18:-1 19:-1 20:-1 21:-1 
2 1:-0.833333 2:-1 3:-1 4:-1 5:-1 6:-1 7:-1 8:-1 9:-1 10:-1 11:-1 12:-1 13:-1 14:-1 15:-1 16:-1 17:-1 18:-1 19:-1 20:-1 21:-1 
2 1:-0.833333 2:-0.59322 3:-0.741414 4:-0.881657 5:-1 6:-0.864407 7:-0.916667 8:-1 9:-1 10:-1 11:-1 12:-1 13:-1 14:-1 15:-1 16:-1 17:-1 18:-1 19:-1 20:-1 21:-1 
2 1:-0.833333 2:-0.186441 3:-1 4:-0.64497 5:-0.353535 6:-1 7:-1 8:-1 9:-1 10:-1 11:-1 12:-1 13:-1 14:-1 15:-1 16:-1 17:-1 18:-1 19:-1 20:-1 21:-1 
2 1:-1 2:-0.674576 3:-0.757576 4:-1 5:-1 6:-1 7:-1 8:-1 9:-1 10:-1 11:-1 12:-1 13:-1 14:-1 15:-1 16:-1 17:-1 18:-1 19:-1 20:-1 21:-1 
2 1:-0.833333 2:-0.79661 3:-1 4:-0.881657 5:-0.892256 6:-0.688136 7:-1 8:-1 9:-1 10:-1 11:-1 12:-1 13:-1 14:-1 15:-1 16:-1 17:-1 18:-1 19:-1 20:-1 21:-1 
2 1:-1 2:-1 3:-0.757576 4:-1 5:-1 6:-0.59322 7:-1 8:-1 9:-1 10:-1 11:-1 12:-1 13:-1 14:-1 15:-1 16:-1 17:-1 18:-1 19:-1 20:-1 21:-1 
2 1:-0.875 2:-1 3:-0.757576 4:-1 5:-0.676768 6:-0.59322 7:-1 8:-1 9:-1 10:-1 11:-1 12:-1 13:-1 14:-1 15:-1 16:-1 17:-1 18:-1 19:-1 20:-1 21:-1 
2 1:-1 2:-1 3:-0.757576 4:-0.64497 5:-1 6:-1 7:-1 8:-1 9:-1 10:-1 11:-1 12:-1 13:-1 14:-1 15:-1 16:-1 17:-1 18:-1 19:-1 20:-1 21:-1 
2 1:-1 2:-1 3:-1 4:-1 5:-1 6:-1 7:-1 8:-1 9:-1 10:-1 11:-1 12:-1 13:-1 14:-1 15:-1 16:-1 17:-1 18:-1 19:-1 20:-1 21:-1 
0.10724230961324349 1:-1 2:-0.59322 3:-1 4:-0.64497 5:-0.676768 6:-1 7:-0.625 8:-1 9:-1 10:-1 11:-1 12:-1 13:-1 14:-1 15:-1 16:-1 17:-1 18:-1 19:-1 20:-1 21:-1 
2 1:-1 2:-1 3:-1 4:-1 5:-1 6:-1 7:-1 8:-1 9:-1 10:-1 11:-1 12:-1 13:-1 14:-1 15:-1 16:-1 17:-1 18:-1 19:-1 20:-1 21:-1 
2 1:-1 2:-1 3:-0.757576 4:-0.64497 5:-1 6:-1 7:-1 8:-1 9:-1 10:-1 11:-1 12:-1 13:-1 14:-1 15:-1 16:-1 17:-1 18:-1 19:-1 20:-1 21:-1 
1.8158819933961494 1:0.166667 2:-0.728814 3:-0.919192 4:-0.64497 5:-0.892256 6:-0.0508475 7:-1 8:-1 9:-1 10:-1 11:-1 12:-1 13:-1 14:-1 15:-1 16:-1 17:-1 18:-1 19:-1 20:-1 21:-1 
2 1:-1 2:-1 3:-1 4:-1 5:-0.676768 6:-0.59322 7:-1 8:-1 9:-1 10:-1 11:-1 12:-1 13:-1 14:-1 15:-1 16:-1 17:-1 18:-1 19:-1 20:-1 21:-1 
2 1:-1 2:-1 3:-1 4:-1 5:-1 6:-1 7:-1 8:-1 9:-1 10:-1 11:-1 12:-1 13:-1 14:-1 15:-1 16:-1 17:-1 18:-1 19:-1 20:-1 21:-1 
1.5676820147684944 1:0.625 2:-0.661017 3:-0.919192 4:-0.64497 5:-0.892256 6:0.322034 7:-1 8:-1 9:-0.25 10:-1 11:-0.448276 12:-0.755102 13:-0.210526 14:-1 15:-1 16:-1 17:-1 18:-1 19:-1 20:-1 21:-1 
2 1:-1 2:-1 3:-1 4:-1 5:-1 6:-1 7:-1 8:-1 9:-1 10:-1 11:-1 12:-1 13:-1 14:-1 15:-1 16:-1 17:-1 18:-1 19:-1 20:-1 21:-1 
2 1:-1 2:-1 3:-0.919192 4:-0.881657 5:-0.806061 6:-1 7:-1 8:-1 9:-1 10:-1 11:-1 12:-1 13:-1 14:-1 15:-1 16:-1 17:-1 18:-1 19:-1 20:-1 21:-1 
2 1:-1 2:-1 3:-1 4:-1 5:-1 6:-1 7:-1 8:-1 9:-1 10:-1 11:-1 12:-1 13:-1 14:-1 15:-1 16:-1 17:-1 18:-1 19:-1 20:-1 21:-1 
1.1726170786105978 1:-1 2:-0.674576 3:-1 4:-0.64497 5:-1 6:-0.864407 7:-0.55 8:-1 9:-1 10:-1 11:-1 12:-1 13:-1 14:-1 15:-1 16:-1 17:-1 18:-1 19:-1 20:-1 21:-1 
2 1:-1 2:-1 3:-1 4:-1 5:-1 6:-1 7:-1 8:-1 9:-1 10:-1 11:-1 12:-1 13:-1 14:-1 15:-1 16:-1 17:-1 18:-1 19:-1 20:-1 21:-1 
2 1:-1 2:-0.59322 3:-0.757576 4:-0.763314 5:-1 6:-1 7:-1 8:-1 9:-1 10:-1 11:-1 12:-1 13:-1 14:-1 15:-1 16:-1 17:-1 18:-1 19:-1 20:-1 21:-1 
2 1:-1 2:-1 3:-0.919192 4:-0.881657 5:-0.806061 6:-1 7:-1 8:-1 9:-1 10:-1 11:-1 12:-1 13:-1 14:-1 15:-1 16:-1 17:-1 18:-1 19:-1 20:-1 21:-1 
2 1:-1 2:-1 3:-0.919192 4:-0.881657 5:-0.806061 6:-1 7:-1 8:-1 9:-1 10:-1 11:-1 12:-1 13:-1 14:-1 15:-1 16:-1 17:-1 18:-1 19:-1 20:-1 21:-1 
2 1:-1 2:-1 3:-1 4:-1 5:-1 6:-1 7:-1 8:-1 9:-1 10:-1 11:-1 12:-1 13:-1 14:-1 15:-1 16:-1 17:-1 18:-1 19:-1 20:-1 21:-1 
0.6893047455061142 1:0.25 2:-0.59322 3:-0.393939 4:-1 5:-1 6:-0.59322 7:-1 8:-1 9:-1 10:-1 11:-1 12:-1 13:-1 14:-1 15:-1 16:-1 17:-1 18:-1 19:-1 20:-1 21:-1 
2 1:-1 2:-1 3:-1 4:-1 5:-1 6:-1 7:-1 8:-1 9:-1 10:-1 11:-1 12:-1 13:-1 14:-1 15:-1 16:-1 17:-1 18:-1 19:-1 20:-1 21:-1 
2 1:-1 2:-1 3:-0.757576 4:-0.360947 5:-0.676768 6:-1 7:-1 8:-1 9:-1 10:-1 11:-1 12:-1 13:-1 14:-1 15:-1 16:-1 17:-1 18:-1 19:-1 20:-1 21:-1 
2 1:-1 2:-1 3:-1 4:-1 5:-1 6:-1 7:-1 8:-1 9:-1 10:-1 11:-1 12:-1 13:-1 14:-1 15:-1 16:-1 17:-1 18:-1 19:-1 20:-1 21:-1 
2 1:-0.25 2:-0.59322 3:-0.636364 4:-1 5:-0.676768 6:-1 7:-1 8:-1 9:-1 10:-1 11:-1 12:-1 13:-1 14:-1 15:-1 16:-1 17:-1 18:-1 19:-1 20:-1 21:-1 
2 1:-1 2:0.220339 3:-0.757576 4:0.0650888 5:-0.030303 6:-1 7:-1 8:-1 9:-1 10:-1 11:-1 12:-1 13:-1 14:-1 15:-1 16:-1 17:-1 18:-1 19:-1 20:-1 21:-1 
1.5670930390751534 1:-1 2:0.0169492 3:-1 4:-0.112426 5:-0.676768 6:0.0169492 7:-0.275 8:-0.558011 9:-0.75 10:-0.510204 11:-0.448276 12:-0.755102 13:-0.210526 14:-1 15:-1 16:-1 17:-1 18:-1 19:-1 20:-1 21:-1 
2 1:-1 2:-1 3:-1 4:-1 5:-1 6:-1 7:-1 8:-1 9:-1 10:-1 11:-1 12:-1 13:-1 14:-1 15:-1 16:-1 17:-1 18:-1 19:-1 20:-1 21:-1 
2 1:-1 2:-0.864407 3:-0.919192 4:-1 5:-1 6:-1 7:-1 8:-1 9:-1 10:-1 11:-1 12:-1 13:-1 14:-1 15:-1 16:-1 17:-1 18:-1 19:-1 20:-1 21:-1 
1.6126584721410913 1:-0.5 2:-1 3:-0.393939 4:-1 5:-1 6:-1 7:-0.75 8:-0.447514 9:-1 10:-1 11:-1 12:-1 13:-1 14:-1 15:-1 16:-1 17:-1 18:-1 19:-1 20:-1 21:-1 
1.5359715486696965 1:0.166667 2:-1 3:-0.757576 4:-0.64497 5:0.0774411 6:-0.59322 7:-0.166667 8:-1 9:-1 10:-1 11:-1 12:-1 13:-1 14:-1 15:-1 16:-1 17:-1 18:-1 19:-1 20:-1 21:-1 
2 1:-1 2:-1 3:-0.919192 4:-0.881657 5:-0.806061 6:-1 7:-1 8:-1 9:-1 10:-1 11:-1 12:-1 13:-1 14:-1 15:-1 16:-1 17:-1 18:-1 19:-1 20:-1 21:-1 
2 1:-1 2:-1 3:-0.757576 4:-0.64497 5:-1 6:-1 7:-1 8:-1 9:-1 10:-1 11:-1 12:-1 13:-1 14:-1 15:-1 16:-1 17:-1 18:-1 19:-1 20:-1 21:-1 
2 1:-1 2:-1 3:-0.919192 4:-0.881657 5:-0.806061 6:-1 7:-1 8:-1 9:-1 10:-1 11:-1 12:-1 13:-1 14:-1 15:-1 16:-1 17:-1 18:-1 19:-1 20:-1 21:-1 
2 1:-1 2:-1 3:-0.919192 4:-1 5:-1 6:-0.59322 7:-1 8:-1 9:-1 10:-1 11:-1 12:-1 13:-1 14:-1 15:-1 16:-1 17:-1 18:-1 19:-1 20:-1 21:-1 
2 1:-1 2:-1 3:-0.919192 4:-0.881657 5:-0.806061 6:-1 7:-1 8:-1 9:-1 10:-1 11:-1 12:-1 13:-1 14:-1 15:-1 16:-1 17:-1 18:-1 19:-1 20:-1 21:-1 
2 1:-1 2:-1 3:-1 4:-1 5:-1 6:-1 7:-1 8:-1 9:-1 10:-1 11:-1 12:-1 13:-1 14:-1 15:-1 16:-1 17:-1 18:-1 19:-1 20:-1 21:-1 
2 1:-1 2:-1 3:-0.919192 4:-0.881657 5:-0.806061 6:-1 7:-1 8:-1 9:-1 10:-1 11:-1 12:-1 13:-1 14:-1 15:-1 16:-1 17:-1 18:-1 19:-1 20:-1 21:-1 
2 1:-1 2:-1 3:-0.919192 4:-0.881657 5:-0.806061 6:-1 7:-1 8:-1 9:-1 10:-1 11:-1 12:-1 13:-1 14:-1 15:-1 16:-1 17:-1 18:-1 19:-1 20:-1 21:-1 
2 1:-1 2:-1 3:-1 4:-1 5:-1 6:-1 7:-1 8:-1 9:-1 10:-1 11:-1 12:-1 13:-1 14:-1 15:-1 16:-1 17:-1 18:-1 19:-1 20:-1 21:-1 
2 1:-0.5 2:-1 3:-0.757576 4:-1 5:-1 6:-1 7:-0.75 8:-1 9:-1 10:-1 11:-1 12:-1 13:-1 14:-1 15:-1 16:-1 17:-1 18:-1 19:-1 20:-1 21:-1 
2 1:-1 2:-1 3:-0.919192 4:-0.881657 5:-0.806061 6:-1 7:-1 8:-1 9:-1 10:-1 11:-1 12:-1 13:-1 14:-1 15:-1 16:-1 17:-1 18:-1 19:-1 20:-1 21:-1 
2 1:-1 2:-0.864407 3:-0.757576 4:-0.64497 5:-0.892256 6:-0.864407 7:-0.75 8:-1 9:-1 10:-1 11:-1 12:-1 13:-1 14:-1 15:-1 16:-1 17:-1 18:-1 19:-1 20:-1 21:-1 
1.567629150808683 1:-0.15 2:-0.59322 3:1 4:-0.64497 5:-0.030303 6:-0.59322 7:-0.25 8:1 9:-1 10:-1 11:-1 12:-1 13:-1 14:-1 15:-1 16:-1 17:-1 18:-1 19:-1 20:-1 21:-1 
2 1:-1 2:-1 3:-0.919192 4:-0.881657 5:-0.547475 6:-0.59322 7:-1 8:-1 9:-1 10:-1 11:-1 12:-1 13:-1 14:-1 15:-1 16:-1 17:-1 18:-1 19:-1 20:-1 21:-1 
1.2377402862245879 1:-0.5 2:-0.59322 3:-0.636364 4:-1 5:-0.030303 6:-0.59322 7:-0.25 8:-1 9:-1 10:-1 11:-1 12:-1 13:-1 14:-1 15:-1 16:-1 17:-1 18:-1 19:-1 20:-1 21:-1 
2 1:-1 2:-1 3:-1 4:-1 5:-1 6:-1 7:-1 8:-1 9:-1 10:-1 11:-1 12:-1 13:-1 14:-1 15:-1 16:-1 17:-1 18:-1 19:-1 20:-1 21:-1 
2 1:-1 2:-1 3:-0.919192 4:-0.881657 5:-0.806061 6:-1 7:-1 8:-1 9:-1 10:-1 11:-1 12:-1 13:-1 14:-1 15:-1 16:-1 17:-1 18:-1 19:-1 20:-1 21:-1 
2 1:-1 2:-0.59322 3:-0.757576 4:-0.64497 5:-1 6:-1 7:-0.916667 8:-0.764273 9:-1 10:-1 11:-1 12:-1 13:-1 14:-1 15:-1 16:-1 17:-1 18:-1 19:-1 20:-1 21:-1 
2 1:-1 2:-1 3:-0.919192 4:-0.881657 5:-0.806061 6:-1 7:-1 8:-1 9:-1 10:-1 11:-1 12:-1 13:-1 14:-1 15:-1 16:-1 17:-1 18:-1 19:-1 20:-1 21:-1 
1.5665531019832224 1:-1 2:-0.267797 3:-0.757576 4:-1 5:0.0020202 6:-1 7:-0.25 8:-0.779006 9:-0.25 10:-0.265306 11:-1 12:-1 13:-1 14:-1 15:-1 16:-1 17:-1 18:-1 19:-1 20:-1 21:-1 
2 1:-1 2:-1 3:-1 4:-0.715976 5:-1 6:-1 7:-0.75 8:-1 9:-1 10:-1 11:-1 12:-1 13:-1 14:-1 15:-1 16:-1 17:-1 18:-1 19:-1 20:-1 21:-1 
2 1:-1 2:-1 3:-1 4:-1 5:-1 6:-1 7:-1 8:-1 9:-1 10:-1 11:-1 12:-1 13:-1 14:-1 15:-1 16:-1 17:-1 18:-1 19:-1 20:-1 21:-1 
2 1:-1 2:-1 3:-0.919192 4:-0.881657 5:-0.806061 6:-1 7:-1 8:-1 9:-1 10:-1 11:-1 12:-1 13:-1 14:-1 15:-1 16:-1 17:-1 18:-1 19:-1 20:-1 21:-1 
2 1:-1 2:-1 3:-1 4:-1 5:-1 6:-1 7:-1 8:-1 9:-1 10:-1 11:-1 12:-1 13:-1 14:-1 15:-1 16:-1 17:-1 18:-1 19:-1 20:-1 21:-1 
1.5027035312332637 1:-0.5 2:-1 3:-0.321212 4:-0.289941 5:-1 6:-0.59322 7:-0.75 8:-0.337017 9:-0.75 10:-0.755102 11:-1 12:-1 13:-1 14:-1 15:-1 16:-1 17:-1 18:-1 19:-1 20:-1 21:-1 
2 1:-1 2:-1 3:-1 4:-1 5:-1 6:-1 7:-1 8:-1 9:-1 10:-1 11:-1 12:-1 13:-1 14:-1 15:-1 16:-1 17:-1 18:-1 19:-1 20:-1 21:-1 
2 1:-0.833333 2:-1 3:-0.757576 4:-0.64497 5:-1 6:-1 7:-1 8:-1 9:-1 10:-1 11:-1 12:-1 13:-1 14:-1 15:-1 16:-1 17:-1 18:-1 19:-1 20:-1 21:-1 
2 1:-1 2:-1 3:-1 4:-1 5:-1 6:-1 7:-1 8:-1 9:-1 10:-1 11:-1 12:-1 13:-1 14:-1 15:-1 16:-1 17:-1 18:-1 19:-1 20:-1 21:-1 
2 1:-1 2:-0.728814 3:-1 4:-1 5:-1 6:-1 7:-0.75 8:-0.779006 9:-0.916667 10:-1 11:-1 12:-1 13:-1 14:-1 15:-1 16:-1 17:-1 18:-1 19:-1 20:-1 21:-1 
2 1:-1 2:-0.864407 3:-1 4:-0.64497 5:-0.191919 6:-0.59322 7:-0.375 8:-1 9:-1 10:-1 11:-1 12:-1 13:-1 14:-1 15:-1 16:-1 17:-1 18:-1 19:-1 20:-1 21:-1 
2 1:-1 2:-1 3:-1 4:-1 5:-1 6:-1 7:-1 8:-1 9:-1 10:-1 11:-1 12:-1 13:-1 14:-1 15:-1 16:-1 17:-1 18:-1 19:-1 20:-1 21:-1 
0.19284814058629804 1:-0.5 2:-0.59322 3:-0.684848 4:-1 5:-1 6:-0.864407 7:-0.675 8:-1 9:-1 10:-1 11:-1 12:-1 13:-1 14:-1 15:-1 16:-1 17:-1 18:-1 19:-1 20:-1 21:-1 
2 1:-1 2:-1 3:-0.919192 4:-0.881657 5:-0.806061 6:-1 7:-1 8:-1 9:-1 10:-1 11:-1 12:-1 13:-1 14:-1 15:-1 16:-1 17:-1 18:-1 19:-1 20:-1 21:-1 
2 1:-0.833333 2:-0.59322 3:-1 4:-1 5:-0.676768 6:-0.59322 7:-1 8:-1 9:-1 10:-1 11:-1 12:-1 13:-1 14:-1 15:-1 16:-1 17:-1 18:-1 19:-1 20:-1 21:-1 
0.41735293060385181 1:0.5 2:-0.59322 3:-0.272727 4:-1 5:-1 6:0.247458 7:-1 8:-1 9:-1 10:-1 11:-1 12:-1 13:-1 14:-1 15:-1 16:-1 17:-1 18:-1 19:-1 20:-1 21:-1 
1.1114764941277027 1:-0.5 2:-0.59322 3:-0.563636 4:-1 5:-1 6:-1 7:-1 8:-1 9:-1 10:-1 11:-1 12:-1 13:-1 14:-1 15:-1 16:-1 17:-1 18:-1 19:-1 20:-1 21:-1 
2 1:-0.5 2:-0.864407 3:-0.806061 4:-1 5:-1 6:-1 7:-1 8:-1 9:-1 10:-1 11:-1 12:-1 13:-1 14:-1 15:-1 16:-1 17:-1 18:-1 19:-1 20:-1 21:-1 
2 2:-0.59322 3:-0.515152 4:-0.289941 5:-1 6:-1 7:-1 8:-1 9:-1 10:-1 11:-1 12:-1 13:-1 14:-1 15:-1 16:-1 17:-1 18:-1 19:-1 20:-1 21:-1 
2 1:-1 2:-1 3:-0.919192 4:-0.881657 5:-0.806061 6:-1 7:-1 8:-1 9:-1 10:-1 11:-1 12:-1 13:-1 14:-1 15:-1 16:-1 17:-1 18:-1 19:-1 20:-1 21:-1 
2 1:-1 2:-1 3:-1 4:-1 5:-1 6:-1 7:-1 8:-1 9:-1 10:-1 11:-1 12:-1 13:-1 14:-1 15:-1 16:-1 17:-1 18:-1 19:-1 20:-1 21:-1 
1.3125775777844952 1:-1 2:-0.389831 3:-0.757576 4:-0.64497 5:-0.892256 6:-0.59322 7:-0.225 8:-1 9:-1 10:-1 11:-1 12:-1 13:-1 14:-1 15:-1 16:-1 17:-1 18:-1 19:-1 20:-1 21:-1 
2 2:-0.59322 3:-0.515152 4:-0.289941 5:-1 6:-1 7:-1 8:-1 9:-1 10:-1 11:-1 12:-1 13:-1 14:-1 15:-1 16:-1 17:-1 18:-1 19:-1 20:-1 21:-1 
2 1:-1 2:-1 3:-1 4:-1 5:-1 6:-1 7:-1 8:-1 9:-1 10:-1 11:-1 12:-1 13:-1 14:-1 15:-1 16:-1 17:-1 18:-1 19:-1 20:-1 21:-1 
2 1:-1 2:-1 3:-1 4:-1 5:-1 6:-1 7:-1 8:-1 9:-1 10:-1 11:-1 12:-1 13:-1 14:-1 15:-1 16:-1 17:-1 18:-1 19:-1 20:-1 21:-1 
2 1:-1 2:-1 3:-0.89899 4:-1 5:-0.569024 6:-1 7:-0.916667 8:-0.705341 9:-1 10:-0.755102 11:-1 12:-1 13:-1 14:-1 15:-1 16:-1 17:-1 18:-1 19:-1 20:-1 21:-1 
2 1:-1 2:-1 3:-1 4:-1 5:-1 6:-1 7:-1 8:-1 9:-1 10:-1 11:-1 12:-1 13:-1 14:-1 15:-1 16:-1 17:-1 18:-1 19:-1 20:-1 21:-1 
2 1:-1 2:-1 3:-0.757576 4:-0.64497 5:-1 6:-1 7:-1 8:-1 9:-1 10:-1 11:-1 12:-1 13:-1 14:-1 15:-1 16:-1 17:-1 18:-1 19:-1 20:-1 21:-1 
2 1:-0.833333 2:-0.59322 3:-1 4:-1 5:-1 6:-1 7:-0.916667 8:-0.543278 9:-1 10:-0.755102 11:-0.724138 12:-1 13:-1 14:-1 15:-1 16:-1 17:-1 18:-1 19:-1 20:-1 21:-1 
2 1:-1 2:-0.186441 3:-0.757576 4:-0.289941 5:-0.676768 6:-0.213559 7:-1 8:-1 9:-1 10:-1 11:-1 12:-1 13:-1 14:-1 15:-1 16:-1 17:-1 18:-1 19:-1 20:-1 21:-1 
1.65672076884209 1:-1 2:-0.59322 3:-1 4:-0.289941 5:-1 6:0.220339 7:-0.75 8:-0.337017 9:-0.25 10:-1 11:-1 12:-1 13:-1 14:-1 15:-1 16:-1 17:-1 18:-1 19:-1 20:-1 21:-1 
2 1:-1 2:-1 3:-1 4:-1 5:-1 6:-1 7:-1 8:-1 9:-1 10:-1 11:-1 12:-1 13:-1 14:-1 15:-1 16:-1 17:-1 18:-1 19:-1 20:-1 21:-1 
1.1252237577818025 1:-0.5 2:-0.389831 3:-0.757576 4:-0.372781 5:-0.892256 6:-1 7:-1 8:-1 9:-1 10:-1 11:-1 12:-1 13:-1 14:-1 15:-1 16:-1 17:-1 18:-1 19:-1 20:-1 21:-1 
2 1:-0.25 2:-0.59322 3:-0.636364 4:-1 5:-1 6:-1 7:-0.75 8:-1 9:-1 10:-1 11:-1 12:-1 13:-1 14:-1 15:-1 16:-1 17:-1 18:-1 19:-1 20:-1 21:-1 
2 1:-1 2:-1 3:-1 4:-1 5:-1 6:-1 7:-1 8:-1 9:-1 10:-1 11:-1 12:-1 13:-1 14:-1 15:-1 16:-1 17:-1 18:-1 19:-1 20:-1 21:-1 
2 1:-0.833333 2:-0.864407 3:-1 4:-1 5:-0.892256 6:-0.823729 7:-1 8:-1 9:-1 10:-1 11:-1 12:-1 13:-1 14:-1 15:-1 16:-1 17:-1 18:-1 19:-1 20:-1 21:-1 
2 1:-1 2:-1 3:-0.757576 4:-1 5:-0.676768 6:-0.59322 7:-1 8:-1 9:-1 10:-1 11:-1 12:-1 13:-1 14:-1 15:-1 16:-1 17:-1 18:-1 19:-1 20:-1 21:-1 
2 1:-1 2:-1 3:-0.919192 4:-0.881657 5:-0.806061 6:-1 7:-1 8:-1 9:-1 10:-1 11:-1 12:-1 13:-1 14:-1 15:-1 16:-1 17:-1 18:-1 19:-1 20:-1 21:-1 
2 1:-1 2:-1 3:-0.919192 4:-0.881657 5:-0.806061 6:-1 7:-1 8:-1 9:-1 10:-1 11:-1 12:-1 13:-1 14:-1 15:-1 16:-1 17:-1 18:-1 19:-1 20:-1 21:-1 
2 1:-1 2:-1 3:-1 4:-1 5:-1 6:-1 7:-1 8:-1 9:-1 10:-1 11:-1 12:-1 13:-1 14:-1 15:-1 16:-1 17:-1 18:-1 19:-1 20:-1 21:-1 
2 1:-1 2:-1 3:-1 4:-1 5:-1 6:-1 7:-1 8:-1 9:-1 10:-1 11:-1 12:-1 13:-1 14:-1 15:-1 16:-1 17:-1 18:-1 19:-1 20:-1 21:-1 
2 1:-1 2:-1 3:-0.919192 4:-0.881657 5:-0.806061 6:-1 7:-1 8:-1 9:-1 10:-1 11:-1 12:-1 13:-1 14:-1 15:-1 16:-1 17:-1 18:-1 19:-1 20:-1 21:-1 
2 1:-1 2:-1 3:-1 4:-1 5:-1 6:-1 7:-1 8:-1 9:-1 10:-1 11:-1 12:-1 13:-1 14:-1 15:-1 16:-1 17:-1 18:-1 19:-1 20:-1 21:-1 
2 1:-1 2:-1 3:-1 4:-1 5:-1 6:-1 7:-1 8:-1 9:-1 10:-1 11:-1 12:-1 13:-1 14:-1 15:-1 16:-1 17:-1 18:-1 19:-1 20:-1 21:-1 
2 1:-1 2:-1 3:-1 4:-1 5:-1 6:-1 7:-1 8:-1 9:-1 10:-1 11:-1 12:-1 13:-1 14:-1 15:-1 16:-1 17:-1 18:-1 19:-1 20:-1 21:-1 
2 1:-1 2:-1 3:-0.919192 4:-0.881657 5:-0.806061 6:-1 7:-1 8:-1 9:-1 10:-1 11:-1 12:-1 13:-1 14:-1 15:-1 16:-1 17:-1 18:-1 19:-1 20:-1 21:-1 
1.8300751331098215 2:-0.59322 3:-0.515152 4:-1 5:-0.892256 6:-1 7:-0.375 8:-0.779006 9:-1 10:-0.387755 11:-1 12:-1 13:-1 14:-1 15:-1 16:-1 17:-1 18:-1 19:-1 20:-1 21:-1 
2 1:-1 2:-1 3:-1 4:-1 5:-1 6:-1 7:-1 8:-1 9:-1 10:-1 11:-1 12:-1 13:-1 14:-1 15:-1 16:-1 17:-1 18:-1 19:-1 20:-1 21:-1 
1.6363533850377827 1:-1 2:-0.389831 3:-0.757576 4:-0.64497 5:-1 6:-1 7:-0.25 8:-0.779006 9:-0.75 10:-0.265306 11:-1 12:-1 13:-1 14:-1 15:-1 16:-1 17:-1 18:-1 19:-1 20:-1 21:-1 
2 1:-1 2:-1 3:-1 4:-1 5:-1 6:-1 7:-1 8:-1 9:-1 10:-1 11:-1 12:-1 13:-1 14:-1 15:-1 16:-1 17:-1 18:-1 19:-1 20:-1 21:-1 
2 1:-1 2:-1 3:-1 4:-1 5:-1 6:-1 7:-1 8:-1 9:-1 10:-1 11:-1 12:-1 13:-1 14:-1 15:-1 16:-1 17:-1 18:-1 19:-1 20:-1 21:-1 
2 1:-1 2:-1 3:-0.919192 4:-0.881657 5:-0.806061 6:-1 7:-1 8:-1 9:-1 10:-1 11:-1 12:-1 13:-1 14:-1 15:-1 16:-1 17:-1 18:-1 19:-1 20:-1 21:-1 
1.1174365895888823 1:-0.5 2:-0.389831 3:-1 4:0.0650888 5:-0.676768 6:0.220339 7:-0.25 8:-0.668508 9:-1 10:-1 11:-1 12:-1 13:-1 14:-1 15:-1 16:-1 17:-1 18:-1 19:-1 20:-1 21:-1 
2 1:-0.5 2:-1 3:-0.878788 4:-1 5:-1 6:-1 7:-0.916667 8:-1 9:-1 10:-1 11:-1 12:-1 13:-1 14:-1 15:-1 16:-1 17:-1 18:-1 19:-1 20:-1 21:-1 
2 1:-0.25 2:-0.59322 3:-0.636364 4:-1 5:-1 6:-1 7:-1 8:-1 9:-1 10:-1 11:-1 12:-1 13:-1 14:-1 15:-1 16:-1 17:-1 18:-1 19:-1 20:-1 21:-1 
2 1:-1 2:-1 3:-1 4:-1 5:-1 6:-1 7:-1 8:-1 9:-1 10:-1 11:-1 12:-1 13:-1 14:-1 15:-1 16:-1 17:-1 18:-1 19:-1 20:-1 21:-1 
2 1:-1 2:-0.254237 3:-0.757576 4:-0.64497 5:-0.407407 6:-1 7:-1 8:-1 9:-1 10:-1 11:-1 12:-1 13:-1 14:-1 15:-1 16:-1 17:-1 18:-1 19:-1 20:-1 21:-1 
2 1:0.25 2:-0.59322 3:-0.393939 4:-1 5:-0.515152 6:-1 7:-1 8:-0.779006 9:-1 10:-1 11:-1 12:-1 13:-1 14:-1 15:-1 16:-1 17:-1 18:-1 19:-1 20:-1 21:-1 
2 1:-1 2:-0.864407 3:-1 4:-0.313609 5:-0.676768 6:-0.59322 7:-0.75 8:-0.572744 9:-1 10:-1 11:-1 12:-1 13:-1 14:-1 15:-1 16:-1 17:-1 18:-1 19:-1 20:-1 21:-1 
1.9940488618290404 1:-0.708333 2:-1 3:-1 4:-0.64497 5:-1 6:-1 7:-0.75 8:-0.926335 9:-0.75 10:-0.559184 11:-1 12:-1 13:-1 14:-1 15:-1 16:-1 17:-1 18:-1 19:-1 20:-1 21:-1 
2 1:-0.833333 2:-0.864407 3:-0.919192 4:-1 5:-1 6:-1 7:-1 8:-1 9:-1 10:-1 11:-1 12:-1 13:-1 14:-1 15:-1 16:-1 17:-1 18:-1 19:-1 20:-1 21:-1 
2 1:-1 2:-1 3:-1 4:-1 5:-1 6:-1 7:-1 8:-1 9:-1 10:-1 11:-1 12:-1 13:-1 14:-1 15:-1 16:-1 17:-1 18:-1 19:-1 20:-1 21:-1 
2 1:-1 2:-1 3:-1 4:-1 5:-1 6:-1 7:-1 8:-1 9:-1 10:-1 11:-1 12:-1 13:-1 14:-1 15:-1 16:-1 17:-1 18:-1 19:-1 20:-1 21:-1 
2 1:-1 2:-1 3:-1 4:-1 5:-1 6:-1 7:-1 8:-1 9:-1 10:-1 11:-1 12:-1 13:-1 14:-1 15:-1 16:-1 17:-1 18:-1 19:-1 20:-1 21:-1 
2 1:-0.6 2:-0.186441 3:-0.757576 4:-0.289941 5:-1 6:-1 7:-1 8:-1 9:-1 10:-1 11:-1 12:-1 13:-1 14:-1 15:-1 16:-1 17:-1 18:-1 19:-1 20:-1 21:-1 
0.61974188195978874 1:-0.5 2:-0.864407 3:-1 4:-0.64497 5:-1 6:-1 7:-1 8:-1 9:-1 10:-1 11:-1 12:-1 13:-1 14:-1 15:-1 16:-1 17:-1 18:-1 19:-1 20:-1 21:-1 
1.6185901094171866 1:-0.5 2:-0.59322 3:-1 4:-1 5:-0.36431 6:-1 7:-1 8:-0.779006 9:-0.75 10:-0.755102 11:-0.724138 12:-1 13:-1 14:-1 15:-1 16:-1 17:-1 18:-1 19:-1 20:-1 21:-1 
2 1:-1 2:-1 3:-1 4:-1 5:-1 6:-1 7:-1 8:-1 9:-1 10:-1 11:-1 12:-1 13:-1 14:-1 15:-1 16:-1 17:-1 18:-1 19:-1 20:-1 21:-1 
1.2549392667868009 1:-1 2:-1 3:-0.757576 4:-0.64497 5:-1 6:-0.59322 7:-0.75 8:-0.779006 9:-0.75 10:-0.363265 11:-0.724138 12:-1 13:-1 14:-1 15:-1 16:-1 17:-1 18:-1 19:-1 20:-1 21:-1 
1.7588586736999323 1:-0.833333 2:-0.59322 3:-0.806061 4:-0.112426 5:-0.676768 6:0.0169492 7:-0.375 8:-1 9:-1 10:-1 11:-1 12:-1 13:-1 14:-1 15:-1 16:-1 17:-1 18:-1 19:-1 20:-1 21:-1 
2 1:-1 2:-0.566102 3:-0.919192 4:-0.64497 5:-1 6:-1 7:-1 8:-1 9:-1 10:-1 11:-1 12:-1 13:-1 14:-1 15:-1 16:-1 17:-1 18:-1 19:-1 20:-1 21:-1 
2 1:-1 2:-1 3:-1 4:-1 5:-1 6:-1 7:-1 8:-1 9:-1 10:-1 11:-1 12:-1 13:-1 14:-1 15:-1 16:-1 17:-1 18:-1 19:-1 20:-1 21:-1 
2 1:-1 2:-1 3:-1 4:-1 5:-1 6:-1 7:-1 8:-1 9:-1 10:-1 11:-1 12:-1 13:-1 14:-1 15:-1 16:-1 17:-1 18:-1 19:-1 20:-1 21:-1 
0.10210234873615448 1:-1 2:-0.59322 3:-1 4:-0.467456 5:-1 6:-1 7:-1 8:-1 9:-1 10:-1 11:-1 12:-1 13:-1 14:-1 15:-1 16:-1 17:-1 18:-1 19:-1 20:-1 21:-1 
0.82420812703362878 1:-0.3 2:-1 3:-0.515152 4:-0.64497 5:-0.353535 6:-1 7:-1 8:-1 9:-1 10:-1 11:-1 12:-1 13:-1 14:-1 15:-1 16:-1 17:-1 18:-1 19:-1 20:-1 21:-1 
2 1:-1 2:-1 3:-1 4:-1 5:-1 6:-1 7:-1 8:-1 9:-1 10:-1 11:-1 12:-1 13:-1 14:-1 15:-1 16:-1 17:-1 18:-1 19:-1 20:-1 21:-1 
2 1:-1 2:-1 3:-0.919192 4:-1 5:-1 6:-0.59322 7:-1 8:-1 9:-1 10:-1 11:-1 12:-1 13:-1 14:-1 15:-1 16:-1 17:-1 18:-1 19:-1 20:-1 21:-1 
2 1:-1 2:-1 3:-0.757576 4:-0.360947 5:-0.676768 6:-1 7:-1 8:-1 9:-1 10:-1 11:-1 12:-1 13:-1 14:-1 15:-1 16:-1 17:-1 18:-1 19:-1 20:-1 21:-1 
1.5569907861343999 1:-0.53125 2:0.389831 3:-1 4:-1 5:-0.892256 6:0.823729 7:-0.75 8:-1 10:-1 11:-1 12:-0.265306 13:-1 14:-0.719626 15:-1 16:-1 17:-1 18:-1 19:-1 20:-1 21:-1 
2 1:-1 2:-0.864407 3:-0.919192 4:-0.64497 5:-0.676768 6:-0.59322 7:-1 8:-1 9:-1 10:-1 11:-1 12:-1 13:-1 14:-1 15:-1 16:-1 17:-1 18:-1 19:-1 20:-1 21:-1 
2 1:-1 2:-0.674576 3:-1 4:-0.64497 5:-1 6:-0.864407 7:-0.55 8:-1 9:-1 10:-1 11:-1 12:-1 13:-1 14:-1 15:-1 16:-1 17:-1 18:-1 19:-1 20:-1 21:-1 
1.5464170115661779 1:-0.5 2:-0.59322 3:-0.757576 4:-1 5:-1 6:-1 7:-0.75 8:-0.779006 9:-0.75 10:-0.755102 11:-1 12:-1 13:-1 14:-1 15:-1 16:-1 17:-1 18:-1 19:-1 20:-1 21:-1 
2 1:-1 2:-1 3:-1 4:-1 5:-1 6:-1 7:-1 8:-1 9:-1 10:-1 11:-1 12:-1 13:-1 14:-1 15:-1 16:-1 17:-1 18:-1 19:-1 20:-1 21:-1 
2 1:-1 2:0.0169492 3:-0.757576 4:-0.112426 5:-1 6:-1 7:-1 8:-1 9:-1 10:-1 11:-1 12:-1 13:-1 14:-1 15:-1 16:-1 17:-1 18:-1 19:-1 20:-1 21:-1 
2 1:-1 2:-1 3:-1 4:-1 5:-1 6:-1 7:-1 8:-1 9:-1 10:-1 11:-1 12:-1 13:-1 14:-1 15:-1 16:-1 17:-1 18:-1 19:-1 20:-1 21:-1 
2 1:-1 2:-1 3:-1 4:-1 5:-1 6:-1 7:-1 8:-1 9:-1 10:-1 11:-1 12:-1 13:-1 14:-1 15:-1 16:-1 17:-1 18:-1 19:-1 20:-1 21:-1 
2 1:-1 2:-1 3:-0.919192 4:-0.881657 5:-1 6:-1 7:-1 8:-1 9:-1 10:-1 11:-1 12:-1 13:-1 14:-1 15:-1 16:-1 17:-1 18:-1 19:-1 20:-1 21:-1 
2 1:-0.833333 2:-1 3:-0.919192 4:-1 5:-1 6:-1 7:-1 8:-1 9:-1 10:-1 11:-1 12:-1 13:-1 14:-1 15:-1 16:-1 17:-1 18:-1 19:-1 20:-1 21:-1 
2 1:-1 2:-0.864407 3:-1 4:-1 5:-1 6:-1 7:-1 8:-1 9:-1 10:-1 11:-1 12:-1 13:-1 14:-1 15:-1 16:-1 17:-1 18:-1 19:-1 20:-1 21:-1 
2 1:-1 2:-1 3:-1 4:-1 5:-1 6:-1 7:-1 8:-1 9:-1 10:-1 11:-1 12:-1 13:-1 14:-1 15:-1 16:-1 17:-1 18:-1 19:-1 20:-1 21:-1 
1.5073384510016683 1:-1 2:-1 3:-0.757576 4:-0.64497 5:-0.159596 6:-1 7:-0.75 8:-0.779006 9:-0.75 10:-0.755102 11:-0.724138 12:-0.755102 13:-1 14:-1 15:-1 16:-1 17:-1 18:-1 19:-1 20:-1 21:-1 
1.1085747441788258 1:-0.5 2:-1 3:-0.757576 4:-0.218935 5:-0.515152 6:-0.59322 7:-0.75 8:-1 9:-1 10:-1 11:-1 12:-1 13:-1 14:-1 15:-1 16:-1 17:-1 18:-1 19:-1 20:-1 21:-1 
2 2:-0.59322 3:-0.515152 4:-1 5:-0.375084 6:-1 7:-1 8:-1 9:-1 10:-1 11:-1 12:-1 13:-1 14:-1 15:-1 16:-1 17:-1 18:-1 19:-1 20:-1 21:-1 
2 1:-1 2:-1 3:-0.757576 4:-1 5:-0.676768 6:-1 7:-1 8:-1 9:-1 10:-1 11:-1 12:-1 13:-1 14:-1 15:-1 16:-1 17:-1 18:-1 19:-1 20:-1 21:-1 
2 1:-1 2:-1 3:-1 4:-1 5:-1 6:-1 7:-1 8:-1 9:-1 10:-1 11:-1 12:-1 13:-1 14:-1 15:-1 16:-1 17:-1 18:-1 19:-1 20:-1 21:-1 
1.569817709699888 1:-1 2:-0.59322 3:-0.919192 4:-1 5:-0.676768 6:-0.288136 7:-1 8:-0.558011 9:-1 10:-1 11:-1 12:-0.510204 13:-1 14:-1 15:-0.655172 16:-0.894737 17:-0.896373 18:-0.655172 19:-1 20:-1 21:-1 
2 1:-1 2:-1 3:-1 4:-1 5:-1 6:-1 7:-1 8:-1 9:-1 10:-1 11:-1 12:-1 13:-1 14:-1 15:-1 16:-1 17:-1 18:-1 19:-1 20:-1 21:-1 
2 1:-1 2:-1 3:-1 4:-1 5:-1 6:-1 7:-1 8:-1 9:-1 10:-1 11:-1 12:-1 13:-1 14:-1 15:-1 16:-1 17:-1 18:-1 19:-1 20:-1 21:-1 
1.0090264308695329 1:-0.5 2:-0.59322 3:-0.757576 4:-0.467456 5:-1 6:-0.59322 7:-0.45 8:-0.926335 9:-0.75 10:-1 11:-1 12:-0.918367 13:-0.565789 14:-1 15:-1 16:-1 17:-1 18:-1 19:-1 20:-1 21:-1 
1.6245952819909228 1:-1 2:-0.677966 3:-1 4:-0.260355 5:-1 6:-1 7:-1 8:-0.779006 9:-0.479167 10:-1 11:-0.494253 12:-1 13:-0.605263 14:-0.906542 15:-0.655172 16:-1 17:-1 18:-1 19:-1 20:-1 21:-1 
2 1:-1 2:-1 3:-1 4:-0.112426 5:-0.676768 6:0.0169492 7:-1 8:-1 9:-1 10:-1 11:-1 12:-1 13:-1 14:-1 15:-1 16:-1 17:-1 18:-1 19:-1 20:-1 21:-1 
0.82985432209259591 1:-0.5 2:-0.59322 3:-0.369697 4:-1 5:-0.676768 6:-1 7:-1 8:-1 9:-1 10:-1 11:-1 12:-1 13:-1 14:-1 15:-1 16:-1 17:-1 18:-1 19:-1 20:-1 21:-1 
2 1:-1 2:-1 3:-1 4:-1 5:-1 6:-1 7:-1 8:-1 9:-1 10:-1 11:-1 12:-1 13:-1 14:-1 15:-1 16:-1 17:-1 18:-1 19:-1 20:-1 21:-1 
2 1:-1 2:-0.79661 3:-1 4:-0.64497 5:-1 6:-0.59322 7:-1 8:-1 9:-1 10:-1 11:-1 12:-1 13:-1 14:-1 15:-1 16:-1 17:-1 18:-1 19:-1 20:-1 21:-1 
2 1:-1 2:-1 3:-1 4:-1 5:-1 6:-1 7:-1 8:-1 9:-1 10:-1 11:-1 12:-1 13:-1 14:-1 15:-1 16:-1 17:-1 18:-1 19:-1 20:-1 21:-1 
2 1:-1 2:-1 3:-1 4:-1 5:-1 6:-1 7:-1 8:-1 9:-1 10:-1 11:-1 12:-1 13:-1 14:-1 15:-1 16:-1 17:-1 18:-1 19:-1 20:-1 21:-1 
2 1:-1 2:-1 3:-0.757576 4:-1 5:-1 6:-0.674576 7:-1 8:-1 9:-1 10:-1 11:-1 12:-1 13:-1 14:-1 15:-1 16:-1 17:-1 18:-1 19:-1 20:-1 21:-1 
2 1:-1 2:-0.674576 3:-1 4:-0.289941 5:-0.676768 6:-0.186441 7:-1 8:-1 9:-1 10:-1 11:-1 12:-1 13:-1 14:-1 15:-1 16:-1 17:-1 18:-1 19:-1 20:-1 21:-1 
1.5622203116905231 1:-1 2:-0.288136 3:-1 4:-0.64497 5:-0.353535 6:-1 7:-0.75 8:-0.779006 9:-0.5 10:-1 11:-0.724138 12:-0.755102 13:-0.605263 14:-1 15:-1 16:-1 17:-1 18:-1 19:-1 20:-1 21:-1 
2 1:-1 2:-1 3:-1 4:-1 5:-1 6:-1 7:-1 8:-1 9:-1 10:-1 11:-1 12:-1 13:-1 14:-1 15:-1 16:-1 17:-1 18:-1 19:-1 20:-1 21:-1 
2 1:-1 2:-1 3:-0.919192 4:-0.881657 5:-0.806061 6:-1 7:-1 8:-1 9:-1 10:-1 11:-1 12:-1 13:-1 14:-1 15:-1 16:-1 17:-1 18:-1 19:-1 20:-1 21:-1 
2 1:-0.833333 2:-1 3:-0.919192 4:-0.266272 5:-0.676768 6:-1 7:-1 8:-1 9:-1 10:-1 11:-1 12:-1 13:-1 14:-1 15:-1 16:-1 17:-1 18:-1 19:-1 20:-1 21:-1 
1.85384095212962 1:-0.5 2:-0.864407 3:-1 4:-0.881657 5:-0.892256 6:-0.59322 7:-1 8:-1 9:-0.733333 10:-1 11:-1 12:-1 13:-1 14:-1 15:-1 16:-1 17:-1 18:-1 19:-1 20:-1 21:-1 
0.52597328790714604 1:-0.5 2:0.0576271 3:-0.919192 4:-0.881657 5:-0.676768 6:-1 7:-1 8:-1 9:-1 10:-1 11:-1 12:-1 13:-1 14:-1 15:-1 16:-1 17:-1 18:-1 19:-1 20:-1 21:-1 
2 1:-1 2:-1 3:-1 4:-1 5:-1 6:-1 7:-1 8:-1 9:-1 10:-1 11:-1 12:-1 13:-1 14:-1 15:-1 16:-1 17:-1 18:-1 19:-1 20:-1 21:-1 
2 1:-1 2:-1 3:-0.919192 4:-0.881657 5:-0.806061 6:-1 7:-1 8:-1 9:-1 10:-1 11:-1 12:-1 13:-1 14:-1 15:-1 16:-1 17:-1 18:-1 19:-1 20:-1 21:-1 
2 1:-0.6 2:-1 3:-0.515152 4:-0.64497 5:-0.353535 6:-1 7:-1 8:-1 9:-1 10:-1 11:-1 12:-1 13:-1 14:-1 15:-1 16:-1 17:-1 18:-1 19:-1 20:-1 21:-1 
1.567685988231059 1:-1 2:-0.864407 3:-0.919192 4:-0.881657 5:-0.892256 6:-0.0847458 7:-1 8:-1 9:-0.916667 10:-0.142857 11:-0.724138 12:-0.142857 13:0.381579 14:-1 15:-0.885057 16:0.105263 17:-0.689119 18:0.206897 19:-1 20:-1 21:-1 
2 2:-0.59322 3:-0.515152 4:-1 5:-0.375084 6:-1 7:-1 8:-1 9:-1 10:-1 11:-1 12:-1 13:-1 14:-1 15:-1 16:-1 17:-1 18:-1 19:-1 20:-1 21:-1 
2 1:-1 2:-1 3:-1 4:-1 5:-1 6:-1 7:-1 8:-1 9:-1 10:-1 11:-1 12:-1 13:-1 14:-1 15:-1 16:-1 17:-1 18:-1 19:-1 20:-1 21:-1 
2 1:-1 2:-1 3:-0.919192 4:-0.881657 5:-0.806061 6:-1 7:-1 8:-1 9:-1 10:-1 11:-1 12:-1 13:-1 14:-1 15:-1 16:-1 17:-1 18:-1 19:-1 20:-1 21:-1 
2 1:-0.75 2:-1 3:-0.919192 4:-1 5:-0.892256 6:-1 7:-1 8:-0.837937 9:-1 10:-1 11:-1 12:-1 13:-1 14:-1 15:-1 16:-1 17:-1 18:-1 19:-1 20:-1 21:-1 
2 1:-1 2:-1 3:-1 4:-0.349112 5:-0.676768 6:-0.864407 7:-0.541667 8:-1 9:-1 10:-1 11:-1 12:-1 13:-1 14:-1 15:-1 16:-1 17:-1 18:-1 19:-1 20:-1 21:-1 
2 1:-1 2:-1 3:-0.919192 4:-0.881657 5:-0.806061 6:-1 7:-1 8:-1 9:-1 10:-1 11:-1 12:-1 13:-1 14:-1 15:-1 16:-1 17:-1 18:-1 19:-1 20:-1 21:-1 
2 2:-1 3:-0.757576 4:-0.289941 5:-1 6:-0.59322 7:-1 8:-1 9:-1 10:-1 11:-1 12:-1 13:-1 14:-1 15:-1 16:-1 17:-1 18:-1 19:-1 20:-1 21:-1 
2 1:-0.666667 2:-0.728814 3:-0.838384 4:-1 5:-1 6:-1 7:-1 8:-1 9:-1 10:-1 11:-1 12:-1 13:-1 14:-1 15:-1 16:-1 17:-1 18:-1 19:-1 20:-1 21:-1 
1.8539736739749995 1:-0.833333 2:-0.864407 3:-0.757576 4:-1 5:-1 6:-1 7:-1 8:-1 9:-1 10:-1 11:-1 12:-1 13:-1 14:-1 15:-1 16:-1 17:-1 18:-1 19:-1 20:-1 21:-1 
2 1:-1 2:-1 3:-1 4:-1 5:-1 6:-1 7:-1 8:-1 9:-1 10:-1 11:-1 12:-1 13:-1 14:-1 15:-1 16:-1 17:-1 18:-1 19:-1 20:-1 21:-1 
2 1:-1 2:-0.864407 3:-1 4:-0.289941 5:-0.676768 6:-0.186441 7:-1 8:-1 9:-1 10:-1 11:-1 12:-1 13:-1 14:-1 15:-1 16:-1 17:-1 18:-1 19:-1 20:-1 21:-1 
2 1:-1 2:-1 3:-1 4:-1 5:-1 6:-1 7:-1 8:-1 9:-1 10:-1 11:-1 12:-1 13:-1 14:-1 15:-1 16:-1 17:-1 18:-1 19:-1 20:-1 21:-1 
1.1119843831399869 1:-0.5 2:-0.288136 3:-0.393939 4:-0.112426 5:-0.676768 6:-0.288136 7:-1 8:-1 9:-1 10:-1 11:-1 12:-1 13:-1 14:-1 15:-1 16:-1 17:-1 18:-1 19:-1 20:-1 21:-1 
2 1:-1 2:-0.79661 3:-1 4:-1 5:-1 6:-0.59322 7:-0.75 8:-1 9:-1 10:-1 11:-1 12:-1 13:-1 14:-1 15:-1 16:-1 17:-1 18:-1 19:-1 20:-1 21:-1 
2 1:-1 2:-1 3:-1 4:-1 5:-1 6:-1 7:-1 8:-1 9:-1 10:-1 11:-1 12:-1 13:-1 14:-1 15:-1 16:-1 17:-1 18:-1 19:-1 20:-1 21:-1 
1.5834605017668748 1:-0.895833 2:-1 3:-0.818182 4:-1 5:-0.353535 6:-1 7:-1 8:-1 9:-1 10:-0.428571 11:-1 12:-0.918367 13:-0.605263 14:-0.345794 15:-1 16:-1 17:-1 18:-1 19:-1 20:-1 21:-1 
2 1:-1 2:-1 3:-1 4:-1 5:-1 6:-1 7:-1 8:-1 9:-1 10:-1 11:-1 12:-1 13:-1 14:-1 15:-1 16:-1 17:-1 18:-1 19:-1 20:-1 21:-1 
2 1:-0.5 2:-1 3:-0.272727 4:-0.64497 5:-0.030303 6:-1 7:-0.916667 8:-0.337017 9:-1 10:-1 11:-1 12:-1 13:-1 14:-1 15:-1 16:-1 17:-1 18:-1 19:-1 20:-1 21:-1 
0.56579830290872524 1:-0.5 2:-0.898305 3:-0.272727 4:-0.64497 5:-0.030303 6:0.220339 7:-1 8:-1 9:-1 10:-1 11:-1 12:-1 13:-1 14:-1 15:-1 16:-1 17:-1 18:-1 19:-1 20:-1 21:-1 
1.2540822556131377 1:-0.5 2:-0.674576 3:-1 4:-0.64497 5:-0.892256 6:-0.40339 7:-1 8:-1 9:-1 10:-1 11:-1 12:-1 13:-1 14:-1 15:-1 16:-1 17:-1 18:-1 19:-1 20:-1 21:-1 
2 1:-0.75 2:-1 3:-0.757576 4:-1 5:-0.676768 6:-1 7:-1 8:-1 9:-1 10:-1 11:-1 12:-1 13:-1 14:-1 15:-1 16:-1 17:-1 18:-1 19:-1 20:-1 21:-1 
2 1:-1 2:-1 3:-1 4:-1 5:-1 6:-1 7:-1 8:-1 9:-1 10:-1 11:-1 12:-1 13:-1 14:-1 15:-1 16:-1 17:-1 18:-1 19:-1 20:-1 21:-1 
2 1:-1 2:-1 3:-1 4:-1 5:-1 6:-1 7:-1 8:-1 9:-1 10:-1 11:-1 12:-1 13:-1 14:-1 15:-1 16:-1 17:-1 18:-1 19:-1 20:-1 21:-1 
1.3300925961827093 1:0.5 2:-1 3:-0.272727 4:-0.64497 5:-0.676768 6:0.220339 7:-1 8:-1 9:-1 10:-1 11:-1 12:-1 13:-1 14:-1 15:-1 16:-1 17:-1 18:-1 19:-1 20:-1 21:-1 
2 1:-1 2:-1 3:-1 4:-1 5:-1 6:-1 7:-1 8:-1 9:-1 10:-1 11:-1 12:-1 13:-1 14:-1 15:-1 16:-1 17:-1 18:-1 19:-1 20:-1 21:-1 
2 1:-1 2:-1 3:-1 4:-1 5:-1 6:-1 7:-1 8:-1 9:-1 10:-1 11:-1 12:-1 13:-1 14:-1 15:-1 16:-1 17:-1 18:-1 19:-1 20:-1 21:-1 
0.25301017838302736 1:-0.833333 2:-0.59322 3:-1 4:-0.64497 5:-0.676768 6:-1 7:-1 8:-1 9:-1 10:-1 11:-1 12:-1 13:-1 14:-1 15:-1 16:-1 17:-1 18:-1 19:-1 20:-1 21:-1 
1.2403695422849426 1:-0.5 2:0.220339 3:-0.757576 4:-1 5:-1 6:0.220339 7:-1 8:-1 9:-1 10:-1 11:-1 12:-1 13:-1 14:-1 15:-1 16:-1 17:-1 18:-1 19:-1 20:-1 21:-1 
2 1:-0.25 2:-1 3:-0.636364 4:-0.64497 5:-1 6:-1 7:-0.916667 8:-0.779006 9:-1 10:-1 11:-1 12:-1 13:-1 14:-1 15:-1 16:-1 17:-1 18:-1 19:-1 20:-1 21:-1 
2 1:-1 2:-1 3:-1 4:-1 5:-1 6:-1 7:-1 8:-1 9:-1 10:-1 11:-1 12:-1 13:-1 14:-1 15:-1 16:-1 17:-1 18:-1 19:-1 20:-1 21:-1 
1.4036548100074422 1:-0.5 2:-0.59322 3:-1 4:-0.64497 5:-1 6:-0.59322 7:-1 8:-1 9:-1 10:-1 11:-1 12:-1 13:-1 14:-1 15:-1 16:-1 17:-1 18:-1 19:-1 20:-1 21:-1 
2 1:-1 2:-1 3:-0.806061 4:-0.64497 5:-1 6:-0.59322 7:-1 8:-1 9:-1 10:-1 11:-1 12:-1 13:-1 14:-1 15:-1 16:-1 17:-1 18:-1 19:-1 20:-1 21:-1 
2 1:-1 2:-1 3:-0.919192 4:-0.704142 5:-1 6:-1 7:-0.75 8:-0.779006 9:-1 10:-1 11:-1 12:-0.918367 13:-1 14:-1 15:-1 16:-1 17:-1 18:-1 19:-1 20:-1 21:-1 
2 1:-1 2:-1 3:-1 4:-1 5:-1 6:-1 7:-1 8:-1 9:-1 10:-1 11:-1 12:-1 13:-1 14:-1 15:-1 16:-1 17:-1 18:-1 19:-1 20:-1 21:-1 
2 1:-0.6 2:-0.186441 3:-0.757576 4:-0.289941 5:-1 6:-1 7:-1 8:-1 9:-1 10:-1 11:-1 12:-1 13:-1 14:-1 15:-1 16:-1 17:-1 18:-1 19:-1 20:-1 21:-1 
2 1:-1 2:-1 3:-1 4:-1 5:-1 6:-1 7:-1 8:-1 9:-1 10:-1 11:-1 12:-1 13:-1 14:-1 15:-1 16:-1 17:-1 18:-1 19:-1 20:-1 21:-1 
2 1:-1 2:-1 3:-0.806061 4:-1 5:-0.676768 6:-1 7:-1 8:-1 9:-1 10:-1 11:-1 12:-1 13:-1 14:-1 15:-1 16:-1 17:-1 18:-1 19:-1 20:-1 21:-1 
2 1:-1 2:-1 3:-1 4:-1 5:-1 6:-1 7:-1 8:-1 9:-1 10:-1 11:-1 12:-1 13:-1 14:-1 15:-1 16:-1 17:-1 18:-1 19:-1 20:-1 21:-1 
2 1:-1 2:-1 3:-1 4:-0.715976 5:-1 6:-0.59322 7:-1 8:-1 9:-1 10:-1 11:-1 12:-1 13:-1 14:-1 15:-1 16:-1 17:-1 18:-1 19:-1 20:-1 21:-1 
2 1:-1 2:-1 3:-1 4:-1 5:-1 6:-1 7:-1 8:-1 9:-1 10:-1 11:-1 12:-1 13:-1 14:-1 15:-1 16:-1 17:-1 18:-1 19:-1 20:-1 21:-1 
2 1:-1 2:-0.59322 3:-0.757576 4:-0.360947 5:-0.676768 6:-1 7:-1 8:-1 9:-1 10:-1 11:-1 12:-1 13:-1 14:-1 15:-1 16:-1 17:-1 18:-1 19:-1 20:-1 21:-1 
0.94838088229600825 1:-1 2:-0.59322 3:-1 4:-0.881657 5:-0.676768 6:-1 7:-1 8:-1 9:-1 10:-1 11:-1 12:-1 13:-1 14:-1 15:-1 16:-1 17:-1 18:-1 19:-1 20:-1 21:-1 
2 1:-1 2:-0.864407 3:-0.919192 4:-1 5:-1 6:-1 7:-1 8:-1 9:-1 10:-1 11:-1 12:-1 13:-1 14:-1 15:-1 16:-1 17:-1 18:-1 19:-1 20:-1 21:-1 
2 1:-0.6 2:-1 3:-0.515152 4:-1 5:-0.676768 6:-0.186441 7:-1 8:-1 9:-1 10:-1 11:-1 12:-1 13:-1 14:-1 15:-1 16:-1 17:-1 18:-1 19:-1 20:-1 21:-1 
2 1:-1 2:-0.59322 3:-0.563636 4:-0.64497 5:-0.676768 6:-1 7:-1 8:-1 9:-1 10:-1 11:-1 12:-1 13:-1 14:-1 15:-1 16:-1 17:-1 18:-1 19:-1 20:-1 21:-1 
2 1:-1 2:-1 3:-1 4:-1 5:-1 6:-1 7:-1 8:-1 9:-1 10:-1 11:-1 12:-1 13:-1 14:-1 15:-1 16:-1 17:-1 18:-1 19:-1 20:-1 21:-1 
1.2493666070550637 1:-1 2:-0.349153 3:-0.515152 4:-0.881657 5:-0.676768 6:-0.59322 7:-1 8:-1 9:-1 10:-1 11:-1 12:-1 13:-1 14:-1 15:-1 16:-1 17:-1 18:-1 19:-1 20:-1 21:-1 
2 1:-1 2:-1 3:-1 4:-1 5:-1 6:-1 7:-1 8:-1 9:-1 10:-1 11:-1 12:-1 13:-1 14:-1 15:-1 16:-1 17:-1 18:-1 19:-1 20:-1 21:-1 
2 1:-1 2:-1 3:-1 4:-1 5:-1 6:-1 7:-1 8:-1 9:-1 10:-1 11:-1 12:-1 13:-1 14:-1 15:-1 16:-1 17:-1 18:-1 19:-1 20:-1 21:-1 
2 1:-1 2:-0.59322 3:-1 4:-1 5:-0.676768 6:-1 7:-1 8:-1 9:-1 10:-1 11:-1 12:-1 13:-1 14:-1 15:-1 16:-1 17:-1 18:-1 19:-1 20:-1 21:-1 
2 1:-1 2:-0.59322 3:-1 4:-1 5:-0.676768 6:-1 7:-0.75 8:-1 9:-0.916667 10:-0.755102 11:-1 12:-1 13:-1 14:-1 15:-1 16:-1 17:-1 18:-1 19:-1 20:-1 21:-1 
0.39632880662747566 1:-0.5 2:0.0847458 3:-0.919192 4:-0.64497 5:-0.892256 6:0.0847458 7:-1 8:-1 9:-1 10:-1 11:-1 12:-1 13:-1 14:-1 15:-1 16:-1 17:-1 18:-1 19:-1 20:-1 21:-1 
1.8068570092043832 1:-0.833333 2:-0.864407 3:-0.757576 4:-0.64497 5:-1 6:-0.254237 7:-1 8:-1 9:-0.75 10:-0.55102 11:-1 12:-1 13:-1 14:-1 15:-1 16:-1 17:-1 18:-1 19:-1 20:-1 21:-1 
2 1:-0.25 2:-0.59322 3:-0.636364 4:-1 5:-1 6:-1 7:-1 8:-1 9:-1 10:-1 11:-1 12:-1 13:-1 14:-1 15:-1 16:-1 17:-1 18:-1 19:-1 20:-1 21:-1 
1.5052990886499167 1:-1 2:-0.59322 3:-0.692929 4:-0.881657 5:-0.892256 6:-1 7:-1 8:-1 9:-1 10:-1 11:-1 12:-1 13:-1 14:-1 15:-1 16:-1 17:-1 18:-1 19:-1 20:-1 21:-1 
2 1:-0.5 2:-1 3:-1 4:-0.112426 5:-0.676768 6:0.0169492 7:-1 8:-1 9:-1 10:-1 11:-1 12:-1 13:-1 14:-1 15:-1 16:-1 17:-1 18:-1 19:-1 20:-1 21:-1 
2 1:-1 2:-1 3:-1 4:-0.112426 5:-0.676768 6:0.0169492 7:-1 8:-1 9:-1 10:-1 11:-1 12:-1 13:-1 14:-1 15:-1 16:-1 17:-1 18:-1 19:-1 20:-1 21:-1 
2 1:-1 2:-1 3:-1 4:-1 5:-1 6:-1 7:-1 8:-1 9:-1 10:-1 11:-1 12:-1 13:-1 14:-1 15:-1 16:-1 17:-1 18:-1 19:-1 20:-1 21:-1 
2 1:-0.5 2:-0.59322 3:-0.636364 4:-1 5:-0.030303 6:-0.59322 7:-0.25 8:-1 9:-1 10:-1 11:-1 12:-1 13:-1 14:-1 15:-1 16:-1 17:-1 18:-1 19:-1 20:-1 21:-1 
1.5577991578671051 1:-0.133333 2:-1 3:-1 4:0.189349 5:-0.676768 6:0.423729 7:-0.75 8:-0.226519 9:-1 10:-1 11:-0.724138 12:-1 13:-1 14:-1 15:-0.655172 16:-1 17:-1 18:-1 19:-1 20:-1 21:-1 
1.586557752203646 1:-1 2:-0.79661 3:-0.757576 4:-1 5:-0.504377 6:0.0169492 7:-0.75 8:-0.447514 9:-0.375 10:-0.44898 11:-1 12:-0.632653 13:-1 14:-1 15:-0.885057 16:-1 17:-1 18:-1 19:-1 20:-1 21:-1 
2 1:-1 2:-1 3:-1 4:-1 5:-1 6:-1 7:-1 8:-1 9:-1 10:-1 11:-1 12:-1 13:-1 14:-1 15:-1 16:-1 17:-1 18:-1 19:-1 20:-1 21:-1 
2 1:-1 2:-0.525424 3:-1 4:-0.64497 5:-0.622896 6:-1 7:-0.916667 8:-1 9:-0.916667 10:-1 11:-1 12:-1 13:-1 14:-1 15:-1 16:-1 17:-1 18:-1 19:-1 20:-1 21:-1 
2 1:-1 2:-1 3:-1 4:-1 5:-1 6:-1 7:-1 8:-1 9:-1 10:-1 11:-1 12:-1 13:-1 14:-1 15:-1 16:-1 17:-1 18:-1 19:-1 20:-1 21:-1 
2 1:-1 2:-1 3:-1 4:-1 5:-1 6:-1 7:-1 8:-1 9:-1 10:-1 11:-1 12:-1 13:-1 14:-1 15:-1 16:-1 17:-1 18:-1 19:-1 20:-1 21:-1 
1.0044519820472069 1:-1 2:-0.59322 3:-0.757576 4:-0.64497 5:-1 6:-0.59322 7:-1 8:-1 9:-1 10:-1 11:-1 12:-1 13:-1 14:-1 15:-1 16:-1 17:-1 18:-1 19:-1 20:-1 21:-1 
1.690556638438915 1:-0.25 2:-1 3:-0.393939 4:-0.64497 5:-0.191919 6:-1 7:-0.125 8:-1 9:-1 10:-1 11:-1 12:-1 13:-1 14:-1 15:-1 16:-1 17:-1 18:-1 19:-1 20:-1 21:-1 
2 1:-1 2:-1 3:-1 4:-1 5:-1 6:-1 7:-1 8:-1 9:-1 10:-1 11:-1 12:-1 13:-1 14:-1 15:-1 16:-1 17:-1 18:-1 19:-1 20:-1 21:-1 
0.92024717818586244 1:-0.416667 2:-0.864407 3:-0.757576 4:-1 5:-0.36431 6:-1 7:-0.75 8:-1 9:-0.916667 10:-1 11:-1 12:-1 13:-1 14:-1 15:-1 16:-1 17:-1 18:-1 19:-1 20:-1 21:-1 
2 1:-0.533333 2:-1 3:-0.717172 4:-1 5:-1 6:-1 7:-0.916667 8:-1 9:-1 10:-1 11:-1 12:-1 13:-1 14:-1 15:-1 16:-1 17:-1 18:-1 19:-1 20:-1 21:-1 
2 1:-1 2:-1 3:-1 4:-1 5:-1 6:-1 7:-1 8:-1 9:-1 10:-1 11:-1 12:-1 13:-1 14:-1 15:-1 16:-1 17:-1 18:-1 19:-1 20:-1 21:-1 
2 1:-1 2:-1 3:-1 4:-1 5:-1 6:-1 7:-1 8:-1 9:-1 10:-1 11:-1 12:-1 13:-1 14:-1 15:-1 16:-1 17:-1 18:-1 19:-1 20:-1 21:-1 
2 1:-1 2:-1 3:-1 4:-1 5:-1 6:-1 7:-1 8:-1 9:-1 10:-1 11:-1 12:-1 13:-1 14:-1 15:-1 16:-1 17:-1 18:-1 19:-1 20:-1 21:-1 
0.23635667324862666 1:-0.25 2:-1 3:-0.757576 4:-1 5:-1 6:-0.389831 7:-1 8:-1 9:-1 10:-1 11:-1 12:-1 13:-1 14:-1 15:-1 16:-1 17:-1 18:-1 19:-1 20:-1 21:-1 
2 1:-1 2:-1 3:-1 4:-0.881657 5:-0.892256 6:-0.864407 7:-1 8:-1 9:-0.916667 10:-1 11:-1 12:-1 13:-1 14:-1 15:-1 16:-1 17:-1 18:-1 19:-1 20:-1 21:-1 
2 1:-1 2:-1 3:-1 4:-1 5:-1 6:-1 7:-1 8:-1 9:-1 10:-1 11:-1 12:-1 13:-1 14:-1 15:-1 16:-1 17:-1 18:-1 19:-1 20:-1 21:-1 
2 1:-0.5 2:-0.864407 3:-0.531313 4:-0.64497 5:-1 6:-1 7:-1 8:-1 9:-1 10:-1 11:-1 12:-1 13:-1 14:-1 15:-1 16:-1 17:-1 18:-1 19:-1 20:-1 21:-1 
1.5569279136649279 1:-0.875 2:-0.59322 3:-0.636364 4:0.100592 5:-1 6:0.423729 7:-0.75 8:-0.779006 9:-0.125 10:-1 11:-1 12:-1 13:-1 14:-1 15:-1 16:-1 17:-1 18:-1 19:-1 20:-1 21:-1 
2 1:-1 2:-1 3:-0.919192 4:-0.64497 5:-1 6:-1 7:-1 8:-1 9:-1 10:-1 11:-1 12:-1 13:-1 14:-1 15:-1 16:-1 17:-1 18:-1 19:-1 20:-1 21:-1 
2 1:-0.1 2:-0.59322 3:-0.919192 4:-0.64497 5:-1 6:-1 7:-1 8:-1 9:-1 10:-1 11:-1 12:-1 13:-1 14:-1 15:-1 16:-1 17:-1 18:-1 19:-1 20:-1 21:-1 
2 1:-0.916667 2:-1 3:-0.919192 4:-1 5:-0.892256 6:-1 7:-1 8:-1 9:-1 10:-1 11:-1 12:-1 13:-1 14:-1 15:-1 16:-1 17:-1 18:-1 19:-1 20:-1 21:-1 
2 1:-1 2:-0.389831 3:-0.757576 4:-0.467456 5:-1 6:-1 7:-1 8:-1 9:-1 10:-1 11:-1 12:-1 13:-1 14:-1 15:-1 16:-1 17:-1 18:-1 19:-1 20:-1 21:-1 
2 1:-1 2:-1 3:-1 4:-1 5:-1 6:-1 7:-1 8:-1 9:-1 10:-1 11:-1 12:-1 13:-1 14:-1 15:-1 16:-1 17:-1 18:-1 19:-1 20:-1 21:-1 
2 1:-0.5 2:-1 3:-0.757576 4:-1 5:-0.892256 6:-1 7:-0.916667 8:-1 9:-1 10:-0.918367 11:-1 12:-1 13:-1 14:-1 15:-1 16:-1 17:-1 18:-1 19:-1 20:-1 21:-1 
2 1:-1 2:-1 3:-1 4:-1 5:-1 6:-1 7:-1 8:-1 9:-1 10:-1 11:-1 12:-1 13:-1 14:-1 15:-1 16:-1 17:-1 18:-1 19:-1 20:-1 21:-1 
2 1:-0.6 2:-1 3:-0.757576 4:-1 5:-1 6:-1 7:-1 8:-1 9:-1 10:-1 11:-1 12:-1 13:-1 14:-1 15:-1 16:-1 17:-1 18:-1 19:-1 20:-1 21:-1 
2 1:-0.5 2:0.220339 3:-0.757576 4:0.0650888 5:-0.030303 6:-1 7:-1 8:-1 9:-1 10:-1 11:-1 12:-1 13:-1 14:-1 15:-1 16:-1 17:-1 18:-1 19:-1 20:-1 21:-1 
0.57907700469279466 1:-0.366667 2:-1 3:-1 4:-0.207101 5:-0.569024 6:-1 7:-1 8:-1 9:-0.916667 10:-1 11:-1 12:-1 13:-1 14:-1 15:-1 16:-1 17:-1 18:-1 19:-1 20:-1 21:-1 
1.3117331556105229 1:-0.5 2:-1 3:-0.757576 4:-0.313609 5:-0.676768 6:-1 7:-1 8:-1 9:-1 10:-1 11:-1 12:-1 13:-1 14:-1 15:-1 16:-1 17:-1 18:-1 19:-1 20:-1 21:-1 
2 1:-1 2:-1 3:-1 4:-1 5:-1 6:-1 7:-1 8:-1 9:-1 10:-1 11:-1 12:-1 13:-1 14:-1 15:-1 16:-1 17:-1 18:-1 19:-1 20:-1 21:-1 
2 1:-1 2:-1 3:-1 4:-1 5:-1 6:-1 7:-1 8:-1 9:-1 10:-1 11:-1 12:-1 13:-1 14:-1 15:-1 16:-1 17:-1 18:-1 19:-1 20:-1 21:-1 
2 1:-1 2:-1 3:-0.757576 4:-0.360947 5:-0.676768 6:-1 7:-1 8:-1 9:-1 10:-1 11:-1 12:-1 13:-1 14:-1 15:-1 16:-1 17:-1 18:-1 19:-1 20:-1 21:-1 
2 1:-0.958333 2:-1 3:-0.919192 4:-1 5:-0.892256 6:-1 7:-0.916667 8:-1 9:-1 10:-1 11:-1 12:-1 13:-1 14:-1 15:-1 16:-1 17:-1 18:-1 19:-1 20:-1 21:-1 
0.34409316464971207 1:-0.5 2:-0.59322 3:-0.757576 4:-0.313609 5:-1 6:-0.59322 7:-1 8:-1 9:-1 10:-1 11:-1 12:-1 13:-1 14:-1 15:-1 16:-1 17:-1 18:-1 19:-1 20:-1 21:-1 
2 1:-1 2:-1 3:-1 4:-1 5:-1 6:-1 7:-1 8:-1 9:-1 10:-1 11:-1 12:-1 13:-1 14:-1 15:-1 16:-1 17:-1 18:-1 19:-1 20:-1 21:-1 
2 1:-0.833333 2:-1 3:-0.919192 4:-1 5:-1 6:-1 7:-1 8:-1 9:-1 10:-1 11:-1 12:-1 13:-1 14:-1 15:-1 16:-1 17:-1 18:-1 19:-1 20:-1 21:-1 
2 1:-1 2:-0.59322 3:-1 4:-0.64497 5:-0.676768 6:-1 7:-1 8:-0.779006 9:-1 10:-1 11:-1 12:-1 13:-1 14:-1 15:-1 16:-1 17:-1 18:-1 19:-1 20:-1 21:-1 
2 1:-1 2:-1 3:-1 4:-1 5:-1 6:-1 7:-1 8:-1 9:-1 10:-1 11:-1 12:-1 13:-1 14:-1 15:-1 16:-1 17:-1 18:-1 19:-1 20:-1 21:-1 
2 1:-1 2:-1 3:-1 4:-1 5:-1 6:-1 7:-1 8:-1 9:-1 10:-1 11:-1 12:-1 13:-1 14:-1 15:-1 16:-1 17:-1 18:-1 19:-1 20:-1 21:-1 
1.5723631969195015 1:-1 2:-1 3:-0.757576 4:-1 5:-0.892256 6:-0.59322 7:-1 8:-0.60221 9:-1 10:-1 11:-0.310345 12:-1 13:-0.605263 14:-0.906542 15:-0.655172 16:-0.210526 17:-1 18:-1 19:-1 20:-1 21:-1 
1.5907451009444886 1:0.25 2:-0.59322 3:-0.393939 4:-0.112426 5:-1 6:-0.389831 7:-0.75 8:-0.558011 9:-1 10:-1 11:-1 12:-1 13:-1 14:-1 15:-1 16:-1 17:-1 18:-1 19:-1 20:-1 21:-1 
2 1:-0.5 2:-1 3:-0.919192 4:-1 5:-0.892256 6:-1 7:-1 8:-0.926335 9:-0.75 10:-0.755102 11:-1 12:-1 13:-1 14:-1 15:-1 16:-1 17:-1 18:-1 19:-1 20:-1 21:-1 
2 1:-1 2:-1 3:-0.515152 4:-0.64497 5:-0.353535 6:-0.59322 7:-1 8:-1 9:-1 10:-1 11:-1 12:-1 13:-1 14:-1 15:-1 16:-1 17:-1 18:-1 19:-1 20:-1 21:-1 
2 1:-0.75 2:-0.59322 3:-0.878788 4:-1 5:-1 6:-1 7:-1 8:-1 9:-1 10:-1 11:-1 12:-1 13:-1 14:-1 15:-1 16:-1 17:-1 18:-1 19:-1 20:-1 21:-1 
2 1:-0.5 2:-0.864407 3:-0.272727 4:0.0650888 5:-0.676768 6:0.220339 7:-1 8:-1 9:-1 10:-1 11:-1 12:-1 13:-1 14:-1 15:-1 16:-1 17:-1 18:-1 19:-1 20:-1 21:-1 
2 1:-1 2:-0.674576 3:-1 4:-0.64497 5:-0.892256 6:-1 7:-1 8:-1 9:-1 10:-1 11:-1 12:-1 13:-1 14:-1 15:-1 16:-1 17:-1 18:-1 19:-1 20:-1 21:-1 
0.99883682903317605 1:-1 2:-0.59322 3:-0.757576 4:-1 5:-0.676768 6:-0.59322 7:-0.75 8:-0.779006 9:-0.75 10:-0.755102 11:-0.724138 12:-1 13:-1 14:-1 15:-1 16:-1 17:-1 18:-1 19:-1 20:-1 21:-1 
2 1:-1 2:-1 3:-1 4:-0.64497 5:-1 6:-1 7:-1 8:-1 9:-1 10:-1 11:-1 12:-1 13:-1 14:-1 15:-1 16:-1 17:-1 18:-1 19:-1 20:-1 21:-1 
0.75131951029764743 1:-0.5 2:-0.59322 3:-0.644444 4:-1 5:-0.418182 6:-0.59322 7:-1 8:-1 9:-1 10:-1 11:-1 12:-1 13:-1 14:-1 15:-1 16:-1 17:-1 18:-1 19:-1 20:-1 21:-1 
2 1:-1 2:-1 3:-1 4:-1 5:-1 6:-1 7:-1 8:-1 9:-1 10:-1 11:-1 12:-1 13:-1 14:-1 15:-1 16:-1 17:-1 18:-1 19:-1 20:-1 21:-1 
2 1:-0.25 2:-0.59322 3:-0.757576 4:-0.64497 5:-0.515152 6:-1 7:-1 8:-1 9:-1 10:-1 11:-1 12:-1 13:-1 14:-1 15:-1 16:-1 17:-1 18:-1 19:-1 20:-1 21:-1 
1.7098573459874504 1:-0.833333 2:-0.59322 3:-1 4:-0.64497 5:-0.676768 6:-0.267797 7:-0.75 8:-1 9:-1 10:-1 11:-1 12:-1 13:-1 14:-1 15:-1 16:-1 17:-1 18:-1 19:-1 20:-1 21:-1 
1.5698698895735039 1:-1 2:-0.237288 3:-1 4:-0.64497 5:-0.676768 6:0.118644 7:-1 8:-0.447514 9:-0.75 10:-0.326531 11:-1 12:-1 13:-0.0131579 14:-1 15:-0.655172 16:-1 17:-1 18:-1 19:-1 20:-1 21:-1 
1.0010933031083107 1:-0.5 2:-0.349153 3:-1 4:-0.112426 5:-0.676768 6:0.0169492 7:-0.375 8:-1 9:-1 10:-1 11:-1 12:-1 13:-1 14:-1 15:-1 16:-1 17:-1 18:-1 19:-1 20:-1 21:-1 
2 1:-1 2:-1 3:-1 4:-1 5:-1 6:-1 7:-1 8:-1 9:-1 10:-1 11:-1 12:-1 13:-1 14:-1 15:-1 16:-1 17:-1 18:-1 19:-1 20:-1 21:-1 
0.95627266184850745 2:-1 3:-0.515152 4:-1 5:-0.676768 6:-1 7:-0.75 8:-1 9:-1 10:-1 11:-1 12:-1 13:-1 14:-1 15:-1 16:-1 17:-1 18:-1 19:-1 20:-1 21:-1 
2 1:-1 2:-1 3:-1 4:-1 5:-1 6:-1 7:-1 8:-1 9:-1 10:-1 11:-1 12:-1 13:-1 14:-1 15:-1 16:-1 17:-1 18:-1 19:-1 20:-1 21:-1 
1.5912056681909863 1:-1 2:-0.59322 3:-0.919192 4:-1 5:-0.676768 6:-0.661017 7:-1 8:-0.668508 9:-1 10:-1 11:-1 12:-0.755102 13:-0.605263 14:-1 15:0.0689655 16:-1 17:-0.689119 18:-1 19:-1 20:-1 21:-1 
2 1:-0.5 2:-0.79661 3:-1 4:-0.64497 5:-0.676768 6:-1 7:-1 8:-1 9:-1 10:-1 11:-1 12:-1 13:-1 14:-1 15:-1 16:-1 17:-1 18:-1 19:-1 20:-1 21:-1 
1.5678243034866601 1:-1 2:-0.288136 3:-0.0424242 4:-1 5:-0.676768 6:-0.59322 7:-0.3125 8:-1 9:0.225 10:-0.755102 11:-0.172414 12:-1 13:-1 14:-1 15:-1 16:-1 17:-1 18:-1 19:-1 20:-1 21:-1 
2 1:-1 2:-1 3:-0.806061 4:-0.64497 5:-1 6:-1 7:-1 8:-1 9:-1 10:-1 11:-1 12:-1 13:-1 14:-1 15:-1 16:-1 17:-1 18:-1 19:-1 20:-1 21:-1 
2 1:-1 2:-1 3:-1 4:-0.881657 5:-0.676768 6:-0.59322 7:-1 8:-1 9:-1 10:-1 11:-1 12:-1 13:-1 14:-1 15:-1 16:-1 17:-1 18:-1 19:-1 20:-1 21:-1 
2 1:-1 2:-1 3:-1 4:-1 5:-1 6:-1 7:-1 8:-1 9:-1 10:-1 11:-1 12:-1 13:-1 14:-1 15:-1 16:-1 17:-1 18:-1 19:-1 20:-1 21:-1 
2 1:-0.5 2:-0.59322 3:-1 4:-1 5:-0.892256 6:-0.59322 7:-1 8:-1 9:-1 10:-1 11:-1 12:-1 13:-1 14:-1 15:-1 16:-1 17:-1 18:-1 19:-1 20:-1 21:-1 
1.4696925266429612 1:-0.5 2:-1 3:-0.919192 4:-0.337278 5:-0.676768 6:-1 7:-1 8:-1 9:-1 10:-1 11:-1 12:-1 13:-1 14:-1 15:-1 16:-1 17:-1 18:-1 19:-1 20:-1 21:-1 
2 1:-1 2:-1 3:-1 4:-1 5:-1 6:-1 7:-1 8:-1 9:-1 10:-1 11:-1 12:-1 13:-1 14:-1 15:-1 16:-1 17:-1 18:-1 19:-1 20:-1 21:-1 
2 1:-1 2:-0.389831 3:-0.757576 4:-1 5:-0.515152 6:-1 7:-1 8:-1 9:-1 10:-1 11:-1 12:-1 13:-1 14:-1 15:-1 16:-1 17:-1 18:-1 19:-1 20:-1 21:-1 
1.5670049236775261 1:-0.5 2:-0.674576 3:-1 4:-1 5:-0.892256 6:-0.186441 7:-0.75 8:-0.558011 9:-1 10:-1 11:-1 12:-0.918367 13:-0.868421 14:-0.906542 15:-0.678161 16:-1 17:-1 18:-1 19:-1 20:-1 21:-1 
2 1:-1 2:-1 3:-0.806061 4:-0.112426 5:-0.676768 6:0.0169492 7:-0.375 8:-1 9:-1 10:-1 11:-1 12:-1 13:-1 14:-1 15:-1 16:-1 17:-1 18:-1 19:-1 20:-1 21:-1 
2 1:-1 2:-1 3:-1 4:-1 5:-1 6:-1 7:-1 8:-1 9:-1 10:-1 11:-1 12:-1 13:-1 14:-1 15:-1 16:-1 17:-1 18:-1 19:-1 20:-1 21:-1 
1.5613470477275799 1:-0.5 2:-1 3:-1 4:0.213018 5:-0.0841751 6:-0.59322 7:-0.145833 8:0.00184162 9:-1 10:-1 11:-1 12:-1 13:-1 14:-1 15:-1 16:-1 17:-1 18:-1 19:-1 20:-1 21:-1 
1.3764480047715011 1:-0.5 2:-1 3:-0.919192 4:-0.467456 5:-1 6:-0.864407 7:-0.75 8:-0.314917 9:-0.916667 10:-0.755102 11:-0.724138 12:-1 13:-1 14:-1 15:-1 16:-1 17:-1 18:-1 19:-1 20:-1 21:-1 
2 1:-1 2:-1 3:-1 4:-1 5:-1 6:-1 7:-1 8:-1 9:-1 10:-1 11:-1 12:-1 13:-1 14:-1 15:-1 16:-1 17:-1 18:-1 19:-1 20:-1 21:-1 
0.28960294854506546 1:-0.5 2:-0.389831 3:-0.757576 4:-0.822485 5:-0.676768 6:-0.59322 7:-1 8:-0.668508 9:-1 10:-1 11:-1 12:-1 13:-1 14:-1 15:-1 16:-1 17:-1 18:-1 19:-1 20:-1 21:-1 
2 1:-1 2:-0.864407 3:-0.919192 4:-0.668639 5:-1 6:-0.59322 7:-0.75 8:-0.779006 9:-1 10:-1 11:-1 12:-1 13:-1 14:-1 15:-1 16:-1 17:-1 18:-1 19:-1 20:-1 21:-1 
2 1:-1 2:-1 3:-1 4:-1 5:-1 6:-1 7:-1 8:-1 9:-1 10:-1 11:-1 12:-1 13:-1 14:-1 15:-1 16:-1 17:-1 18:-1 19:-1 20:-1 21:-1 
2 2:-0.59322 3:-0.515152 4:-1 5:-0.482828 6:-1 7:-1 8:-1 9:-1 10:-1 11:-1 12:-1 13:-1 14:-1 15:-1 16:-1 17:-1 18:-1 19:-1 20:-1 21:-1 
2 1:-1 2:-1 3:-1 4:-1 5:-1 6:-1 7:-1 8:-1 9:-1 10:-1 11:-1 12:-1 13:-1 14:-1 15:-1 16:-1 17:-1 18:-1 19:-1 20:-1 21:-1 
2 1:-1 2:-1 3:-1 4:-1 5:-1 6:-1 7:-1 8:-1 9:-1 10:-1 11:-1 12:-1 13:-1 14:-1 15:-1 16:-1 17:-1 18:-1 19:-1 20:-1 21:-1 
0.43125931255481814 1:-0.416667 2:-0.0508475 3:-0.757576 4:-0.64497 5:-1 6:0.274576 7:-1 8:-1 9:-1 10:-1 11:-1 12:-1 13:-1 14:-1 15:-1 16:-1 17:-1 18:-1 19:-1 20:-1 21:-1 
1.5002406925537635 1:-0.833333 2:-0.59322 3:-0.515152 4:-0.64497 5:-0.353535 6:-0.186441 7:-1 8:-1 9:-1 10:-1 11:-1 12:-1 13:-1 14:-1 15:-1 16:-1 17:-1 18:-1 19:-1 20:-1 21:-1 
2 1:-0.75 2:-1 3:-0.757576 4:-1 5:-1 6:-0.59322 7:-1 8:-1 9:-1 10:-1 11:-1 12:-1 13:-1 14:-1 15:-1 16:-1 17:-1 18:-1 19:-1 20:-1 21:-1 
2 1:-0.5 2:-0.186441 3:-0.757576 4:-1 5:-0.515152 6:-1 7:-1 8:-1 9:-1 10:-1 11:-1 12:-1 13:-1 14:-1 15:-1 16:-1 17:-1 18:-1 19:-1 20:-1 21:-1 
2 1:-1 2:-1 3:-1 4:-1 5:-1 6:-1 7:-1 8:-1 9:-1 10:-1 11:-1 12:-1 13:-1 14:-1 15:-1 16:-1 17:-1 18:-1 19:-1 20:-1 21:-1 
1.4209042500199514 1:0.2 2:-0.59322 3:-0.030303 4:-1 5:-1 6:-1 7:-1 8:-1 9:-1 10:-0.755102 11:-0.724138 12:-1 13:-1 14:-1 15:-1 16:-1 17:-1 18:-1 19:-1 20:-1 21:-1 
2 1:-1 2:-1 3:-1 4:-1 5:-1 6:-1 7:-1 8:-1 9:-1 10:-1 11:-1 12:-1 13:-1 14:-1 15:-1 16:-1 17:-1 18:-1 19:-1 20:-1 21:-1 
2 1:-0.5 2:-0.59322 3:-1 4:-1 5:-1 6:-0.59322 7:-1 8:-1 9:-1 10:-1 11:-1 12:-1 13:-1 14:-1 15:-1 16:-1 17:-1 18:-1 19:-1 20:-1 21:-1 
2 1:-1 2:-1 3:-1 4:-1 5:-1 6:-1 7:-1 8:-1 9:-1 10:-1 11:-1 12:-1 13:-1 14:-1 15:-1 16:-1 17:-1 18:-1 19:-1 20:-1 21:-1 
2 1:-1 2:-0.538983 3:-0.757576 4:-1 5:-0.676768 6:-1 7:-1 8:-1 9:-1 10:-1 11:-1 12:-1 13:-1 14:-1 15:-1 16:-1 17:-1 18:-1 19:-1 20:-1 21:-1 
1.6771217287029181 1:-0.5 2:0.0576271 3:-0.757576 4:-0.64497 5:-1 6:-1 7:-1 8:-1 9:-1 10:-1 11:-1 12:-1 13:-1 14:-1 15:-1 16:-1 17:-1 18:-1 19:-1 20:-1 21:-1 
2 2:-0.59322 3:-0.515152 4:-1 5:-0.482828 6:-1 7:-1 8:-1 9:-1 10:-1 11:-1 12:-1 13:-1 14:-1 15:-1 16:-1 17:-1 18:-1 19:-1 20:-1 21:-1 
2 1:-1 2:-1 3:-1 4:-1 5:-1 6:-1 7:-1 8:-1 9:-1 10:-1 11:-1 12:-1 13:-1 14:-1 15:-1 16:-1 17:-1 18:-1 19:-1 20:-1 21:-1 
2 1:-1 2:-0.864407 3:-1 4:-1 5:-1 6:-1 7:-1 8:-1 9:-1 10:-1 11:-1 12:-1 13:-1 14:-1 15:-1 16:-1 17:-1 18:-1 19:-1 20:-1 21:-1 
2 1:-1 2:-0.389831 3:-0.757576 4:-0.467456 5:-1 6:-1 7:-1 8:-1 9:-1 10:-1 11:-1 12:-1 13:-1 14:-1 15:-1 16:-1 17:-1 18:-1 19:-1 20:-1 21:-1 
2 1:-0.833333 2:-1 3:-0.757576 4:-1 5:-1 6:-1 7:-1 8:-1 9:-1 10:-1 11:-1 12:-1 13:-1 14:-1 15:-1 16:-1 17:-1 18:-1 19:-1 20:-1 21:-1 
2 1:-1 2:-1 3:-1 4:-1 5:-1 6:-1 7:-1 8:-1 9:-1 10:-1 11:-1 12:-1 13:-1 14:-1 15:-1 16:-1 17:-1 18:-1 19:-1 20:-1 21:-1 
2 1:-1 2:-1 3:-1 4:-1 5:-1 6:-1 7:-1 8:-1 9:-1 10:-1 11:-1 12:-1 13:-1 14:-1 15:-1 16:-1 17:-1 18:-1 19:-1 20:-1 21:-1 
2 1:-1 2:-1 3:-1 4:-1 5:-1 6:-1 7:-1 8:-1 9:-1 10:-1 11:-1 12:-1 13:-1 14:-1 15:-1 16:-1 17:-1 18:-1 19:-1 20:-1 21:-1 
2 2:-0.59322 3:-0.515152 4:-0.289941 5:-1 6:-1 7:-1 8:-1 9:-1 10:-1 11:-1 12:-1 13:-1 14:-1 15:-1 16:-1 17:-1 18:-1 19:-1 20:-1 21:-1 
2 2:-0.59322 3:-0.515152 4:-1 5:-0.375084 6:-1 7:-1 8:-1 9:-1 10:-1 11:-1 12:-1 13:-1 14:-1 15:-1 16:-1 17:-1 18:-1 19:-1 20:-1 21:-1 
2 1:-0.75 2:-1 3:-0.757576 4:-1 5:-1 6:-0.105085 7:-0.75 8:-0.337017 9:-0.75 10:-0.265306 11:-1 12:-1 13:-1 14:-1 15:-1 16:-1 17:-1 18:-1 19:-1 20:-1 21:-1 
2 2:-0.59322 3:-0.515152 4:-0.289941 5:-1 6:-1 7:-1 8:-1 9:-1 10:-1 11:-1 12:-1 13:-1 14:-1 15:-1 16:-1 17:-1 18:-1 19:-1 20:-1 21:-1 
2 1:-1 2:-1 3:-1 4:-1 5:-1 6:-1 7:-1 8:-1 9:-1 10:-1 11:-1 12:-1 13:-1 14:-1 15:-1 16:-1 17:-1 18:-1 19:-1 20:-1 21:-1 
2 1:-0.833333 2:-1 3:-0.919192 4:-1 5:-1 6:-0.484746 7:-1 8:-1 9:-1 10:-1 11:-1 12:-1 13:-1 14:-1 15:-1 16:-1 17:-1 18:-1 19:-1 20:-1 21:-1 
2 1:-0.25 2:-0.59322 3:-0.636364 4:-1 5:-1 6:-1 7:-1 8:-1 9:-1 10:-1 11:-1 12:-1 13:-1 14:-1 15:-1 16:-1 17:-1 18:-1 19:-1 20:-1 21:-1 
2 1:-0.833333 2:-0.59322 3:-1 4:-0.715976 5:-1 6:-0.864407 7:-1 8:-1 9:-1 10:-1 11:-1 12:-1 13:-1 14:-1 15:-1 16:-1 17:-1 18:-1 19:-1 20:-1 21:-1 
2 1:-1 2:-1 3:-0.757576 4:-1 5:-1 6:-0.59322 7:-0.916667 8:-0.926335 9:-0.916667 10:-0.755102 11:-0.724138 12:-1 13:-1 14:-1 15:-1 16:-1 17:-1 18:-1 19:-1 20:-1 21:-1 
1.7596103987880782 1:-0.5 2:-1 3:-0.563636 4:-1 5:-1 6:-0.267797 7:-0.75 8:-1 9:-1 10:-1 11:-1 12:-1 13:-1 14:-1 15:-1 16:-1 17:-1 18:-1 19:-1 20:-1 21:-1 
2 1:-0.833333 2:-1 3:-1 4:-1 5:-1 6:-1 7:-1 8:-1 9:-1 10:-1 11:-1 12:-1 13:-1 14:-1 15:-1 16:-1 17:-1 18:-1 19:-1 20:-1 21:-1 
2 1:-0.833333 2:-1 3:-0.919192 4:-1 5:-1 6:-1 7:-1 8:-1 9:-1 10:-1 11:-1 12:-1 13:-1 14:-1 15:-1 16:-1 17:-1 18:-1 19:-1 20:-1 21:-1 
2 1:-1 2:-1 3:-1 4:-0.905325 5:-1 6:-0.864407 7:-1 8:-1 9:-1 10:-1 11:-1 12:-1 13:-1 14:-1 15:-1 16:-1 17:-1 18:-1 19:-1 20:-1 21:-1 
2 1:-1 2:-1 3:-1 4:-1 5:-1 6:-1 7:-1 8:-1 9:-1 10:-1 11:-1 12:-1 13:-1 14:-1 15:-1 16:-1 17:-1 18:-1 19:-1 20:-1 21:-1 
0.39121357187644595 1:-0.75 2:-0.59322 3:-0.757576 4:-0.64497 5:-1 6:-1 7:-1 8:-1 9:-1 10:-1 11:-1 12:-1 13:-1 14:-1 15:-1 16:-1 17:-1 18:-1 19:-1 20:-1 21:-1 
2 1:-1 2:-1 3:-1 4:-1 5:-1 6:-1 7:-1 8:-1 9:-1 10:-1 11:-1 12:-1 13:-1 14:-1 15:-1 16:-1 17:-1 18:-1 19:-1 20:-1 21:-1 
2 1:-0.833333 2:-1 3:-0.919192 4:-1 5:-1 6:-1 7:-1 8:-1 9:-1 10:-1 11:-1 12:-1 13:-1 14:-1 15:-1 16:-1 17:-1 18:-1 19:-1 20:-1 21:-1 
2 1:-1 2:-1 3:-1 4:-1 5:-1 6:-1 7:-1 8:-1 9:-1 10:-1 11:-1 12:-1 13:-1 14:-1 15:-1 16:-1 17:-1 18:-1 19:-1 20:-1 21:-1 
0.25204509571573824 1:-0.5 2:-0.349153 3:-1 4:-0.289941 5:-0.676768 6:-0.186441 7:-1 8:-1 9:-1 10:-1 11:-1 12:-1 13:-1 14:-1 15:-1 16:-1 17:-1 18:-1 19:-1 20:-1 21:-1 
1.2586646221970372 1:-1 2:-0.59322 3:-1 4:-0.64497 5:-0.676768 6:-0.59322 7:-0.75 8:-0.779006 9:-0.75 10:-1 11:-1 12:-1 13:-1 14:-1 15:-1 16:-1 17:-1 18:-1 19:-1 20:-1 21:-1 
2 1:-1 2:-0.79661 3:-0.757576 4:-0.64497 5:-1 6:-1 7:-1 8:-1 9:-1 10:-1 11:-1 12:-1 13:-1 14:-1 15:-1 16:-1 17:-1 18:-1 19:-1 20:-1 21:-1 
2 1:-0.5 2:-0.59322 3:-1 4:-1 5:-0.676768 6:-1 7:-1 8:-1 9:-1 10:-1 11:-1 12:-1 13:-1 14:-1 15:-1 16:-1 17:-1 18:-1 19:-1 20:-1 21:-1 
1.5678073931981626 1:0.5 2:0.220339 3:-0.919192 4:-0.64497 5:-0.030303 6:0.708475 7:-1 8:-0.558011 9:-0.75 10:-0.510204 11:-1 12:-1 13:-1 14:-1 15:-1 16:-1 17:-1 18:-1 19:-1 20:-1 21:-1 
2 1:-0.833333 2:-0.59322 3:-0.757576 4:-1 5:-1 6:-1 7:-1 8:-1 9:-1 10:-1 11:-1 12:-1 13:-1 14:-1 15:-1 16:-1 17:-1 18:-1 19:-1 20:-1 21:-1 
2 1:-1 2:-1 3:-1 4:-1 5:-1 6:-1 7:-1 8:-1 9:-1 10:-1 11:-1 12:-1 13:-1 14:-1 15:-1 16:-1 17:-1 18:-1 19:-1 20:-1 21:-1 
2 1:-1 2:-1 3:-1 4:-1 5:-1 6:-1 7:-1 8:-1 9:-1 10:-1 11:-1 12:-1 13:-1 14:-1 15:-1 16:-1 17:-1 18:-1 19:-1 20:-1 21:-1 
2 1:-0.5 2:-0.59322 3:-0.806061 4:-1 5:-1 6:-1 7:-1 8:-1 9:-1 10:-1 11:-1 12:-1 13:-1 14:-1 15:-1 16:-1 17:-1 18:-1 19:-1 20:-1 21:-1 
1.4956982733747111 1:-0.5 2:0.444068 3:-0.393939 4:0.242604 5:-0.676768 6:0.444068 7:-1 8:-1 9:-1 10:-1 11:-1 12:-1 13:-1 14:-1 15:-1 16:-1 17:-1 18:-1 19:-1 20:-1 21:-1 
2 1:-1 2:-1 3:-1 4:-1 5:-1 6:-1 7:-1 8:-1 9:-1 10:-1 11:-1 12:-1 13:-1 14:-1 15:-1 16:-1 17:-1 18:-1 19:-1 20:-1 21:-1 
2 1:-1 2:-1 3:-1 4:-1 5:-1 6:-1 7:-1 8:-1 9:-1 10:-1 11:-1 12:-1 13:-1 14:-1 15:-1 16:-1 17:-1 18:-1 19:-1 20:-1 21:-1 
2 1:-1 2:-1 3:-0.757576 4:-1 5:-0.676768 6:-1 7:-1 8:-1 9:-1 10:-1 11:-1 12:-1 13:-1 14:-1 15:-1 16:-1 17:-1 18:-1 19:-1 20:-1 21:-1 
2 1:-1 2:-1 3:-0.838384 4:-1 5:-0.245791 6:-0.59322 7:-0.416667 8:-1 9:-0.916667 10:-1 11:-1 12:-1 13:-1 14:-1 15:-1 16:-1 17:-1 18:-1 19:-1 20:-1 21:-1 
2 1:-0.583333 2:-1 3:-1 4:-1 5:-0.676768 6:-1 7:-0.75 8:-1 9:-1 10:-1 11:-1 12:-1 13:-1 14:-1 15:-1 16:-1 17:-1 18:-1 19:-1 20:-1 21:-1 
2 1:-1 2:-1 3:-1 4:-0.64497 5:-1 6:-0.59322 7:-0.75 8:-1 9:-1 10:-1 11:-1 12:-1 13:-1 14:-1 15:-1 16:-1 17:-1 18:-1 19:-1 20:-1 21:-1 
2 1:-1 2:-1 3:-0.636364 4:-0.64497 5:-0.515152 6:-1 7:-1 8:-1 9:-1 10:-1 11:-1 12:-1 13:-1 14:-1 15:-1 16:-1 17:-1 18:-1 19:-1 20:-1 21:-1 
2 1:-1 2:-1 3:-0.757576 4:-0.881657 5:-0.676768 6:-0.59322 7:-1 8:-1 9:-1 10:-1 11:-1 12:-1 13:-1 14:-1 15:-1 16:-1 17:-1 18:-1 19:-1 20:-1 21:-1 
2 1:-1 2:-1 3:-1 4:-1 5:-1 6:-1 7:-1 8:-1 9:-1 10:-1 11:-1 12:-1 13:-1 14:-1 15:-1 16:-1 17:-1 18:-1 19:-1 20:-1 21:-1 
0.83305368873019636 1:-0.5 2:-1 3:-1 4:-1 5:-1 6:-1 7:-1 8:-1 9:-1 10:-1 11:-1 12:-1 13:-1 14:-1 15:-1 16:-1 17:-1 18:-1 19:-1 20:-1 21:-1 
0.60420922884521822 1:-1 2:-0.59322 3:-0.757576 4:-0.467456 5:-1 6:-0.389831 7:-1 8:-0.779006 9:-1 10:-1 11:-1 12:-1 13:-1 14:-1 15:-1 16:-1 17:-1 18:-1 19:-1 20:-1 21:-1 
2 1:-1 2:-1 3:-1 4:-1 5:-1 6:-1 7:-1 8:-1 9:-1 10:-1 11:-1 12:-1 13:-1 14:-1 15:-1 16:-1 17:-1 18:-1 19:-1 20:-1 21:-1 
1.4321384868040676 1:-1 2:-1 3:-0.806061 4:-0.64497 5:-0.676768 6:-1 7:-0.75 8:-0.779006 9:-0.75 10:-0.755102 11:-0.724138 12:-0.755102 13:-1 14:-1 15:-1 16:-1 17:-1 18:-1 19:-1 20:-1 21:-1 
1.5583905914517995 1:-0.0833333 2:-1 3:-1 4:0.233728 5:-0.676768 6:0.423729 7:-0.75 8:-0.226519 9:-1 10:-1 11:-0.310345 12:-1 13:-1 14:-1 15:-0.137931 16:-0.684211 17:-0.689119 18:-1 19:-1 20:-1 21:-1 
1.6277064551691431 1:-0.5 2:-0.674576 3:-1 4:-1 5:-0.892256 6:-0.40339 7:-0.375 8:-0.779006 9:-0.375 10:-1 11:-1 12:-1 13:-0.868421 14:-0.906542 15:-0.885057 16:-0.705263 17:-1 18:-1 19:-1 20:-1 21:-1 
2 1:-1 2:-1 3:-0.919192 4:-1 5:-1 6:-1 7:-0.916667 8:-1 9:-1 10:-1 11:-1 12:-1 13:-1 14:-1 15:-1 16:-1 17:-1 18:-1 19:-1 20:-1 21:-1 
2 1:-1 2:-1 3:-1 4:-1 5:-1 6:-1 7:-1 8:-1 9:-1 10:-1 11:-1 12:-1 13:-1 14:-1 15:-1 16:-1 17:-1 18:-1 19:-1 20:-1 21:-1 
2 1:-0.833333 2:-1 3:-1 4:-0.881657 5:-1 6:-1 7:-1 8:-1 9:-1 10:-1 11:-1 12:-1 13:-1 14:-1 15:-1 16:-1 17:-1 18:-1 19:-1 20:-1 21:-1 
2 1:-0.25 2:-1 3:-0.757576 4:-0.881657 5:-0.515152 6:-1 7:-1 8:-1 9:-1 10:-1 11:-1 12:-1 13:-1 14:-1 15:-1 16:-1 17:-1 18:-1 19:-1 20:-1 21:-1 
1.5044030922278426 1:-0.5 2:-1 3:-1 4:-0.467456 5:-0.030303 6:-0.59322 7:-0.25 8:-0.337017 9:-0.55 10:-0.706122 11:-0.816092 12:-1 13:-1 14:-1 15:-1 16:-1 17:-1 18:-1 19:-1 20:-1 21:-1 
2 1:-1 2:-0.864407 3:-1 4:-1 5:-1 6:-1 7:-1 8:-1 9:-1 10:-1 11:-1 12:-1 13:-1 14:-1 15:-1 16:-1 17:-1 18:-1 19:-1 20:-1 21:-1 
2 1:-1 2:0.0169492 3:-0.757576 4:-1 5:-0.353535 6:-1 7:-1 8:-1 9:-1 10:-1 11:-1 12:-1 13:-1 14:-1 15:-1 16:-1 17:-1 18:-1 19:-1 20:-1 21:-1 
2 1:-0.25 2:-0.59322 3:-0.636364 4:-1 5:-1 6:-1 7:-1 8:-1 9:-1 10:-1 11:-1 12:-1 13:-1 14:-1 15:-1 16:-1 17:-1 18:-1 19:-1 20:-1 21:-1 
1.847208439872619 1:-0.4 2:-0.389831 3:-1 4:-0.64497 5:-1 6:-1 7:-1 8:-1 9:-1 10:-1 11:-1 12:-1 13:-1 14:-1 15:-1 16:-1 17:-1 18:-1 19:-1 20:-1 21:-1 
2 1:-1 2:-1 3:-1 4:-1 5:-1 6:-1 7:-1 8:-1 9:-1 10:-1 11:-1 12:-1 13:-1 14:-1 15:-1 16:-1 17:-1 18:-1 19:-1 20:-1 21:-1 
2 1:-0.8 2:-1 3:-1 4:-0.64497 5:-0.418182 6:-1 7:-0.75 8:-1 9:-1 10:-0.755102 11:-1 12:-1 13:-1 14:-1 15:-1 16:-1 17:-1 18:-1 19:-1 20:-1 21:-1 
2 2:-0.59322 3:-0.515152 4:-0.881657 5:-0.375084 6:-1 7:-1 8:-1 9:-1 10:-1 11:-1 12:-1 13:-1 14:-1 15:-1 16:-1 17:-1 18:-1 19:-1 20:-1 21:-1 
2 1:-0.833333 2:-0.864407 3:-1 4:-1 5:-1 6:-0.864407 7:-1 8:-1 9:-1 10:-1 11:-1 12:-1 13:-1 14:-1 15:-1 16:-1 17:-1 18:-1 19:-1 20:-1 21:-1 
0.29670377474625315 1:-1 2:-0.389831 3:-0.757576 4:-0.467456 5:-0.418182 6:-0.59322 7:-1 8:-1 9:-1 10:-1 11:-1 12:-1 13:-1 14:-1 15:-1 16:-1 17:-1 18:-1 19:-1 20:-1 21:-1 
2 1:-0.6 2:-1 3:-0.757576 4:-1 5:-1 6:-1 7:-1 8:-1 9:-1 10:-1 11:-1 12:-1 13:-1 14:-1 15:-1 16:-1 17:-1 18:-1 19:-1 20:-1 21:-1 
2 1:-1 2:-1 3:-1 4:-1 5:-1 6:-1 7:-1 8:-1 9:-1 10:-1 11:-1 12:-1 13:-1 14:-1 15:-1 16:-1 17:-1 18:-1 19:-1 20:-1 21:-1 
2 1:-1 2:-1 3:-1 4:-1 5:-1 6:-1 7:-1 8:-1 9:-1 10:-1 11:-1 12:-1 13:-1 14:-1 15:-1 16:-1 17:-1 18:-1 19:-1 20:-1 21:-1 
2 1:-1 2:-1 3:-1 4:-1 5:-1 6:-1 7:-1 8:-1 9:-1 10:-1 11:-1 12:-1 13:-1 14:-1 15:-1 16:-1 17:-1 18:-1 19:-1 20:-1 21:-1 
2 1:-1 2:-1 3:-1 4:-1 5:-1 6:-1 7:-1 8:-1 9:-1 10:-1 11:-1 12:-1 13:-1 14:-1 15:-1 16:-1 17:-1 18:-1 19:-1 20:-1 21:-1 
1.7395187466584763 1:-0.6 2:-0.186441 3:-0.757576 4:-0.00591716 5:-0.676768 6:-1 7:-1 8:-1 9:-1 10:-1 11:-1 12:-1 13:-1 14:-1 15:-1 16:-1 17:-1 18:-1 19:-1 20:-1 21:-1 
2 1:-1 2:-0.59322 3:-1 4:-1 5:-0.676768 6:-1 7:-1 8:-1 9:-1 10:-1 11:-1 12:-1 13:-1 14:-1 15:-1 16:-1 17:-1 18:-1 19:-1 20:-1 21:-1 
1.4782030409565399 1:-0.625 2:-0.118644 3:-1 4:-1 5:-0.892256 6:0.315254 7:-0.75 8:-1 9:-0.75 10:-1 11:-1 12:-1 13:-1 14:-1 15:-1 16:-1 17:-1 18:-1 19:-1 20:-1 21:-1 
2 2:-0.59322 3:-0.515152 4:-1 5:-0.375084 6:-1 7:-1 8:-1 9:-1 10:-1 11:-1 12:-1 13:-1 14:-1 15:-1 16:-1 17:-1 18:-1 19:-1 20:-1 21:-1 
2 1:-1 2:-0.79661 3:-1 4:-0.64497 5:-1 6:-0.59322 7:-1 8:-1 9:-1 10:-1 11:-1 12:-1 13:-1 14:-1 15:-1 16:-1 17:-1 18:-1 19:-1 20:-1 21:-1 
2 1:-1 2:-1 3:-0.919192 4:-0.881657 5:-0.806061 6:-1 7:-1 8:-1 9:-1 10:-1 11:-1 12:-1 13:-1 14:-1 15:-1 16:-1 17:-1 18:-1 19:-1 20:-1 21:-1 
2 1:-1 2:-0.267797 3:-0.757576 4:-1 5:-1 6:-1 7:-0.916667 8:-0.907919 9:-0.916667 10:-0.918367 11:-0.908046 12:-1 13:-1 14:-1 15:-1 16:-1 17:-1 18:-1 19:-1 20:-1 21:-1 
1.7975669985809215 1:-0.5 2:-0.864407 3:-0.757576 4:-1 5:-1 6:-0.864407 7:-0.35 8:-1 9:-1 10:-1 11:-1 12:-1 13:-1 14:-1 15:-1 16:-1 17:-1 18:-1 19:-1 20:-1 21:-1 
0.80484746030897047 1:-0.5 2:-0.0508475 3:-0.272727 4:-0.64497 5:-0.030303 6:-1 7:-1 8:-1 9:-1 10:-1 11:-1 12:-1 13:-1 14:-1 15:-1 16:-1 17:-1 18:-1 19:-1 20:-1 21:-1 
2 1:-1 2:-1 3:-1 4:-0.881657 5:-0.892256 6:-0.59322 7:-0.75 8:-1 9:-1 10:-1 11:-1 12:-1 13:-1 14:-1 15:-1 16:-1 17:-1 18:-1 19:-1 20:-1 21:-1 
2 1:-1 2:-1 3:-0.919192 4:-0.881657 5:-0.806061 6:-1 7:-1 8:-1 9:-1 10:-1 11:-1 12:-1 13:-1 14:-1 15:-1 16:-1 17:-1 18:-1 19:-1 20:-1 21:-1 
1.567417725246304 1:-0.125 2:-1 3:-0.0909091 4:-1 5:-1 6:0.830508 7:-0.75 8:-0.116022 9:-0.75 10:-0.0204082 11:-1 12:-1 13:-0.407895 14:-1 15:-1 16:-1 17:-0.689119 18:-1 19:-1 20:-1 21:-1 
2 1:-1 2:-1 3:-1 4:-1 5:-1 6:-1 7:-1 8:-1 9:-1 10:-1 11:-1 12:-1 13:-1 14:-1 15:-1 16:-1 17:-1 18:-1 19:-1 20:-1 21:-1 
2 1:-1 2:-1 3:-1 4:-1 5:-1 6:-1 7:-1 8:-1 9:-1 10:-1 11:-1 12:-1 13:-1 14:-1 15:-1 16:-1 17:-1 18:-1 19:-1 20:-1 21:-1 
2 1:-1 2:-1 3:-0.919192 4:-1 5:-0.676768 6:-1 7:-1 8:-1 9:-1 10:-1 11:-1 12:-1 13:-1 14:-1 15:-1 16:-1 17:-1 18:-1 19:-1 20:-1 21:-1 
2 1:-1 2:-1 3:-1 4:-1 5:-1 6:-1 7:-1 8:-1 9:-1 10:-1 11:-1 12:-1 13:-1 14:-1 15:-1 16:-1 17:-1 18:-1 19:-1 20:-1 21:-1 
2 1:-1 2:-1 3:-0.919192 4:-0.881657 5:-0.806061 6:-1 7:-1 8:-1 9:-1 10:-1 11:-1 12:-1 13:-1 14:-1 15:-1 16:-1 17:-1 18:-1 19:-1 20:-1 21:-1 
2 1:-1 2:-1 3:-1 4:-1 5:-1 6:-1 7:-1 8:-1 9:-1 10:-1 11:-1 12:-1 13:-1 14:-1 15:-1 16:-1 17:-1 18:-1 19:-1 20:-1 21:-1 
2 1:-1 2:-0.254237 3:-0.757576 4:-0.349112 5:-1 6:-1 7:-1 8:-1 9:-1 10:-1 11:-1 12:-1 13:-1 14:-1 15:-1 16:-1 17:-1 18:-1 19:-1 20:-1 21:-1 
2 1:-1 2:-1 3:-1 4:-1 5:-1 6:-1 7:-1 8:-1 9:-1 10:-1 11:-1 12:-1 13:-1 14:-1 15:-1 16:-1 17:-1 18:-1 19:-1 20:-1 21:-1 
2 1:-1 2:-0.254237 3:-0.757576 4:-0.349112 5:-1 6:-1 7:-1 8:-1 9:-1 10:-1 11:-1 12:-1 13:-1 14:-1 15:-1 16:-1 17:-1 18:-1 19:-1 20:-1 21:-1 
2 1:-0.75 2:-1 3:-0.919192 4:-0.881657 5:-0.946128 6:-1 7:-0.916667 8:-0.690608 9:-1 10:-1 11:-1 12:-1 13:-1 14:-1 15:-1 16:-1 17:-1 18:-1 19:-1 20:-1 21:-1 
1.0278360308990007 1:0.25 2:-0.59322 3:-1 4:-0.112426 5:-1 6:-1 7:-1 8:-1 9:-1 10:-1 11:-1 12:-1 13:-1 14:-1 15:-1 16:-1 17:-1 18:-1 19:-1 20:-1 21:-1 
2 1:-1 2:-1 3:-1 4:-1 5:-1 6:-1 7:-1 8:-1 9:-1 10:-1 11:-1 12:-1 13:-1 14:-1 15:-1 16:-1 17:-1 18:-1 19:-1 20:-1 21:-1 
2 1:-1 2:-1 3:-1 4:-1 5:-1 6:-1 7:-1 8:-1 9:-1 10:-1 11:-1 12:-1 13:-1 14:-1 15:-1 16:-1 17:-1 18:-1 19:-1 20:-1 21:-1 
2 1:-0.866667 2:-0.864407 3:-0.919192 4:-0.881657 5:-1 6:-1 7:-1 8:-1 9:-1 10:-1 11:-1 12:-1 13:-1 14:-1 15:-1 16:-1 17:-1 18:-1 19:-1 20:-1 21:-1 
2 1:-1 2:-0.837288 3:-1 4:-0.289941 5:-0.676768 6:-0.186441 7:-1 8:-1 9:-1 10:-1 11:-1 12:-1 13:-1 14:-1 15:-1 16:-1 17:-1 18:-1 19:-1 20:-1 21:-1 
2 1:-1 2:-1 3:-0.757576 4:-1 5:-0.676768 6:-1 7:-1 8:-1 9:-1 10:-1 11:-1 12:-1 13:-1 14:-1 15:-1 16:-1 17:-1 18:-1 19:-1 20:-1 21:-1 
2 1:-0.25 2:-0.59322 3:-0.919192 4:-0.467456 5:-1 6:-1 7:-1 8:-1 9:-1 10:-1 11:-1 12:-1 13:-1 14:-1 15:-1 16:-1 17:-1 18:-1 19:-1 20:-1 21:-1 
1.995511331294852 1:-0.5 2:-0.864407 3:-1 4:-0.64497 5:-1 6:-1 7:-1 8:-1 9:-1 10:-1 11:-1 12:-1 13:-1 14:-1 15:-1 16:-1 17:-1 18:-1 19:-1 20:-1 21:-1 
2 1:-1 2:-1 3:-0.919192 4:-0.881657 5:-0.806061 6:-1 7:-1 8:-1 9:-1 10:-1 11:-1 12:-1 13:-1 14:-1 15:-1 16:-1 17:-1 18:-1 19:-1 20:-1 21:-1 
1.8509065289511628 1:-0.5 2:-0.59322 3:-0.393939 4:-0.64497 5:-0.892256 6:0.0169492 7:-1 8:-1 9:-1 10:-1 11:-1 12:-1 13:-1 14:-1 15:-1 16:-1 17:-1 18:-1 19:-1 20:-1 21:-1 
0.99429237094115019 1:-0.375 2:0.0169492 3:-0.757576 4:-0.112426 5:-0.337374 6:-1 7:-0.5 8:-0.779006 9:-0.5 10:-1 11:-1 12:-1 13:-1 14:-1 15:-1 16:-1 17:-1 18:-1 19:-1 20:-1 21:-1 
2 1:-1 2:-1 3:-1 4:-1 5:-1 6:-1 7:-1 8:-1 9:-1 10:-1 11:-1 12:-1 13:-1 14:-1 15:-1 16:-1 17:-1 18:-1 19:-1 20:-1 21:-1 
2 1:-1 2:-0.59322 3:-0.393939 4:-0.64497 5:-0.676768 6:0.0169492 7:-1 8:-1 9:-1 10:-1 11:-1 12:-1 13:-1 14:-1 15:-1 16:-1 17:-1 18:-1 19:-1 20:-1 21:-1 
1.5713336577717667 1:-1 2:-0.288136 3:-1 4:-0.289941 5:-1 6:-0.186441 7:-1 8:-0.226519 9:-0.125 10:-0.755102 11:-0.0344828 12:-1 13:-1 14:-1 15:-1 16:-1 17:-1 18:-1 19:-1 20:-1 21:-1 
2 1:-0.25 2:-0.59322 3:-0.636364 4:-1 5:-1 6:-1 7:-1 8:-1 9:-1 10:-1 11:-1 12:-1 13:-1 14:-1 15:-1 16:-1 17:-1 18:-1 19:-1 20:-1 21:-1 
1.60483646711959 1:-1 2:-0.59322 3:-0.757576 4:-0.289941 5:-0.676768 6:-0.186441 7:-0.5 8:-1 9:-1 10:-1 11:-1 12:-1 13:-1 14:-1 15:-1 16:-1 17:-1 18:-1 19:-1 20:-1 21:-1 
2 2:-0.59322 3:-0.515152 4:-0.289941 5:-1 6:-1 7:-1 8:-1 9:-1 10:-1 11:-1 12:-1 13:-1 14:-1 15:-1 16:-1 17:-1 18:-1 19:-1 20:-1 21:-1 
2 1:-1 2:-1 3:-1 4:-1 5:-1 6:-1 7:-1 8:-1 9:-1 10:-1 11:-1 12:-1 13:-1 14:-1 15:-1 16:-1 17:-1 18:-1 19:-1 20:-1 21:-1 
1.5273291725523885 1:-1 2:-0.59322 3:-0.757576 4:-1 5:-1 6:-0.864407 7:-0.75 8:-0.160221 9:-1 10:-0.632653 11:-0.724138 12:-0.755102 13:-1 14:-1 15:-1 16:-1 17:-1 18:-1 19:-1 20:-1 21:-1 
2 1:-1 2:-1 3:-1 4:-1 5:-1 6:-1 7:-1 8:-1 9:-1 10:-1 11:-1 12:-1 13:-1 14:-1 15:-1 16:-1 17:-1 18:-1 19:-1 20:-1 21:-1 
2 1:-0.6 2:-1 3:-1 4:-0.64497 5:-1 6:-1 7:-1 8:-1 9:-1 10:-1 11:-1 12:-1 13:-1 14:-1 15:-1 16:-1 17:-1 18:-1 19:-1 20:-1 21:-1 
2 1:-1 2:-0.79661 3:-0.878788 4:-0.112426 5:-0.676768 6:0.0169492 7:-1 8:-1 9:-1 10:-1 11:-1 12:-1 13:-1 14:-1 15:-1 16:-1 17:-1 18:-1 19:-1 20:-1 21:-1 
2 1:-1 2:-1 3:-0.919192 4:-0.881657 5:-0.806061 6:-1 7:-1 8:-1 9:-1 10:-1 11:-1 12:-1 13:-1 14:-1 15:-1 16:-1 17:-1 18:-1 19:-1 20:-1 21:-1 
2 1:-1 2:-1 3:-1 4:-1 5:-1 6:-1 7:-1 8:-1 9:-1 10:-1 11:-1 12:-1 13:-1 14:-1 15:-1 16:-1 17:-1 18:-1 19:-1 20:-1 21:-1 
2 1:-0.5 2:-0.59322 3:-0.757576 4:-0.64497 5:-0.892256 6:-0.864407 7:-1 8:-0.779006 9:-1 10:-0.918367 11:-1 12:-0.918367 13:-0.828947 14:-1 15:-1 16:-1 17:-1 18:-1 19:-1 20:-1 21:-1 
2 1:-1 2:-0.674576 3:-0.757576 4:-1 5:-1 6:-1 7:-1 8:-1 9:-1 10:-1 11:-1 12:-1 13:-1 14:-1 15:-1 16:-1 17:-1 18:-1 19:-1 20:-1 21:-1 
2 1:-1 2:-0.864407 3:-0.919192 4:-1 5:-1 6:-1 7:-1 8:-1 9:-1 10:-1 11:-1 12:-1 13:-1 14:-1 15:-1 16:-1 17:-1 18:-1 19:-1 20:-1 21:-1 
2 1:-1 2:-1 3:-0.919192 4:-0.881657 5:-0.806061 6:-1 7:-1 8:-1 9:-1 10:-1 11:-1 12:-1 13:-1 14:-1 15:-1 16:-1 17:-1 18:-1 19:-1 20:-1 21:-1 
1.6978604415783161 1:-0.8125 2:-1 3:-1 4:-1 5:-1 6:-1 7:-1 8:-0.61326 9:-1 10:-0.387755 11:-1 12:-1 13:-0.0131579 14:-1 15:-1 16:-1 17:-0.896373 18:-0.655172 19:-1 20:-1 21:-1 
2 1:-1 2:-1 3:-1 4:-1 5:-1 6:-1 7:-1 8:-1 9:-1 10:-1 11:-1 12:-1 13:-1 14:-1 15:-1 16:-1 17:-1 18:-1 19:-1 20:-1 21:-1 
2 1:-1 2:-1 3:-0.919192 4:-0.597633 5:-0.676768 6:-1 7:-1 8:-1 9:-1 10:-1 11:-1 12:-1 13:-1 14:-1 15:-1 16:-1 17:-1 18:-1 19:-1 20:-1 21:-1 
2 1:-0.958333 2:-1 3:-0.919192 4:-1 5:-0.892256 6:-1 7:-0.916667 8:-1 9:-1 10:-1 11:-1 12:-1 13:-1 14:-1 15:-1 16:-1 17:-1 18:-1 19:-1 20:-1 21:-1 
2 1:-1 2:-1 3:-0.919192 4:-0.881657 5:-0.806061 6:-1 7:-1 8:-1 9:-1 10:-1 11:-1 12:-1 13:-1 14:-1 15:-1 16:-1 17:-1 18:-1 19:-1 20:-1 21:-1 
2 1:-1 2:-1 3:-0.919192 4:-0.881657 5:-0.806061 6:-1 7:-1 8:-1 9:-1 10:-1 11:-1 12:-1 13:-1 14:-1 15:-1 16:-1 17:-1 18:-1 19:-1 20:-1 21:-1 
2 1:-0.5 2:-1 3:-1 4:-1 5:-1 6:-1 7:-1 8:-1 9:-1 10:-1 11:-1 12:-1 13:-1 14:-1 15:-1 16:-1 17:-1 18:-1 19:-1 20:-1 21:-1 
0.62771068255213491 1:-0.5 2:-0.864407 3:-0.692929 4:-0.64497 5:-0.159596 6:-0.59322 7:-1 8:-1 9:-1 10:-1 11:-1 12:-1 13:-1 14:-1 15:-1 16:-1 17:-1 18:-1 19:-1 20:-1 21:-1 
2 1:-1 2:-1 3:-0.919192 4:-0.881657 5:-0.806061 6:-1 7:-1 8:-1 9:-1 10:-1 11:-1 12:-1 13:-1 14:-1 15:-1 16:-1 17:-1 18:-1 19:-1 20:-1 21:-1 
2 1:-0.46875 2:-1 3:-0.742424 4:-1 5:-1 6:-1 7:-0.75 8:-1 9:-0.75 10:-1 11:-0.724138 12:-1 13:-0.868421 14:-1 15:-1 16:-1 17:-1 18:-1 19:-1 20:-1 21:-1 
2 1:-0.866667 2:-1 3:-0.919192 4:-1 5:-0.892256 6:-1 7:-1 8:-1 9:-1 10:-1 11:-1 12:-1 13:-1 14:-1 15:-1 16:-1 17:-1 18:-1 19:-1 20:-1 21:-1 
2 1:-1 2:-1 3:-1 4:-1 5:-1 6:-1 7:-1 8:-1 9:-1 10:-1 11:-1 12:-1 13:-1 14:-1 15:-1 16:-1 17:-1 18:-1 19:-1 20:-1 21:-1 
2 1:-1 2:-1 3:-0.919192 4:-0.881657 5:-0.806061 6:-1 7:-1 8:-1 9:-1 10:-1 11:-1 12:-1 13:-1 14:-1 15:-1 16:-1 17:-1 18:-1 19:-1 20:-1 21:-1 
2 1:-1 2:-1 3:-1 4:-1 5:-1 6:-1 7:-1 8:-1 9:-1 10:-1 11:-1 12:-1 13:-1 14:-1 15:-1 16:-1 17:-1 18:-1 19:-1 20:-1 21:-1 
2 1:-0.5 2:-1 3:-1 4:-1 5:-1 6:-1 7:-1 8:-1 9:-1 10:-1 11:-1 12:-1 13:-1 14:-1 15:-1 16:-1 17:-1 18:-1 19:-1 20:-1 21:-1 
0.3569100477348644 1:-0.5 2:-0.79661 3:-0.757576 4:-1 5:-0.676768 6:-1 7:-0.75 8:-0.779006 9:-0.75 10:-1 11:-1 12:-1 13:-1 14:-1 15:-1 16:-1 17:-1 18:-1 19:-1 20:-1 21:-1 
0.70699599994275686 1:-0.5 2:-0.59322 3:-0.579798 4:-0.526627 5:-1 6:-0.0508475 7:-0.75 8:-0.926335 9:-0.916667 10:-0.836735 11:-1 12:-1 13:-1 14:-1 15:-1 16:-1 17:-1 18:-1 19:-1 20:-1 21:-1 
2 1:-1 2:-0.864407 3:-0.644444 4:-1 5:-0.515152 6:-0.267797 7:-0.75 8:-1 9:-1 10:-1 11:-1 12:-1 13:-1 14:-1 15:-1 16:-1 17:-1 18:-1 19:-1 20:-1 21:-1 
2 1:-1 2:-1 3:-1 4:-1 5:-1 6:-1 7:-1 8:-1 9:-1 10:-1 11:-1 12:-1 13:-1 14:-1 15:-1 16:-1 17:-1 18:-1 19:-1 20:-1 21:-1 
2 1:-0.5 2:-1 3:-1 4:-1 5:-0.353535 6:-0.59322 7:-0.5 8:-1 9:-0.4 10:-1 11:-1 12:-1 13:-1 14:-1 15:-1 16:-1 17:-1 18:-1 19:-1 20:-1 21:-1 
2 1:-1 2:-1 3:-0.757576 4:-0.64497 5:-1 6:-1 7:-1 8:-1 9:-1 10:-1 11:-1 12:-1 13:-1 14:-1 15:-1 16:-1 17:-1 18:-1 19:-1 20:-1 21:-1 
2 1:-1 2:-1 3:-1 4:-1 5:-1 6:-1 7:-1 8:-1 9:-1 10:-1 11:-1 12:-1 13:-1 14:-1 15:-1 16:-1 17:-1 18:-1 19:-1 20:-1 21:-1 
1.3704770863329205 1:-0.5 2:-0.59322 3:-1 4:-0.64497 5:-0.676768 6:-1 7:-1 8:-1 9:-1 10:-1 11:-1 12:-1 13:-1 14:-1 15:-1 16:-1 17:-1 18:-1 19:-1 20:-1 21:-1 
2 1:-1 2:-1 3:-0.979798 4:-1 5:-1 6:-1 7:-1 8:-1 9:-1 10:-1 11:-0.908046 12:-1 13:-0.868421 14:-1 15:-0.885057 16:-0.894737 17:-1 18:-1 19:-1 20:-1 21:-1 
1.4921839263583339 1:-0.5 2:-0.59322 3:-0.757576 4:-1 5:-0.434343 6:-1 7:-1 8:-1 9:-0.916667 10:-0.918367 11:-0.222989 12:-0.755102 13:-1 14:-0.439252 15:-1 16:-0.684211 17:-0.689119 18:-1 19:-1 20:-1 21:-1 
2 1:-0.75 2:-1 3:-1 4:-0.64497 5:-0.676768 6:-0.59322 7:-1 8:-1 9:-1 10:-1 11:-1 12:-1 13:-1 14:-1 15:-1 16:-1 17:-1 18:-1 19:-1 20:-1 21:-1 
2 1:-1 2:-0.864407 3:-1 4:-0.881657 5:-1 6:-0.864407 7:-1 8:-1 9:-1 10:-1 11:-1 12:-1 13:-1 14:-1 15:-1 16:-1 17:-1 18:-1 19:-1 20:-1 21:-1 
0.69107924007132882 1:-0.25 2:-1 3:-0.757576 4:-0.467456 5:-1 6:-0.59322 7:-1 8:-1 9:-1 10:-1 11:-1 12:-1 13:-1 14:-1 15:-1 16:-1 17:-1 18:-1 19:-1 20:-1 21:-1 
2 1:-1 2:-1 3:-1 4:-1 5:-1 6:-1 7:-1 8:-1 9:-1 10:-1 11:-1 12:-1 13:-1 14:-1 15:-1 16:-1 17:-1 18:-1 19:-1 20:-1 21:-1 
1.3487682896560893 1:-0.416667 2:-1 3:-0.717172 4:-1 5:-0.892256 6:-1 7:-1 8:-1 9:-1 10:-1 11:-1 12:-1 13:-1 14:-1 15:-1 16:-1 17:-1 18:-1 19:-1 20:-1 21:-1 
2 1:-1 2:-1 3:-0.757576 4:-0.64497 5:-1 6:-1 7:-1 8:-1 9:-1 10:-1 11:-1 12:-1 13:-1 14:-1 15:-1 16:-1 17:-1 18:-1 19:-1 20:-1 21:-1 
0.18455849477845823 1:-0.6 2:0.0169492 3:-0.393939 4:-0.64497 5:-0.191919 6:-1 7:-1 8:-1 9:-1 10:-1 11:-1 12:-1 13:-1 14:-1 15:-1 16:-1 17:-1 18:-1 19:-1 20:-1 21:-1 
2 1:-1 2:-1 3:-1 4:-1 5:-1 6:-1 7:-1 8:-1 9:-1 10:-1 11:-1 12:-1 13:-1 14:-1 15:-1 16:-1 17:-1 18:-1 19:-1 20:-1 21:-1 
2 1:-1 2:-1 3:-1 4:-1 5:-1 6:-1 7:-1 8:-1 9:-1 10:-1 11:-1 12:-1 13:-1 14:-1 15:-1 16:-1 17:-1 18:-1 19:-1 20:-1 21:-1 
1.5674423125076395 1:-0.5 2:0.627119 3:-0.757576 4:0.420118 5:-0.676768 6:-0.59322 7:-0.75 8:-0.779006 9:-0.75 10:-0.755102 11:0.37931 12:-1 13:-1 14:-1 15:-1 16:-1 17:-1 18:-1 19:-1 20:-1 21:-1 
1.8763389518329274 1:0.1 2:-0.389831 3:-1 4:-1 5:-0.676768 6:-0.59322 7:-1 8:-1 9:-1 10:-1 11:-1 12:-1 13:-1 14:-1 15:-1 16:-1 17:-1 18:-1 19:-1 20:-1 21:-1 
2 1:-1 2:-0.674576 3:-1 4:-0.64497 5:-1 6:-1 7:-1 8:-1 9:-1 10:-1 11:-1 12:-1 13:-1 14:-1 15:-1 16:-1 17:-1 18:-1 19:-1 20:-1 21:-1 
2 1:-1 2:-1 3:-1 4:-1 5:-1 6:-1 7:-1 8:-1 9:-1 10:-1 11:-1 12:-1 13:-1 14:-1 15:-1 16:-1 17:-1 18:-1 19:-1 20:-1 21:-1 
2 1:-1 2:-1 3:-0.919192 4:-0.881657 5:-0.913805 6:-0.864407 7:-0.916667 8:-1 9:-1 10:-1 11:-1 12:-1 13:-1 14:-1 15:-1 16:-1 17:-1 18:-1 19:-1 20:-1 21:-1 
2 1:-0.833333 2:-1 3:-0.919192 4:-1 5:-1 6:-1 7:-1 8:-1 9:-1 10:-1 11:-1 12:-1 13:-1 14:-1 15:-1 16:-1 17:-1 18:-1 19:-1 20:-1 21:-1 
1.400150617985956 1:-0.5 2:-1 3:-1 4:-0.360947 5:-1 6:-0.59322 7:-1 8:-1 9:-1 10:-1 11:-1 12:-1 13:-1 14:-1 15:-1 16:-1 17:-1 18:-1 19:-1 20:-1 21:-1 
2 1:-1 2:-1 3:-0.636364 4:-0.64497 5:-0.515152 6:-1 7:-1 8:-1 9:-1 10:-1 11:-1 12:-1 13:-1 14:-1 15:-1 16:-1 17:-1 18:-1 19:-1 20:-1 21:-1 
2 1:-0.5 2:-1 3:-1 4:-1 5:-1 6:-1 7:-1 8:-1 9:-1 10:-1 11:-1 12:-1 13:-1 14:-1 15:-1 16:-1 17:-1 18:-1 19:-1 20:-1 21:-1 
2 1:-1 2:-1 3:-1 4:-1 5:-1 6:-1 7:-1 8:-1 9:-1 10:-1 11:-1 12:-1 13:-1 14:-1 15:-1 16:-1 17:-1 18:-1 19:-1 20:-1 21:-1 
2 1:-0.833333 2:-0.267797 3:-0.757576 4:-0.64497 5:-1 6:-1 7:-1 8:-1 9:-1 10:-1 11:-1 12:-1 13:-1 14:-1 15:-1 16:-1 17:-1 18:-1 19:-1 20:-1 21:-1 
2 1:-1 2:-1 3:-1 4:-0.349112 5:-0.676768 6:-0.254237 7:-1 8:-1 9:-1 10:-1 11:-1 12:-1 13:-1 14:-1 15:-1 16:-1 17:-1 18:-1 19:-1 20:-1 21:-1 
2 1:-1 2:-1 3:-1 4:-1 5:-1 6:-1 7:-1 8:-1 9:-1 10:-1 11:-1 12:-1 13:-1 14:-1 15:-1 16:-1 17:-1 18:-1 19:-1 20:-1 21:-1 
1.5677759172890311 1:-0.216667 2:-1 3:-1 4:0.281065 5:0.0774411 6:-1 7:-1 8:-1 9:-0.166667 10:-1 11:-1 12:-0.265306 13:-1 14:-0.719626 15:-0.655172 16:-1 17:-1 18:-1 19:-1 20:-1 21:-1 
2 1:-0.833333 2:-0.59322 3:-0.757576 4:-1 5:-0.676768 6:-1 7:-1 8:-1 9:-1 10:-1 11:-1 12:-1 13:-1 14:-1 15:-1 16:-1 17:-1 18:-1 19:-1 20:-1 21:-1 
2 1:-1 2:-1 3:-1 4:-1 5:-1 6:-1 7:-1 8:-1 9:-1 10:-1 11:-1 12:-1 13:-1 14:-1 15:-1 16:-1 17:-1 18:-1 19:-1 20:-1 21:-1 
2 1:-0.5 2:-0.59322 3:-0.757576 4:-1 5:-1 6:-0.864407 7:-1 8:-0.926335 9:-1 10:-0.918367 11:-1 12:-1 13:-1 14:-1 15:-1 16:-1 17:-1 18:-1 19:-1 20:-1 21:-1 
2 1:-1 2:-0.79661 3:-1 4:-0.64497 5:-1 6:-1 7:-1 8:-1 9:-0.75 10:-1 11:-1 12:-1 13:-1 14:-1 15:-1 16:-1 17:-1 18:-1 19:-1 20:-1 21:-1 
2 2:-0.59322 3:-0.515152 4:-0.289941 5:-1 6:-1 7:-1 8:-1 9:-1 10:-1 11:-1 12:-1 13:-1 14:-1 15:-1 16:-1 17:-1 18:-1 19:-1 20:-1 21:-1 
2 1:-1 2:-0.186441 3:-0.757576 4:-0.360947 5:-0.676768 6:-1 7:-1 8:-1 9:-1 10:-1 11:-1 12:-1 13:-1 14:-1 15:-1 16:-1 17:-1 18:-1 19:-1 20:-1 21:-1 
2 1:-1 2:-1 3:-1 4:-1 5:-1 6:-1 7:-1 8:-1 9:-1 10:-1 11:-1 12:-1 13:-1 14:-1 15:-1 16:-1 17:-1 18:-1 19:-1 20:-1 21:-1 
2 1:-0.5 2:-1 3:-1 4:-1 5:-0.676768 6:-0.59322 7:-1 8:-1 9:-1 10:-1 11:-1 12:-1 13:-1 14:-1 15:-1 16:-1 17:-1 18:-1 19:-1 20:-1 21:-1 
2 1:-1 2:-1 3:-0.919192 4:-1 5:-1 6:-1 7:-1 8:-1 9:-0.75 10:-1 11:-1 12:-1 13:-1 14:-1 15:-1 16:-1 17:-1 18:-1 19:-1 20:-1 21:-1 
2 1:-1 2:-1 3:-1 4:-0.64497 5:-1 6:-1 7:-1 8:-1 9:-1 10:-1 11:-1 12:-1 13:-1 14:-1 15:-1 16:-1 17:-1 18:-1 19:-1 20:-1 21:-1 
2 1:-1 2:-1 3:-1 4:-1 5:-1 6:-1 7:-1 8:-1 9:-1 10:-1 11:-1 12:-1 13:-1 14:-1 15:-1 16:-1 17:-1 18:-1 19:-1 20:-1 21:-1 
2 1:-0.5 2:-1 3:-0.515152 4:-1 5:-0.245791 6:-0.59322 7:-0.5 8:-1 9:-1 10:-1 11:-1 12:-1 13:-1 14:-1 15:-1 16:-1 17:-1 18:-1 19:-1 20:-1 21:-1 
2 1:-1 2:-1 3:-1 4:-1 5:-1 6:-1 7:-1 8:-1 9:-1 10:-1 11:-1 12:-1 13:-1 14:-1 15:-1 16:-1 17:-1 18:-1 19:-1 20:-1 21:-1 
1.3481171247089703 1:-0.5 2:-0.349153 3:-1 4:-1 5:-1 6:-0.59322 7:-1 8:-1 9:-1 10:-1 11:-1 12:-1 13:-1 14:-1 15:-1 16:-1 17:-1 18:-1 19:-1 20:-1 21:-1 
2 1:-1 2:-1 3:-0.919192 4:-0.881657 5:-0.806061 6:-1 7:-1 8:-1 9:-1 10:-1 11:-1 12:-1 13:-1 14:-1 15:-1 16:-1 17:-1 18:-1 19:-1 20:-1 21:-1 
2 1:-1 2:-1 3:-1 4:-1 5:-1 6:-1 7:-1 8:-1 9:-1 10:-1 11:-1 12:-1 13:-1 14:-1 15:-1 16:-1 17:-1 18:-1 19:-1 20:-1 21:-1 
2 1:-0.5 2:-0.674576 3:-1 4:-1 5:-1 6:-1 7:-1 8:-1 9:-1 10:-1 11:-1 12:-1 13:-1 14:-1 15:-1 16:-1 17:-1 18:-1 19:-1 20:-1 21:-1 
2 1:-1 2:-0.864407 3:-0.919192 4:-0.64497 5:-1 6:-1 7:-1 8:-1 9:-1 10:-1 11:-1 12:-1 13:-1 14:-1 15:-1 16:-1 17:-1 18:-1 19:-1 20:-1 21:-1 
2 1:-0.833333 2:-0.59322 3:-0.959596 4:-0.881657 5:-0.892256 6:-1 7:-1 8:-1 9:-1 10:-1 11:-1 12:-1 13:-1 14:-1 15:-1 16:-1 17:-1 18:-1 19:-1 20:-1 21:-1 
1.0368600218839374 1:-0.5 2:-0.864407 3:-0.919192 4:-0.881657 5:-0.892256 6:-0.484746 7:-1 8:-0.779006 9:-0.6875 10:-1 11:-0.908046 12:-0.771429 13:-1 14:-1 15:-1 16:-1 17:-1 18:-1 19:-1 20:-1 21:-1 
2 1:-0.6 2:-1 3:-1 4:-0.289941 5:-0.676768 6:-0.186441 7:-1 8:-1 9:-1 10:-1 11:-1 12:-1 13:-1 14:-1 15:-1 16:-1 17:-1 18:-1 19:-1 20:-1 21:-1 
2 1:-1 2:-1 3:-1 4:-1 5:-1 6:-1 7:-1 8:-1 9:-1 10:-1 11:-1 12:-1 13:-1 14:-1 15:-1 16:-1 17:-1 18:-1 19:-1 20:-1 21:-1 
2 1:-0.5 2:-1 3:-1 4:-1 5:-1 6:-1 7:-1 8:-1 9:-1 10:-1 11:-1 12:-1 13:-1 14:-1 15:-1 16:-1 17:-1 18:-1 19:-1 20:-1 21:-1 
2 1:-1 2:-1 3:-0.919192 4:-0.881657 5:-0.806061 6:-1 7:-1 8:-1 9:-1 10:-1 11:-1 12:-1 13:-1 14:-1 15:-1 16:-1 17:-1 18:-1 19:-1 20:-1 21:-1 
1.5666435976411301 1:-0.833333 2:0.0576271 3:-0.757576 4:-0.64497 5:0.131313 6:-0.59322 7:-0.125 8:-0.226519 9:-0.125 10:-1 11:-1 12:-1 13:-1 14:-1 15:-1 16:-1 17:-1 18:-1 19:-1 20:-1 21:-1 
2 1:-1 2:-1 3:-0.919192 4:-0.881657 5:-0.806061 6:-1 7:-1 8:-1 9:-1 10:-1 11:-1 12:-1 13:-1 14:-1 15:-1 16:-1 17:-1 18:-1 19:-1 20:-1 21:-1 
1.5679445944009374 1:-1 2:-0.59322 3:-0.919192 4:-1 5:-0.676768 6:-0.349153 7:-1 8:-0.558011 9:-1 10:-0.755102 11:-1 12:-1 13:-0.210526 14:-1 15:-1 16:-1 17:-1 18:-1 19:-1 20:1 21:-1 
0.43906047194850478 1:-0.6 2:-0.59322 3:-1 4:-1 5:-0.676768 6:-1 7:-1 8:-1 9:-1 10:-1 11:-1 12:-1 13:-1 14:-1 15:-1 16:-1 17:-1 18:-1 19:-1 20:-1 21:-1 
2 1:-1 2:-1 3:-0.919192 4:-0.881657 5:-0.806061 6:-1 7:-1 8:-1 9:-1 10:-1 11:-1 12:-1 13:-1 14:-1 15:-1 16:-1 17:-1 18:-1 19:-1 20:-1 21:-1 
2 1:-1 2:-0.864407 3:-0.919192 4:-1 5:-1 6:-1 7:-1 8:-1 9:-1 10:-1 11:-1 12:-1 13:-1 14:-1 15:-1 16:-1 17:-1 18:-1 19:-1 20:-1 21:-1 
2 1:-1 2:-1 3:-0.919192 4:-0.881657 5:-0.806061 6:-1 7:-1 8:-1 9:-1 10:-1 11:-1 12:-1 13:-1 14:-1 15:-1 16:-1 17:-1 18:-1 19:-1 20:-1 21:-1 
2 1:-1 2:-0.267797 3:-0.757576 4:-0.64497 5:-1 6:-1 7:-1 8:-1 9:-1 10:-1 11:-1 12:-1 13:-1 14:-1 15:-1 16:-1 17:-1 18:-1 19:-1 20:-1 21:-1 
2 1:-0.5 2:-1 3:-1 4:-0.881657 5:-0.676768 6:-0.267797 7:-0.75 8:-1 9:-1 10:-1 11:-1 12:-1 13:-1 14:-1 15:-1 16:-1 17:-1 18:-1 19:-1 20:-1 21:-1 
2 1:-1 2:-1 3:-0.757576 4:-1 5:-0.676768 6:-1 7:-1 8:-1 9:-1 10:-1 11:-1 12:-1 13:-1 14:-1 15:-1 16:-1 17:-1 18:-1 19:-1 20:-1 21:-1 
2 1:-0.5 2:-1 3:-1 4:-1 5:-1 6:-1 7:-1 8:-1 9:-1 10:-1 11:-1 12:-1 13:-1 14:-1 15:-1 16:-1 17:-1 18:-1 19:-1 20:-1 21:-1 
2 1:-1 2:-0.79661 3:-0.757576 4:-0.64497 5:-1 6:-1 7:-1 8:-1 9:-1 10:-1 11:-1 12:-1 13:-1 14:-1 15:-1 16:-1 17:-1 18:-1 19:-1 20:-1 21:-1 
2 1:-1 2:-1 3:-0.919192 4:-0.881657 5:-0.806061 6:-1 7:-1 8:-1 9:-1 10:-1 11:-1 12:-1 13:-1 14:-1 15:-1 16:-1 17:-1 18:-1 19:-1 20:-1 21:-1 
2 1:-1 2:-1 3:-1 4:-1 5:-1 6:-1 7:-1 8:-1 9:-1 10:-1 11:-1 12:-1 13:-1 14:-1 15:-1 16:-1 17:-1 18:-1 19:-1 20:-1 21:-1 
2 1:-1 2:-1 3:-1 4:-1 5:-1 6:-1 7:-1 8:-1 9:-1 10:-1 11:-1 12:-1 13:-1 14:-1 15:-1 16:-1 17:-1 18:-1 19:-1 20:-1 21:-1 
2 1:-1 2:-1 3:-0.757576 4:-0.64497 5:-1 6:-1 7:-1 8:-1 9:-1 10:-1 11:-1 12:-1 13:-1 14:-1 15:-1 16:-1 17:-1 18:-1 19:-1 20:-1 21:-1 
2 1:-1 2:-1 3:-0.919192 4:-0.881657 5:-0.806061 6:-1 7:-1 8:-1 9:-1 10:-1 11:-1 12:-1 13:-1 14:-1 15:-1 16:-1 17:-1 18:-1 19:-1 20:-1 21:-1 
0.73553277854556398 1:-0.5 2:-1 3:-0.757576 4:-1 5:-0.676768 6:-1 7:-0.916667 8:-0.779006 9:-1 10:-1 11:-1 12:-1 13:-1 14:-1 15:-1 16:-1 17:-1 18:-1 19:-1 20:-1 21:-1 
2 1:-1 2:-1 3:-0.919192 4:-0.881657 5:-0.806061 6:-1 7:-1 8:-1 9:-1 10:-1 11:-1 12:-1 13:-1 14:-1 15:-1 16:-1 17:-1 18:-1 19:-1 20:-1 21:-1 
2 1:-1 2:-1 3:-1 4:-1 5:-1 6:-1 7:-1 8:-1 9:-1 10:-1 11:-1 12:-1 13:-1 14:-1 15:-1 16:-1 17:-1 18:-1 19:-1 20:-1 21:-1 
2 1:-1 2:-1 3:-1 4:-1 5:-1 6:-1 7:-1 8:-1 9:-1 10:-1 11:-1 12:-1 13:-1 14:-1 15:-1 16:-1 17:-1 18:-1 19:-1 20:-1 21:-1 
2 1:-1 2:-1 3:-0.919192 4:-0.881657 5:-0.806061 6:-1 7:-1 8:-1 9:-1 10:-1 11:-1 12:-1 13:-1 14:-1 15:-1 16:-1 17:-1 18:-1 19:-1 20:-1 21:-1 
1.4863145014896981 1:-1 2:-0.59322 3:-0.919192 4:-1 5:-0.676768 6:-0.511864 7:-1 8:-0.558011 9:-1 10:-0.755102 11:-1 12:-1 13:-0.210526 14:-1 15:-1 16:-1 17:-1 18:-1 19:-1 20:-1 21:-1 
2 1:-1 2:-1 3:-1 4:-1 5:-1 6:-1 7:-1 8:-1 9:-1 10:-1 11:-1 12:-1 13:-1 14:-1 15:-1 16:-1 17:-1 18:-1 19:-1 20:-1 21:-1 
2 1:-0.833333 2:-0.864407 3:-1 4:-1 5:-1 6:-1 7:-1 8:-1 9:-1 10:-1 11:-1 12:-1 13:-1 14:-1 15:-1 16:-1 17:-1 18:-1 19:-1 20:-1 21:-1 
2 1:-1 2:-1 3:-1 4:-1 5:-1 6:-1 7:-1 8:-1 9:-1 10:-1 11:-1 12:-1 13:-1 14:-1 15:-1 16:-1 17:-1 18:-1 19:-1 20:-1 21:-1 
2 1:-0.0833333 2:-0.59322 3:-1 4:-0.349112 5:-1 6:-1 7:-1 8:-1 9:-1 10:-1 11:-1 12:-1 13:-1 14:-1 15:-1 16:-1 17:-1 18:-1 19:-1 20:-1 21:-1 
2 1:-1 2:-0.59322 3:-0.757576 4:-1 5:-0.418182 6:-1 7:-1 8:-1 9:-1 10:-1 11:-1 12:-1 13:-1 14:-1 15:-1 16:-1 17:-1 18:-1 19:-1 20:-1 21:-1 
